{
    "in_shape": [
        null,
        6
    ],
    "layers": [
        {
            "type": "dense",
            "activation": "tanh",
            "shape": [
                null,
                4
            ],
            "weights": [
                [
                    [
                        -0.13302695751190186,
                        0.3094088137149811,
                        -0.950047492980957,
                        -0.08823217451572418
                    ],
                    [
                        0.2503194212913513,
                        0.03893468156456947,
                        -0.7936756014823914,
                        -0.12374550849199295
                    ],
                    [
                        0.5352702140808105,
                        0.10383637994527817,
                        -1.1426231861114502,
                        -0.20681889355182648
                    ],
                    [
                        0.21627472341060638,
                        0.0451815240085125,
                        -0.7237465977668762,
                        -0.11081276834011078
                    ],
                    [
                        0.2653054893016815,
                        0.24937628209590912,
                        0.2899436354637146,
                        -2.18977689743042
                    ],
                    [
                        1.0473438501358032,
                        -1.6941004991531372,
                        -0.7453858256340027,
                        0.019107941538095474
                    ]
                ],
                [
                    -0.30251485109329224,
                    -0.5383563041687012,
                    -1.182649850845337,
                    -0.4953989088535309
                ]
            ]
        },
        {
            "type": "dense",
            "activation": "tanh",
            "shape": [
                null,
                4
            ],
            "weights": [
                [
                    [
                        -0.8759701251983643,
                        1.3113012313842773,
                        1.100176453590393,
                        -2.427114486694336
                    ],
                    [
                        0.0417599193751812,
                        -1.7737382650375366,
                        0.8151571154594421,
                        -1.3516721725463867
                    ],
                    [
                        -0.12054995447397232,
                        1.7049263715744019,
                        -1.0588103532791138,
                        0.18181724846363068
                    ],
                    [
                        0.262807697057724,
                        -2.6514439582824707,
                        -0.6464636921882629,
                        -1.9488829374313354
                    ]
                ],
                [
                    -0.1908567100763321,
                    -3.2911062240600586,
                    -2.2535552978515625,
                    -0.11519064009189606
                ]
            ]
        },
        {
            "type": "dense",
            "activation": "",
            "shape": [
                null,
                1
            ],
            "weights": [
                [
                    [
                        0.5775684118270874
                    ],
                    [
                        -0.17471076548099518
                    ],
                    [
                        1.5694770812988281
                    ],
                    [
                        1.1261860132217407
                    ]
                ],
                [
                    0.21359018981456757
                ]
            ]
        }
    ]
}