{
    "drive_0_20": {
        "in_shape": [
            null,
            6
        ],
        "layers": [
            {
                "type": "dense",
                "activation": "tanh",
                "shape": [
                    null,
                    4
                ],
                "weights": [
                    [
                        [
                            0.5539080500602722,
                            -0.36003169417381287,
                            -0.025182733312249184,
                            1.7879749536514282
                        ],
                        [
                            -0.4191489815711975,
                            -0.012617308646440506,
                            0.7673086524009705,
                            0.28977182507514954
                        ],
                        [
                            -0.6529206037521362,
                            -0.5283228754997253,
                            0.5189116597175598,
                            0.6021681427955627
                        ],
                        [
                            -0.32175326347351074,
                            0.002267407486215234,
                            0.6839509606361389,
                            0.2799675762653351
                        ],
                        [
                            -0.6983792781829834,
                            -0.19870170950889587,
                            0.2705194056034088,
                            0.03476545587182045
                        ],
                        [
                            0.4884651303291321,
                            0.12971144914627075,
                            -0.21454592049121857,
                            -0.42439404129981995
                        ]
                    ],
                    [
                        0.7477474808692932,
                        0.24461647868156433,
                        -0.21742574870586395,
                        -0.03058837167918682
                    ]
                ]
            },
            {
                "type": "dense",
                "activation": "tanh",
                "shape": [
                    null,
                    4
                ],
                "weights": [
                    [
                        [
                            1.366550326347351,
                            -1.6131484508514404,
                            -0.7385807633399963,
                            0.8184869289398193
                        ],
                        [
                            -0.10251173377037048,
                            1.2585645914077759,
                            -1.2510591745376587,
                            1.0379257202148438
                        ],
                        [
                            0.4451979696750641,
                            0.383245050907135,
                            1.4778629541397095,
                            -0.2150586098432541
                        ],
                        [
                            -0.43517404794692993,
                            0.6815381646156311,
                            -1.0035004615783691,
                            0.14282241463661194
                        ]
                    ],
                    [
                        0.14762960374355316,
                        0.05692897364497185,
                        0.017802003771066666,
                        0.08623279631137848
                    ]
                ]
            },
            {
                "type": "dense",
                "activation": "",
                "shape": [
                    null,
                    1
                ],
                "weights": [
                    [
                        [
                            -1.4433666467666626
                        ],
                        [
                            1.9784830808639526
                        ],
                        [
                            -2.4058170318603516
                        ],
                        [
                            0.4362940788269043
                        ]
                    ],
                    [
                        0.14176607131958008
                    ]
                ]
            }
        ]
    },
    "drive_5_20": {
        "in_shape": [
            null,
            6
        ],
        "layers": [
            {
                "type": "dense",
                "activation": "tanh",
                "shape": [
                    null,
                    4
                ],
                "weights": [
                    [
                        [
                            -0.9558119773864746,
                            0.06859780848026276,
                            -0.10326037555932999,
                            0.4270913302898407
                        ],
                        [
                            -0.03467966616153717,
                            -0.5345677733421326,
                            -0.7733306884765625,
                            0.6188185214996338
                        ],
                        [
                            0.44861161708831787,
                            0.005215968005359173,
                            -0.28727662563323975,
                            -0.06825101375579834
                        ],
                        [
                            0.3674659729003906,
                            -1.2149925231933594,
                            0.37442004680633545,
                            -0.6671043038368225
                        ],
                        [
                            -0.1268252283334732,
                            -0.00959043949842453,
                            -0.2468726933002472,
                            0.07351745665073395
                        ],
                        [
                            0.7979592680931091,
                            -1.2828091382980347,
                            -0.44610098004341125,
                            -0.20699089765548706
                        ]
                    ],
                    [
                        0.11021093279123306,
                        0.05742862448096275,
                        0.15277917683124542,
                        0.01164926029741764
                    ]
                ]
            },
            {
                "type": "dense",
                "activation": "tanh",
                "shape": [
                    null,
                    4
                ],
                "weights": [
                    [
                        [
                            0.17435958981513977,
                            0.6974154114723206,
                            0.15195254981517792,
                            -0.10124620795249939
                        ],
                        [
                            -0.9748308658599854,
                            0.2706541419029236,
                            -0.08072678744792938,
                            0.3274989724159241
                        ],
                        [
                            -0.7844842672348022,
                            -0.7857049107551575,
                            -0.0327957421541214,
                            0.48455125093460083
                        ],
                        [
                            0.1430036425590515,
                            -0.5103922486305237,
                            0.5402811765670776,
                            0.4409467875957489
                        ]
                    ],
                    [
                        0.02779548242688179,
                        -0.005422147456556559,
                        0.00505953561514616,
                        0.010787775740027428
                    ]
                ]
            },
            {
                "type": "dense",
                "activation": "",
                "shape": [
                    null,
                    1
                ],
                "weights": [
                    [
                        [
                            0.44812333583831787
                        ],
                        [
                            -0.6104558706283569
                        ],
                        [
                            -0.3276425004005432
                        ],
                        [
                            0.4198155999183655
                        ]
                    ],
                    [
                        -0.0046828677877783775
                    ]
                ]
            }
        ]
    },
    "drive_10_20": {
        "in_shape": [
            null,
            6
        ],
        "layers": [
            {
                "type": "dense",
                "activation": "tanh",
                "shape": [
                    null,
                    4
                ],
                "weights": [
                    [
                        [
                            1.691187858581543,
                            -0.010201167315244675,
                            -0.7069108486175537,
                            1.2750520706176758
                        ],
                        [
                            1.5884718894958496,
                            -0.0012382316635921597,
                            0.46054771542549133,
                            0.27479666471481323
                        ],
                        [
                            0.5852305293083191,
                            -0.114217609167099,
                            -0.30687639117240906,
                            0.5411010980606079
                        ],
                        [
                            1.542661190032959,
                            0.0056604379788041115,
                            0.43169310688972473,
                            0.2663802206516266
                        ],
                        [
                            0.09516945481300354,
                            -0.0039020562544465065,
                            0.07143662124872208,
                            0.036622755229473114
                        ],
                        [
                            0.6951902508735657,
                            0.3759928047657013,
                            -0.11617110669612885,
                            -0.91215580701828
                        ]
                    ],
                    [
                        -0.06732666492462158,
                        0.07142693549394608,
                        -0.0655992403626442,
                        -0.04776306077837944
                    ]
                ]
            },
            {
                "type": "dense",
                "activation": "tanh",
                "shape": [
                    null,
                    4
                ],
                "weights": [
                    [
                        [
                            1.3283156156539917,
                            0.7749454975128174,
                            0.44951149821281433,
                            0.3562130928039551
                        ],
                        [
                            -0.6001201868057251,
                            1.5759063959121704,
                            -1.1359248161315918,
                            0.2887517809867859
                        ],
                        [
                            0.7468534708023071,
                            0.4617849290370941,
                            1.5812076330184937,
                            -0.887690007686615
                        ],
                        [
                            -1.973069190979004,
                            0.09466864913702011,
                            -2.2907493114471436,
                            -0.5517510771751404
                        ]
                    ],
                    [
                        0.014200056903064251,
                        -0.09173168241977692,
                        0.036161601543426514,
                        -0.04261113703250885
                    ]
                ]
            },
            {
                "type": "dense",
                "activation": "",
                "shape": [
                    null,
                    1
                ],
                "weights": [
                    [
                        [
                            2.4258992671966553
                        ],
                        [
                            -1.9578255414962769
                        ],
                        [
                            -1.881439208984375
                        ],
                        [
                            -1.6514878273010254
                        ]
                    ],
                    [
                        -0.022475773468613625
                    ]
                ]
            }
        ]
    },
    "drive_15_20": {
        "in_shape": [
            null,
            6
        ],
        "layers": [
            {
                "type": "dense",
                "activation": "tanh",
                "shape": [
                    null,
                    4
                ],
                "weights": [
                    [
                        [
                            -2.2840189933776855,
                            0.5319299101829529,
                            0.6308448910713196,
                            0.6740530133247375
                        ],
                        [
                            -0.1489526927471161,
                            -0.2692851126194,
                            0.23626963794231415,
                            -0.21590198576450348
                        ],
                        [
                            -0.7404108047485352,
                            0.660594642162323,
                            -0.018885448575019836,
                            0.4533802568912506
                        ],
                        [
                            -0.17474831640720367,
                            -0.2310817837715149,
                            0.21760468184947968,
                            -0.04666222259402275
                        ],
                        [
                            0.029193570837378502,
                            -0.07215943187475204,
                            -0.048175398260354996,
                            0.37582340836524963
                        ],
                        [
                            0.5532558560371399,
                            -0.01995415985584259,
                            0.14483894407749176,
                            -0.367759108543396
                        ]
                    ],
                    [
                        -0.04049016907811165,
                        0.12149640172719955,
                        0.06513705104589462,
                        -0.39773985743522644
                    ]
                ]
            },
            {
                "type": "dense",
                "activation": "tanh",
                "shape": [
                    null,
                    4
                ],
                "weights": [
                    [
                        [
                            -0.5687673091888428,
                            0.577372133731842,
                            0.4812542498111725,
                            0.36724403500556946
                        ],
                        [
                            -0.6771098375320435,
                            0.028502246364951134,
                            -0.641919732093811,
                            0.7860880494117737
                        ],
                        [
                            -0.5920502543449402,
                            0.8659411072731018,
                            1.009738564491272,
                            0.25993871688842773
                        ],
                        [
                            0.4673396050930023,
                            0.27125754952430725,
                            0.682538628578186,
                            0.07561588287353516
                        ]
                    ],
                    [
                        -0.08646629750728607,
                        -0.054137371480464935,
                        0.11580825597047806,
                        -0.127325177192688
                    ]
                ]
            },
            {
                "type": "dense",
                "activation": "",
                "shape": [
                    null,
                    1
                ],
                "weights": [
                    [
                        [
                            1.606820821762085
                        ],
                        [
                            -1.4934855699539185
                        ],
                        [
                            -1.0813943147659302
                        ],
                        [
                            -1.1064764261245728
                        ]
                    ],
                    [
                        0.12630100548267365
                    ]
                ]
            }
        ]
    },
    "drive_20_20": {
        "in_shape": [
            null,
            6
        ],
        "layers": [
            {
                "type": "dense",
                "activation": "tanh",
                "shape": [
                    null,
                    4
                ],
                "weights": [
                    [
                        [
                            -1.9700442552566528,
                            -1.0783613920211792,
                            -0.15803776681423187,
                            -0.753274142742157
                        ],
                        [
                            -0.310722678899765,
                            -0.69978266954422,
                            -0.21671175956726074,
                            0.08590659499168396
                        ],
                        [
                            -0.8305525183677673,
                            -0.3817899823188782,
                            -0.7882574200630188,
                            0.3297569751739502
                        ],
                        [
                            -0.31012704968452454,
                            -0.739109456539154,
                            -0.23370406031608582,
                            0.12084642052650452
                        ],
                        [
                            0.1831192523241043,
                            0.2688731849193573,
                            0.08210919797420502,
                            0.018830521032214165
                        ],
                        [
                            0.21549347043037415,
                            -0.4915112257003784,
                            0.15855996310710907,
                            -0.35385388135910034
                        ]
                    ],
                    [
                        -0.14583106338977814,
                        -0.22485996782779694,
                        -0.0886881947517395,
                        -0.09421399980783463
                    ]
                ]
            },
            {
                "type": "dense",
                "activation": "tanh",
                "shape": [
                    null,
                    4
                ],
                "weights": [
                    [
                        [
                            0.831392765045166,
                            0.21911557018756866,
                            0.7429317831993103,
                            -0.3830190896987915
                        ],
                        [
                            0.09859468042850494,
                            -2.0828826427459717,
                            0.06304346024990082,
                            0.3249766230583191
                        ],
                        [
                            0.3674013614654541,
                            -0.08033227175474167,
                            -1.0459368228912354,
                            0.40805065631866455
                        ],
                        [
                            -0.30114978551864624,
                            -1.739585280418396,
                            -0.6035548448562622,
                            0.3122769296169281
                        ]
                    ],
                    [
                        -0.18465128540992737,
                        -0.16082297265529633,
                        -0.014718662016093731,
                        0.024135608226060867
                    ]
                ]
            },
            {
                "type": "dense",
                "activation": "",
                "shape": [
                    null,
                    1
                ],
                "weights": [
                    [
                        [
                            -0.7071293592453003
                        ],
                        [
                            -0.47023335099220276
                        ],
                        [
                            -2.797794818878174
                        ],
                        [
                            1.0935910940170288
                        ]
                    ],
                    [
                        0.05600537732243538
                    ]
                ]
            }
        ]
    },
    "drive_25_20": {
        "in_shape": [
            null,
            6
        ],
        "layers": [
            {
                "type": "dense",
                "activation": "tanh",
                "shape": [
                    null,
                    4
                ],
                "weights": [
                    [
                        [
                            -1.3211699724197388,
                            -0.0018645894015207887,
                            -0.4268260598182678,
                            -0.01707751303911209
                        ],
                        [
                            -0.3928515315055847,
                            0.5742867588996887,
                            0.2745625972747803,
                            0.24411267042160034
                        ],
                        [
                            -1.4594714641571045,
                            0.4931897222995758,
                            -0.22097425162792206,
                            0.6924242973327637
                        ],
                        [
                            -0.3353580832481384,
                            0.35337600111961365,
                            0.2904975116252899,
                            0.2868696451187134
                        ],
                        [
                            0.0016356820706278086,
                            0.20866917073726654,
                            -0.13054771721363068,
                            -0.13856300711631775
                        ],
                        [
                            0.49006959795951843,
                            -0.17140284180641174,
                            -0.28882092237472534,
                            0.0668245330452919
                        ]
                    ],
                    [
                        -0.002051806543022394,
                        -0.2662598192691803,
                        0.12607139348983765,
                        0.14582416415214539
                    ]
                ]
            },
            {
                "type": "dense",
                "activation": "tanh",
                "shape": [
                    null,
                    4
                ],
                "weights": [
                    [
                        [
                            0.4523104727268219,
                            -0.07871542870998383,
                            -0.8093603849411011,
                            -0.6531104445457458
                        ],
                        [
                            0.6215075850486755,
                            0.29956474900245667,
                            0.5986150503158569,
                            -0.8178743720054626
                        ],
                        [
                            -0.34240585565567017,
                            -0.4939209222793579,
                            0.5852892994880676,
                            0.1800878942012787
                        ],
                        [
                            0.5476725101470947,
                            -0.3411482572555542,
                            -1.155365228652954,
                            -0.6861987113952637
                        ]
                    ],
                    [
                        -0.040118634700775146,
                        -0.06804005056619644,
                        0.0009998857276514173,
                        -0.028353003785014153
                    ]
                ]
            },
            {
                "type": "dense",
                "activation": "",
                "shape": [
                    null,
                    1
                ],
                "weights": [
                    [
                        [
                            -0.9643591046333313
                        ],
                        [
                            -0.21149200201034546
                        ],
                        [
                            1.602281093597412
                        ],
                        [
                            2.0210225582122803
                        ]
                    ],
                    [
                        -0.0437050461769104
                    ]
                ]
            }
        ]
    },
    "drive_30_20": {
        "in_shape": [
            null,
            6
        ],
        "layers": [
            {
                "type": "dense",
                "activation": "tanh",
                "shape": [
                    null,
                    4
                ],
                "weights": [
                    [
                        [
                            0.4686874747276306,
                            -1.6704286336898804,
                            0.0016930587589740753,
                            -0.2920445203781128
                        ],
                        [
                            0.2676113545894623,
                            -0.2435479760169983,
                            0.6495876312255859,
                            -0.03387034311890602
                        ],
                        [
                            0.4832437038421631,
                            -1.2754758596420288,
                            0.1947927623987198,
                            -0.4115722179412842
                        ],
                        [
                            0.15285509824752808,
                            -0.1869308203458786,
                            0.5788496136665344,
                            -0.08099077641963959
                        ],
                        [
                            0.002209270605817437,
                            -0.001014206325635314,
                            0.6887904405593872,
                            -0.019466085359454155
                        ],
                        [
                            0.391776978969574,
                            0.4497852623462677,
                            1.5283149480819702,
                            0.06875335425138474
                        ]
                    ],
                    [
                        0.1103462427854538,
                        -0.03738270327448845,
                        1.0587282180786133,
                        -0.001477313693612814
                    ]
                ]
            },
            {
                "type": "dense",
                "activation": "tanh",
                "shape": [
                    null,
                    4
                ],
                "weights": [
                    [
                        [
                            -0.5828813910484314,
                            0.08588717132806778,
                            0.792997419834137,
                            0.49390947818756104
                        ],
                        [
                            -0.4562128186225891,
                            0.623207151889801,
                            0.7987598180770874,
                            0.47930365800857544
                        ],
                        [
                            -0.3108961582183838,
                            1.0637805461883545,
                            -0.4418182671070099,
                            -0.3367808759212494
                        ],
                        [
                            0.6287698149681091,
                            -0.5917105674743652,
                            -0.783065676689148,
                            -0.055280525237321854
                        ]
                    ],
                    [
                        0.0895906612277031,
                        -0.00034174686879850924,
                        -0.0031758141703903675,
                        -0.07923495769500732
                    ]
                ]
            },
            {
                "type": "dense",
                "activation": "",
                "shape": [
                    null,
                    1
                ],
                "weights": [
                    [
                        [
                            0.7509506940841675
                        ],
                        [
                            -1.196433663368225
                        ],
                        [
                            -2.401975393295288
                        ],
                        [
                            -0.7162730693817139
                        ]
                    ],
                    [
                        0.06580197811126709
                    ]
                ]
            }
        ]
    },
    "drive_35_20": {
        "in_shape": [
            null,
            6
        ],
        "layers": [
            {
                "type": "dense",
                "activation": "tanh",
                "shape": [
                    null,
                    4
                ],
                "weights": [
                    [
                        [
                            0.4842016100883484,
                            -0.7954989075660706,
                            -0.1926727443933487,
                            0.6093996167182922
                        ],
                        [
                            0.978302538394928,
                            0.9056532979011536,
                            -0.128980353474617,
                            0.026449061930179596
                        ],
                        [
                            -0.21452605724334717,
                            -0.32452183961868286,
                            0.5813575387001038,
                            0.054923687130212784
                        ],
                        [
                            0.8570435643196106,
                            0.745438277721405,
                            -0.07799742370843887,
                            0.019148124381899834
                        ],
                        [
                            -0.00289539503864944,
                            -0.19098199903964996,
                            -0.27786314487457275,
                            0.04647010937333107
                        ],
                        [
                            -0.1821780949831009,
                            0.21653538942337036,
                            0.5102009177207947,
                            -0.48233312368392944
                        ]
                    ],
                    [
                        -0.066024549305439,
                        0.3537839353084564,
                        0.6189330816268921,
                        -0.1004938930273056
                    ]
                ]
            },
            {
                "type": "dense",
                "activation": "tanh",
                "shape": [
                    null,
                    4
                ],
                "weights": [
                    [
                        [
                            -0.20683397352695465,
                            -0.1776445508003235,
                            1.0147687196731567,
                            -1.876584529876709
                        ],
                        [
                            0.6595332026481628,
                            -0.3825579881668091,
                            -1.0005770921707153,
                            1.6673367023468018
                        ],
                        [
                            1.6367944478988647,
                            -0.8052464723587036,
                            -0.06328344345092773,
                            -1.040176510810852
                        ],
                        [
                            -0.33792075514793396,
                            -1.0370876789093018,
                            -0.8546317219734192,
                            -1.803531289100647
                        ]
                    ],
                    [
                        0.4262469410896301,
                        -0.14764270186424255,
                        -0.09120644629001617,
                        -0.09362723678350449
                    ]
                ]
            },
            {
                "type": "dense",
                "activation": "",
                "shape": [
                    null,
                    1
                ],
                "weights": [
                    [
                        [
                            -0.4776611328125
                        ],
                        [
                            0.4324532747268677
                        ],
                        [
                            -2.169753313064575
                        ],
                        [
                            -1.1503262519836426
                        ]
                    ],
                    [
                        -0.00661255419254303
                    ]
                ]
            }
        ]
    },
    "drive_40_20": {
        "in_shape": [
            null,
            6
        ],
        "layers": [
            {
                "type": "dense",
                "activation": "tanh",
                "shape": [
                    null,
                    4
                ],
                "weights": [
                    [
                        [
                            0.007820529863238335,
                            -1.4924050569534302,
                            -0.3325275778770447,
                            0.3764982223510742
                        ],
                        [
                            -0.1204683929681778,
                            -0.2121892124414444,
                            -0.580500066280365,
                            -0.09463275223970413
                        ],
                        [
                            0.6125232577323914,
                            -0.7617096900939941,
                            -0.08683199435472488,
                            -0.038153138011693954
                        ],
                        [
                            -0.13062071800231934,
                            -0.20477193593978882,
                            -0.46229618787765503,
                            0.018709363415837288
                        ],
                        [
                            0.1784600466489792,
                            -0.0020712704863399267,
                            0.08281300961971283,
                            -0.1482914686203003
                        ],
                        [
                            -0.07190188020467758,
                            0.40709996223449707,
                            0.07124463468790054,
                            0.3683024048805237
                        ]
                    ],
                    [
                        -0.226998433470726,
                        0.01665189303457737,
                        -0.003628357546404004,
                        0.14408738911151886
                    ]
                ]
            },
            {
                "type": "dense",
                "activation": "tanh",
                "shape": [
                    null,
                    4
                ],
                "weights": [
                    [
                        [
                            -1.0101436376571655,
                            0.6499257683753967,
                            -0.14089126884937286,
                            0.5879694223403931
                        ],
                        [
                            -0.8915894031524658,
                            0.09869031608104706,
                            -0.7149631381034851,
                            0.08558860421180725
                        ],
                        [
                            1.2176645994186401,
                            -0.2686958909034729,
                            -0.7034571170806885,
                            -0.6130922436714172
                        ],
                        [
                            -0.28169140219688416,
                            0.36351311206817627,
                            -1.1550520658493042,
                            -0.18511752784252167
                        ]
                    ],
                    [
                        -0.07714801281690598,
                        -0.07214155793190002,
                        -0.009059102274477482,
                        -0.025005003437399864
                    ]
                ]
            },
            {
                "type": "dense",
                "activation": "",
                "shape": [
                    null,
                    1
                ],
                "weights": [
                    [
                        [
                            2.011807918548584
                        ],
                        [
                            -0.48675981163978577
                        ],
                        [
                            1.1134387254714966
                        ],
                        [
                            -0.13198834657669067
                        ]
                    ],
                    [
                        -0.11623694747686386
                    ]
                ]
            }
        ]
    },
    "drive_45_20": {
        "in_shape": [
            null,
            6
        ],
        "layers": [
            {
                "type": "dense",
                "activation": "tanh",
                "shape": [
                    null,
                    4
                ],
                "weights": [
                    [
                        [
                            0.44693025946617126,
                            -0.6487597227096558,
                            -0.8936609029769897,
                            -0.3090921938419342
                        ],
                        [
                            0.10429306328296661,
                            0.1200954020023346,
                            -0.2101985365152359,
                            0.22128964960575104
                        ],
                        [
                            0.2630425691604614,
                            -0.4370621144771576,
                            -0.9950683116912842,
                            0.591059148311615
                        ],
                        [
                            0.08061359077692032,
                            0.08109050989151001,
                            -0.14103588461875916,
                            0.140736922621727
                        ],
                        [
                            0.2186664342880249,
                            -0.1417100727558136,
                            0.01650594361126423,
                            -0.18139368295669556
                        ],
                        [
                            -0.006009465549141169,
                            0.7387038469314575,
                            0.25674811005592346,
                            0.4773528277873993
                        ]
                    ],
                    [
                        -0.5956339240074158,
                        0.08321753889322281,
                        -0.09416791796684265,
                        0.22488747537136078
                    ]
                ]
            },
            {
                "type": "dense",
                "activation": "tanh",
                "shape": [
                    null,
                    4
                ],
                "weights": [
                    [
                        [
                            -0.47989287972450256,
                            -0.4928308427333832,
                            -0.8670884370803833,
                            2.986720323562622
                        ],
                        [
                            -0.8492920398712158,
                            0.4043494760990143,
                            0.0391579270362854,
                            -1.675208330154419
                        ],
                        [
                            0.5499898791313171,
                            -0.765302300453186,
                            -0.6454450488090515,
                            -0.580269455909729
                        ],
                        [
                            0.9504638314247131,
                            -0.7858118414878845,
                            -0.543758749961853,
                            0.23638755083084106
                        ]
                    ],
                    [
                        0.021396847441792488,
                        -0.07688270509243011,
                        -0.05274517834186554,
                        -0.643442690372467
                    ]
                ]
            },
            {
                "type": "dense",
                "activation": "",
                "shape": [
                    null,
                    1
                ],
                "weights": [
                    [
                        [
                            -0.850363552570343
                        ],
                        [
                            2.0924854278564453
                        ],
                        [
                            1.256622076034546
                        ],
                        [
                            0.33475443720817566
                        ]
                    ],
                    [
                        -0.046838898211717606
                    ]
                ]
            }
        ]
    },
    "drive_50_20": {
        "in_shape": [
            null,
            6
        ],
        "layers": [
            {
                "type": "dense",
                "activation": "tanh",
                "shape": [
                    null,
                    4
                ],
                "weights": [
                    [
                        [
                            0.03710532188415527,
                            -1.2267497777938843,
                            -0.0815955400466919,
                            -0.3743898570537567
                        ],
                        [
                            -0.010182159952819347,
                            -0.12657530605793,
                            0.16254255175590515,
                            0.08225323259830475
                        ],
                        [
                            -0.32558053731918335,
                            -0.2912214398384094,
                            0.02773747593164444,
                            0.3720785081386566
                        ],
                        [
                            0.07829326391220093,
                            -0.10244463384151459,
                            0.2733945846557617,
                            -0.010310056619346142
                        ],
                        [
                            -0.3436635434627533,
                            0.13016346096992493,
                            -0.13258907198905945,
                            -0.2833840847015381
                        ],
                        [
                            -0.35788077116012573,
                            0.06582086533308029,
                            0.4775279462337494,
                            0.5236337184906006
                        ]
                    ],
                    [
                        0.33908966183662415,
                        -0.10554683208465576,
                        0.07906437665224075,
                        0.25653138756752014
                    ]
                ]
            },
            {
                "type": "dense",
                "activation": "tanh",
                "shape": [
                    null,
                    4
                ],
                "weights": [
                    [
                        [
                            0.6575002670288086,
                            0.7665876746177673,
                            0.3156527876853943,
                            0.4154994785785675
                        ],
                        [
                            -0.540931224822998,
                            1.0488646030426025,
                            -0.04870117828249931,
                            -0.21561843156814575
                        ],
                        [
                            -0.47191041707992554,
                            -0.27329614758491516,
                            -0.11120879650115967,
                            -0.3503260016441345
                        ],
                        [
                            0.09228198230266571,
                            0.043302640318870544,
                            0.7573425769805908,
                            -0.3755795359611511
                        ]
                    ],
                    [
                        -0.025184612721204758,
                        -0.04399138316512108,
                        0.036180730909109116,
                        -0.016406424343585968
                    ]
                ]
            },
            {
                "type": "dense",
                "activation": "",
                "shape": [
                    null,
                    1
                ],
                "weights": [
                    [
                        [
                            0.8561105728149414
                        ],
                        [
                            -0.5301799774169922
                        ],
                        [
                            -0.6033467054367065
                        ],
                        [
                            1.0450185537338257
                        ]
                    ],
                    [
                        0.01843327470123768
                    ]
                ]
            }
        ]
    },
    "drive_55_20": {
        "in_shape": [
            null,
            6
        ],
        "layers": [
            {
                "type": "dense",
                "activation": "tanh",
                "shape": [
                    null,
                    4
                ],
                "weights": [
                    [
                        [
                            0.1745998114347458,
                            -0.332925409078598,
                            -0.2710728049278259,
                            -1.3145560026168823
                        ],
                        [
                            -0.024545274674892426,
                            -0.37683749198913574,
                            0.07637286931276321,
                            -0.18410931527614594
                        ],
                        [
                            -0.08844736218452454,
                            -0.9185001254081726,
                            0.10965573042631149,
                            -0.31207817792892456
                        ],
                        [
                            -0.012986905872821808,
                            -0.4612691402435303,
                            0.026264557614922523,
                            -0.17187227308750153
                        ],
                        [
                            0.07879690080881119,
                            0.41846099495887756,
                            0.1612245887517929,
                            0.09509483724832535
                        ],
                        [
                            -0.5871188044548035,
                            -0.06306946277618408,
                            0.6189041137695312,
                            -0.39044424891471863
                        ]
                    ],
                    [
                        -0.13573777675628662,
                        -0.044944632798433304,
                        -0.2499532252550125,
                        -0.04110034555196762
                    ]
                ]
            },
            {
                "type": "dense",
                "activation": "tanh",
                "shape": [
                    null,
                    4
                ],
                "weights": [
                    [
                        [
                            0.182464137673378,
                            0.36576586961746216,
                            0.3338877558708191,
                            0.6588929891586304
                        ],
                        [
                            -0.5883084535598755,
                            0.4565274715423584,
                            0.1329624205827713,
                            0.6730981469154358
                        ],
                        [
                            -0.07858151197433472,
                            -0.16225914657115936,
                            -0.6236298084259033,
                            -0.20404444634914398
                        ],
                        [
                            -0.16310334205627441,
                            0.3421376049518585,
                            -0.2586020529270172,
                            -1.0730271339416504
                        ]
                    ],
                    [
                        -0.010642867535352707,
                        -0.05812384933233261,
                        0.005960042122751474,
                        0.006757269147783518
                    ]
                ]
            },
            {
                "type": "dense",
                "activation": "",
                "shape": [
                    null,
                    1
                ],
                "weights": [
                    [
                        [
                            1.2162883281707764
                        ],
                        [
                            0.7103786468505859
                        ],
                        [
                            0.7122090458869934
                        ],
                        [
                            0.9376691579818726
                        ]
                    ],
                    [
                        -0.015881340950727463
                    ]
                ]
            }
        ]
    },
    "drive_60_20": {
        "in_shape": [
            null,
            6
        ],
        "layers": [
            {
                "type": "dense",
                "activation": "tanh",
                "shape": [
                    null,
                    4
                ],
                "weights": [
                    [
                        [
                            0.20237328112125397,
                            -1.2114973068237305,
                            -1.340923547744751,
                            -0.5278417468070984
                        ],
                        [
                            -0.18346109986305237,
                            -0.1952730417251587,
                            -0.38239815831184387,
                            -0.1751946657896042
                        ],
                        [
                            -0.20295952260494232,
                            -0.9847897887229919,
                            -0.7408199906349182,
                            0.3296498656272888
                        ],
                        [
                            0.030444344505667686,
                            -0.16834935545921326,
                            -0.3209444582462311,
                            0.1850716769695282
                        ],
                        [
                            0.03331013396382332,
                            0.03645040839910507,
                            0.1971355676651001,
                            0.022755593061447144
                        ],
                        [
                            -0.6197252869606018,
                            -0.5551024079322815,
                            -0.2096366584300995,
                            0.18599911034107208
                        ]
                    ],
                    [
                        -0.02451072447001934,
                        -0.07493749260902405,
                        -0.1722346842288971,
                        0.019540585577487946
                    ]
                ]
            },
            {
                "type": "dense",
                "activation": "tanh",
                "shape": [
                    null,
                    4
                ],
                "weights": [
                    [
                        [
                            -0.14936958253383636,
                            0.9467135667800903,
                            -0.2996894419193268,
                            -0.7944105267524719
                        ],
                        [
                            0.3183487355709076,
                            -0.0885123461484909,
                            -0.5156343579292297,
                            0.13112325966358185
                        ],
                        [
                            0.26562801003456116,
                            0.5979799628257751,
                            0.6373327970504761,
                            0.4259599447250366
                        ],
                        [
                            0.5190131068229675,
                            -0.740969181060791,
                            0.28844112157821655,
                            -0.29790210723876953
                        ]
                    ],
                    [
                        0.015285986475646496,
                        -0.01698743738234043,
                        0.03393867611885071,
                        -0.008770160377025604
                    ]
                ]
            },
            {
                "type": "dense",
                "activation": "",
                "shape": [
                    null,
                    1
                ],
                "weights": [
                    [
                        [
                            -1.2346373796463013
                        ],
                        [
                            0.9871933460235596
                        ],
                        [
                            0.17330104112625122
                        ],
                        [
                            -1.0072143077850342
                        ]
                    ],
                    [
                        0.022834591567516327
                    ]
                ]
            }
        ]
    },
    "drive_65_20": {
        "in_shape": [
            null,
            6
        ],
        "layers": [
            {
                "type": "dense",
                "activation": "tanh",
                "shape": [
                    null,
                    4
                ],
                "weights": [
                    [
                        [
                            -0.6312698125839233,
                            1.1658622026443481,
                            0.601966381072998,
                            -0.1362328678369522
                        ],
                        [
                            -0.18028394877910614,
                            -0.2050580084323883,
                            0.06472957134246826,
                            -0.05256693437695503
                        ],
                        [
                            -0.25463077425956726,
                            -0.11273400485515594,
                            0.4429272413253784,
                            -0.6349906325340271
                        ],
                        [
                            -0.2676105797290802,
                            -0.37589430809020996,
                            0.04926901310682297,
                            0.03132203593850136
                        ],
                        [
                            0.4702977240085602,
                            0.511436939239502,
                            0.11650102585554123,
                            -0.2069254070520401
                        ],
                        [
                            -0.20186163485050201,
                            -0.04273395985364914,
                            -0.5212775468826294,
                            -0.23735421895980835
                        ]
                    ],
                    [
                        -0.11638551205396652,
                        -0.07279881089925766,
                        -0.08699063956737518,
                        0.10995210707187653
                    ]
                ]
            },
            {
                "type": "dense",
                "activation": "tanh",
                "shape": [
                    null,
                    4
                ],
                "weights": [
                    [
                        [
                            -0.22159814834594727,
                            -0.5317783355712891,
                            0.3043258488178253,
                            0.9312530755996704
                        ],
                        [
                            -0.3644486665725708,
                            0.3535687327384949,
                            -0.7651196718215942,
                            -0.6851630806922913
                        ],
                        [
                            -0.3187163472175598,
                            0.5400257706642151,
                            0.2407243698835373,
                            -0.6723559498786926
                        ],
                        [
                            -0.9751994609832764,
                            0.47197094559669495,
                            0.5494611859321594,
                            0.6610530614852905
                        ]
                    ],
                    [
                        -0.023601802065968513,
                        -0.04918843135237694,
                        -0.010462187230587006,
                        -0.01748863235116005
                    ]
                ]
            },
            {
                "type": "dense",
                "activation": "",
                "shape": [
                    null,
                    1
                ],
                "weights": [
                    [
                        [
                            -1.2800213098526
                        ],
                        [
                            0.33519694209098816
                        ],
                        [
                            0.7389666438102722
                        ],
                        [
                            -0.9829785227775574
                        ]
                    ],
                    [
                        -0.04458196461200714
                    ]
                ]
            }
        ]
    },
    "drive_70_20": {
        "in_shape": [
            null,
            6
        ],
        "layers": [
            {
                "type": "dense",
                "activation": "tanh",
                "shape": [
                    null,
                    4
                ],
                "weights": [
                    [
                        [
                            1.2714972496032715,
                            0.06997296214103699,
                            -1.3185672760009766,
                            0.14671854674816132
                        ],
                        [
                            0.1949257254600525,
                            -0.0054890806786715984,
                            -0.2037995159626007,
                            0.4948051869869232
                        ],
                        [
                            0.347776859998703,
                            -0.031636204570531845,
                            0.297021746635437,
                            0.788583517074585
                        ],
                        [
                            0.12477847933769226,
                            -0.005111264996230602,
                            -0.1319352090358734,
                            0.2961428761482239
                        ],
                        [
                            -0.02840077504515648,
                            -0.0067990971729159355,
                            -0.2095736861228943,
                            0.02163003943860531
                        ],
                        [
                            0.5006391406059265,
                            -0.796296238899231,
                            -0.2858787775039673,
                            0.7164157032966614
                        ]
                    ],
                    [
                        -0.039862677454948425,
                        0.06835871934890747,
                        0.038511794060468674,
                        6.309915625024587e-05
                    ]
                ]
            },
            {
                "type": "dense",
                "activation": "tanh",
                "shape": [
                    null,
                    4
                ],
                "weights": [
                    [
                        [
                            -1.078622579574585,
                            0.09343673288822174,
                            0.6198152303695679,
                            -0.1773490607738495
                        ],
                        [
                            1.1914880275726318,
                            -0.7576881051063538,
                            0.7926229238510132,
                            0.11643100529909134
                        ],
                        [
                            -0.9944624900817871,
                            0.1402059942483902,
                            -0.06135028228163719,
                            0.8627005815505981
                        ],
                        [
                            0.23181593418121338,
                            0.2240999937057495,
                            -0.3456225097179413,
                            -0.34098243713378906
                        ]
                    ],
                    [
                        -0.05305156111717224,
                        -0.00024046475300565362,
                        -0.03509923070669174,
                        -0.09160808473825455
                    ]
                ]
            },
            {
                "type": "dense",
                "activation": "",
                "shape": [
                    null,
                    1
                ],
                "weights": [
                    [
                        [
                            -0.1401156634092331
                        ],
                        [
                            -0.37969961762428284
                        ],
                        [
                            1.6230463981628418
                        ],
                        [
                            -0.2967137098312378
                        ]
                    ],
                    [
                        -0.014629579149186611
                    ]
                ]
            }
        ]
    },
    "drive_75_20": {
        "in_shape": [
            null,
            6
        ],
        "layers": [
            {
                "type": "dense",
                "activation": "tanh",
                "shape": [
                    null,
                    4
                ],
                "weights": [
                    [
                        [
                            -1.4567011594772339,
                            0.10119763761758804,
                            -1.0720103979110718,
                            0.5360627174377441
                        ],
                        [
                            -0.305982381105423,
                            -0.7607431411743164,
                            0.16260702908039093,
                            -0.07125388085842133
                        ],
                        [
                            -0.5334852337837219,
                            0.49797412753105164,
                            0.4047200083732605,
                            -0.43906405568122864
                        ],
                        [
                            -0.23719258606433868,
                            -0.769567608833313,
                            0.10768979042768478,
                            -0.028386445716023445
                        ],
                        [
                            0.03389745578169823,
                            -0.0019110551802441478,
                            -0.18668235838413239,
                            0.027262642979621887
                        ],
                        [
                            -0.4944176971912384,
                            -0.19229656457901,
                            0.12074150890111923,
                            -0.7227705121040344
                        ]
                    ],
                    [
                        -0.006404954008758068,
                        0.026914726942777634,
                        0.0969434529542923,
                        -0.005968917161226273
                    ]
                ]
            },
            {
                "type": "dense",
                "activation": "tanh",
                "shape": [
                    null,
                    4
                ],
                "weights": [
                    [
                        [
                            0.7241079211235046,
                            -0.06705904752016068,
                            0.06071906536817551,
                            -0.2773904800415039
                        ],
                        [
                            -0.2572687268257141,
                            0.5370818376541138,
                            0.302627831697464,
                            -0.28624680638313293
                        ],
                        [
                            0.28170955181121826,
                            -0.6115579009056091,
                            0.047102730721235275,
                            0.4221031367778778
                        ],
                        [
                            -0.7649874687194824,
                            0.2278880625963211,
                            0.8458911180496216,
                            -0.8684160113334656
                        ]
                    ],
                    [
                        -0.030428418889641762,
                        0.018093852326273918,
                        -0.010570456273853779,
                        0.09687446057796478
                    ]
                ]
            },
            {
                "type": "dense",
                "activation": "",
                "shape": [
                    null,
                    1
                ],
                "weights": [
                    [
                        [
                            -1.1846779584884644
                        ],
                        [
                            -0.8064367175102234
                        ],
                        [
                            0.7521164417266846
                        ],
                        [
                            -0.22862283885478973
                        ]
                    ],
                    [
                        -0.0005609042709693313
                    ]
                ]
            }
        ]
    },
    "drive_80_20": {
        "in_shape": [
            null,
            6
        ],
        "layers": [
            {
                "type": "dense",
                "activation": "tanh",
                "shape": [
                    null,
                    4
                ],
                "weights": [
                    [
                        [
                            -0.1373143494129181,
                            -0.9667235016822815,
                            1.330739974975586,
                            -0.3509597182273865
                        ],
                        [
                            -0.011805225163698196,
                            0.01024641003459692,
                            0.24515283107757568,
                            0.14622913300991058
                        ],
                        [
                            -0.5053353309631348,
                            0.9604302048683167,
                            0.725854754447937,
                            0.6599269509315491
                        ],
                        [
                            -0.006356697529554367,
                            0.299220472574234,
                            0.20595432817935944,
                            0.09221925586462021
                        ],
                        [
                            0.6528820395469666,
                            -0.39954325556755066,
                            -0.17895103991031647,
                            -0.3069773018360138
                        ],
                        [
                            0.5116062760353088,
                            0.45977717638015747,
                            0.46236881613731384,
                            0.612200915813446
                        ]
                    ],
                    [
                        -0.13686010241508484,
                        0.09900972247123718,
                        0.09112844616174698,
                        0.17754754424095154
                    ]
                ]
            },
            {
                "type": "dense",
                "activation": "tanh",
                "shape": [
                    null,
                    4
                ],
                "weights": [
                    [
                        [
                            0.9360209703445435,
                            0.5615195035934448,
                            0.6115051507949829,
                            -0.18910406529903412
                        ],
                        [
                            -0.4348243176937103,
                            -0.4323560893535614,
                            -0.07588417083024979,
                            0.4360971450805664
                        ],
                        [
                            0.2341664880514145,
                            0.0695483535528183,
                            -0.29493582248687744,
                            -0.7998122572898865
                        ],
                        [
                            0.20333760976791382,
                            1.013984203338623,
                            0.7731988430023193,
                            0.14676685631275177
                        ]
                    ],
                    [
                        0.1046149879693985,
                        -0.05299488455057144,
                        -0.06619488447904587,
                        -0.01789080537855625
                    ]
                ]
            },
            {
                "type": "dense",
                "activation": "",
                "shape": [
                    null,
                    1
                ],
                "weights": [
                    [
                        [
                            0.4983537793159485
                        ],
                        [
                            -0.5251972079277039
                        ],
                        [
                            -1.2679474353790283
                        ],
                        [
                            -0.5075584053993225
                        ]
                    ],
                    [
                        -0.048676952719688416
                    ]
                ]
            }
        ]
    },
    "drive_85_20": {
        "in_shape": [
            null,
            6
        ],
        "layers": [
            {
                "type": "dense",
                "activation": "tanh",
                "shape": [
                    null,
                    4
                ],
                "weights": [
                    [
                        [
                            -1.4042675495147705,
                            0.8854028582572937,
                            0.1505083292722702,
                            -0.41883042454719543
                        ],
                        [
                            -0.39154675602912903,
                            -0.18923746049404144,
                            -0.16656623780727386,
                            0.2282692939043045
                        ],
                        [
                            -0.3253856599330902,
                            -0.2323451042175293,
                            -0.48759227991104126,
                            0.206668883562088
                        ],
                        [
                            -0.11583346873521805,
                            0.19763511419296265,
                            -0.4152543544769287,
                            0.19639508426189423
                        ],
                        [
                            -0.06939758360385895,
                            -0.08536677807569504,
                            0.04482776299118996,
                            0.03884918615221977
                        ],
                        [
                            0.005343974102288485,
                            -0.2954237461090088,
                            -0.5776284337043762,
                            -0.7360001802444458
                        ]
                    ],
                    [
                        0.024089833721518517,
                        0.05880775302648544,
                        -0.02420053444802761,
                        -0.018297936767339706
                    ]
                ]
            },
            {
                "type": "dense",
                "activation": "tanh",
                "shape": [
                    null,
                    4
                ],
                "weights": [
                    [
                        [
                            0.8483800292015076,
                            -0.9490295648574829,
                            -1.0793949365615845,
                            -0.1016407459974289
                        ],
                        [
                            -0.5547268390655518,
                            0.6077395081520081,
                            0.18405286967754364,
                            0.3577972650527954
                        ],
                        [
                            0.3006044626235962,
                            -0.3254633843898773,
                            -0.3803881108760834,
                            0.6226494908332825
                        ],
                        [
                            0.6269868016242981,
                            -0.6676681637763977,
                            0.48244863748550415,
                            0.5832980871200562
                        ]
                    ],
                    [
                        0.0059637650847435,
                        -0.023429550230503082,
                        -0.019477559253573418,
                        -0.012882574461400509
                    ]
                ]
            },
            {
                "type": "dense",
                "activation": "",
                "shape": [
                    null,
                    1
                ],
                "weights": [
                    [
                        [
                            -0.23588770627975464
                        ],
                        [
                            0.6044244766235352
                        ],
                        [
                            -0.2437150627374649
                        ],
                        [
                            1.3659508228302002
                        ]
                    ],
                    [
                        0.0077548096887767315
                    ]
                ]
            }
        ]
    },
    "drive_90_20": {
        "in_shape": [
            null,
            6
        ],
        "layers": [
            {
                "type": "dense",
                "activation": "tanh",
                "shape": [
                    null,
                    4
                ],
                "weights": [
                    [
                        [
                            -0.49819234013557434,
                            0.4936463534832001,
                            -1.854006290435791,
                            0.9168685078620911
                        ],
                        [
                            -0.011575453914701939,
                            0.5298265814781189,
                            -0.11699505895376205,
                            -0.34577420353889465
                        ],
                        [
                            0.28699323534965515,
                            -0.22032301127910614,
                            -0.05462568625807762,
                            0.9209688901901245
                        ],
                        [
                            -0.03722543641924858,
                            0.5610288977622986,
                            -0.13409069180488586,
                            -0.48725271224975586
                        ],
                        [
                            0.07872037589550018,
                            -0.2834502160549164,
                            -0.33285027742385864,
                            -0.21233269572257996
                        ],
                        [
                            0.7932607531547546,
                            0.41461285948753357,
                            -0.39709392189979553,
                            0.2682202160358429
                        ]
                    ],
                    [
                        -0.058156780898571014,
                        0.13864539563655853,
                        0.08659522980451584,
                        0.04696054011583328
                    ]
                ]
            },
            {
                "type": "dense",
                "activation": "tanh",
                "shape": [
                    null,
                    4
                ],
                "weights": [
                    [
                        [
                            -0.7506527900695801,
                            -0.6909015774726868,
                            -0.005308920051902533,
                            -1.0330079793930054
                        ],
                        [
                            0.5729588866233826,
                            -0.05802424997091293,
                            -0.5835066437721252,
                            -0.6194945573806763
                        ],
                        [
                            -0.7222140431404114,
                            0.25585463643074036,
                            0.44277581572532654,
                            -0.2931523621082306
                        ],
                        [
                            0.8135597705841064,
                            -0.17852012813091278,
                            0.3281523287296295,
                            -0.41488736867904663
                        ]
                    ],
                    [
                        -0.06167897582054138,
                        0.0621410496532917,
                        0.14048108458518982,
                        -0.07865525782108307
                    ]
                ]
            },
            {
                "type": "dense",
                "activation": "",
                "shape": [
                    null,
                    1
                ],
                "weights": [
                    [
                        [
                            0.6499112844467163
                        ],
                        [
                            0.5014463067054749
                        ],
                        [
                            0.037671368569135666
                        ],
                        [
                            0.5209407210350037
                        ]
                    ],
                    [
                        -0.005000582430511713
                    ]
                ]
            }
        ]
    },
    "drive_95_20": {
        "in_shape": [
            null,
            6
        ],
        "layers": [
            {
                "type": "dense",
                "activation": "tanh",
                "shape": [
                    null,
                    4
                ],
                "weights": [
                    [
                        [
                            -0.7785632014274597,
                            -0.10598836094141006,
                            2.0988266468048096,
                            0.12441205233335495
                        ],
                        [
                            0.21726642549037933,
                            -0.02443375252187252,
                            0.3325147032737732,
                            -0.09317006915807724
                        ],
                        [
                            -0.4950239360332489,
                            0.9905988574028015,
                            0.39198628067970276,
                            0.0126310670748353
                        ],
                        [
                            -0.32192346453666687,
                            0.35162362456321716,
                            0.037778131663799286,
                            -0.016539501026272774
                        ],
                        [
                            0.24938957393169403,
                            -0.20030851662158966,
                            0.10302167385816574,
                            -0.02594190090894699
                        ],
                        [
                            0.19053909182548523,
                            0.432377427816391,
                            0.5190705060958862,
                            1.0591036081314087
                        ]
                    ],
                    [
                        -0.078532874584198,
                        0.12712569534778595,
                        -0.03522339090704918,
                        -0.009150191210210323
                    ]
                ]
            },
            {
                "type": "dense",
                "activation": "tanh",
                "shape": [
                    null,
                    4
                ],
                "weights": [
                    [
                        [
                            0.6668916344642639,
                            -0.8536701798439026,
                            -0.9218791723251343,
                            0.15294624865055084
                        ],
                        [
                            0.35802721977233887,
                            -0.4047892391681671,
                            0.4684797525405884,
                            -0.27850019931793213
                        ],
                        [
                            0.16395042836666107,
                            0.8299379944801331,
                            -0.08836281299591064,
                            -0.24024982750415802
                        ],
                        [
                            0.6575543880462646,
                            0.16432204842567444,
                            -0.5217941999435425,
                            -0.2801513671875
                        ]
                    ],
                    [
                        -0.03219499811530113,
                        0.04536375030875206,
                        -0.13055409491062164,
                        -0.09306877106428146
                    ]
                ]
            },
            {
                "type": "dense",
                "activation": "",
                "shape": [
                    null,
                    1
                ],
                "weights": [
                    [
                        [
                            -1.097464919090271
                        ],
                        [
                            0.7473893165588379
                        ],
                        [
                            -0.4298911988735199
                        ],
                        [
                            0.10576433688402176
                        ]
                    ],
                    [
                        -0.06142484396696091
                    ]
                ]
            }
        ]
    },
    "drive_100_20": {
        "in_shape": [
            null,
            6
        ],
        "layers": [
            {
                "type": "dense",
                "activation": "tanh",
                "shape": [
                    null,
                    4
                ],
                "weights": [
                    [
                        [
                            -0.09125597774982452,
                            -0.36786389350891113,
                            -0.34227222204208374,
                            2.1052331924438477
                        ],
                        [
                            0.4201796352863312,
                            -0.18218542635440826,
                            -0.13319453597068787,
                            0.2895961105823517
                        ],
                        [
                            0.3844701051712036,
                            -0.8077892661094666,
                            0.013842063955962658,
                            0.6218188405036926
                        ],
                        [
                            0.2947255074977875,
                            -0.03675098344683647,
                            -0.07841197401285172,
                            0.17780767381191254
                        ],
                        [
                            -0.22791725397109985,
                            -0.15498802065849304,
                            0.055323950946331024,
                            0.01065735425800085
                        ],
                        [
                            0.0741819515824318,
                            -0.363243967294693,
                            0.7700200080871582,
                            0.6396751999855042
                        ]
                    ],
                    [
                        -0.03349724039435387,
                        0.10100660473108292,
                        0.025516081601381302,
                        -0.07486360520124435
                    ]
                ]
            },
            {
                "type": "dense",
                "activation": "tanh",
                "shape": [
                    null,
                    4
                ],
                "weights": [
                    [
                        [
                            0.20049349963665009,
                            -0.5456624031066895,
                            -0.7553287148475647,
                            -0.8758508563041687
                        ],
                        [
                            -0.9155706167221069,
                            -0.25884971022605896,
                            0.5284760594367981,
                            -0.9569672346115112
                        ],
                        [
                            0.6046651005744934,
                            -0.6505672931671143,
                            0.35257649421691895,
                            -0.2722681164741516
                        ],
                        [
                            -0.005761424545198679,
                            0.6499460935592651,
                            -0.11367017775774002,
                            0.8764078617095947
                        ]
                    ],
                    [
                        -0.0215988140553236,
                        0.0192051250487566,
                        0.10503603518009186,
                        0.24202635884284973
                    ]
                ]
            },
            {
                "type": "dense",
                "activation": "",
                "shape": [
                    null,
                    1
                ],
                "weights": [
                    [
                        [
                            -0.9645727276802063
                        ],
                        [
                            0.8300893306732178
                        ],
                        [
                            -0.16163240373134613
                        ],
                        [
                            0.10028926283121109
                        ]
                    ],
                    [
                        -0.03516554459929466
                    ]
                ]
            }
        ]
    }
}