{
    "drive_0_70": {
        "in_shape": [
            null,
            5
        ],
        "layers": [
            {
                "type": "dense",
                "activation": "tanh",
                "shape": [
                    null,
                    4
                ],
                "weights": [
                    [
                        [
                            0.8008445501327515,
                            0.4441643953323364,
                            0.4198385179042816,
                            -0.1932133138179779
                        ],
                        [
                            0.1347554624080658,
                            0.04154884070158005,
                            -0.11707281321287155,
                            -0.9481635093688965
                        ],
                        [
                            0.6159102916717529,
                            -0.5402495265007019,
                            -0.274350643157959,
                            0.4980272054672241
                        ],
                        [
                            0.05321396887302399,
                            -0.19341808557510376,
                            0.11175063997507095,
                            -0.5266791582107544
                        ],
                        [
                            -0.37442606687545776,
                            -0.6001250147819519,
                            -0.28734782338142395,
                            0.6266952157020569
                        ]
                    ],
                    [
                        0.00017361649952363223,
                        -0.00019088669796474278,
                        0.0004955108161084354,
                        0.000582793727517128
                    ]
                ]
            },
            {
                "type": "dense",
                "activation": "tanh",
                "shape": [
                    null,
                    4
                ],
                "weights": [
                    [
                        [
                            -0.7347221374511719,
                            -0.7798466682434082,
                            -0.8253594636917114,
                            -0.0671069398522377
                        ],
                        [
                            0.8939546942710876,
                            0.006909153424203396,
                            -0.11779652535915375,
                            1.085413932800293
                        ],
                        [
                            0.5589190125465393,
                            -0.3658508062362671,
                            0.2835608422756195,
                            0.41106340289115906
                        ],
                        [
                            0.2167714685201645,
                            -0.22029627859592438,
                            -0.5725357532501221,
                            0.22719188034534454
                        ]
                    ],
                    [
                        0.001060705748386681,
                        0.0007864334620535374,
                        0.0004412191337905824,
                        0.0003596222086343914
                    ]
                ]
            },
            {
                "type": "dense",
                "activation": "",
                "shape": [
                    null,
                    1
                ],
                "weights": [
                    [
                        [
                            0.08799250423908234
                        ],
                        [
                            -0.935924232006073
                        ],
                        [
                            0.49543800950050354
                        ],
                        [
                            0.5118984580039978
                        ]
                    ],
                    [
                        -8.801106741884723e-05
                    ]
                ]
            }
        ]
    },
    "drive_5_70": {
        "in_shape": [
            null,
            5
        ],
        "layers": [
            {
                "type": "dense",
                "activation": "tanh",
                "shape": [
                    null,
                    4
                ],
                "weights": [
                    [
                        [
                            1.1708217859268188,
                            -0.01180595625191927,
                            -0.0699058324098587,
                            -0.060669638216495514
                        ],
                        [
                            0.20742037892341614,
                            0.20898652076721191,
                            0.41011252999305725,
                            0.0013469724217429757
                        ],
                        [
                            -0.13944771885871887,
                            -0.11480443179607391,
                            -0.07299219816923141,
                            -0.09742514044046402
                        ],
                        [
                            0.05622267723083496,
                            0.10751458257436752,
                            0.049589332193136215,
                            -0.0779951810836792
                        ],
                        [
                            0.1366165727376938,
                            -0.7721531987190247,
                            -0.03693972900509834,
                            0.46924272179603577
                        ]
                    ],
                    [
                        -0.0007446660893037915,
                        0.0003756220394279808,
                        0.0002093473303830251,
                        -0.0003078925365116447
                    ]
                ]
            },
            {
                "type": "dense",
                "activation": "tanh",
                "shape": [
                    null,
                    4
                ],
                "weights": [
                    [
                        [
                            -0.8334456086158752,
                            0.5382965803146362,
                            0.3313237428665161,
                            0.42607244849205017
                        ],
                        [
                            0.10528227686882019,
                            0.09319693595170975,
                            0.021582921966910362,
                            -0.8855526447296143
                        ],
                        [
                            0.5823519229888916,
                            -0.06703932583332062,
                            -0.25510337948799133,
                            -0.24633657932281494
                        ],
                        [
                            0.24551346898078918,
                            -0.20002658665180206,
                            0.1736462414264679,
                            0.43711528182029724
                        ]
                    ],
                    [
                        -6.538034358527511e-05,
                        0.0001350579404970631,
                        0.0002718339383136481,
                        -5.448676165542565e-05
                    ]
                ]
            },
            {
                "type": "dense",
                "activation": "",
                "shape": [
                    null,
                    1
                ],
                "weights": [
                    [
                        [
                            -0.6312348246574402
                        ],
                        [
                            0.3511615991592407
                        ],
                        [
                            -0.7789303064346313
                        ],
                        [
                            -0.45130655169487
                        ]
                    ],
                    [
                        -5.1663177146110684e-05
                    ]
                ]
            }
        ]
    },
    "drive_10_70": {
        "in_shape": [
            null,
            5
        ],
        "layers": [
            {
                "type": "dense",
                "activation": "tanh",
                "shape": [
                    null,
                    4
                ],
                "weights": [
                    [
                        [
                            0.6214359402656555,
                            0.14419202506542206,
                            -0.6975486874580383,
                            -0.171529620885849
                        ],
                        [
                            -0.22421623766422272,
                            -0.16290134191513062,
                            -0.2932485044002533,
                            -0.12648457288742065
                        ],
                        [
                            -0.667132556438446,
                            -0.52698814868927,
                            -0.3877004086971283,
                            0.27617087960243225
                        ],
                        [
                            0.01327671017497778,
                            -0.39800289273262024,
                            0.13217075169086456,
                            0.02762196958065033
                        ],
                        [
                            -0.7050178050994873,
                            -0.6417317390441895,
                            0.7794199585914612,
                            0.834867537021637
                        ]
                    ],
                    [
                        0.0013060879427939653,
                        -0.0002644835039973259,
                        0.0015527188079431653,
                        0.0010950808646157384
                    ]
                ]
            },
            {
                "type": "dense",
                "activation": "tanh",
                "shape": [
                    null,
                    4
                ],
                "weights": [
                    [
                        [
                            -0.9077602028846741,
                            0.3059510290622711,
                            0.05406450852751732,
                            -0.3567885756492615
                        ],
                        [
                            0.23654045164585114,
                            -0.39138734340667725,
                            -0.35779106616973877,
                            -0.7218067646026611
                        ],
                        [
                            -0.40979400277137756,
                            -0.7774980664253235,
                            -0.20623977482318878,
                            -0.15216951072216034
                        ],
                        [
                            0.6705909967422485,
                            0.6299874186515808,
                            0.8979479074478149,
                            -0.7867934703826904
                        ]
                    ],
                    [
                        -0.0003736178041435778,
                        -3.958060551667586e-05,
                        4.130275101488223e-06,
                        -0.00030798924854025245
                    ]
                ]
            },
            {
                "type": "dense",
                "activation": "",
                "shape": [
                    null,
                    1
                ],
                "weights": [
                    [
                        [
                            -0.3052116334438324
                        ],
                        [
                            0.4762372672557831
                        ],
                        [
                            -0.28518643975257874
                        ],
                        [
                            0.14672845602035522
                        ]
                    ],
                    [
                        3.3229338441742584e-05
                    ]
                ]
            }
        ]
    },
    "drive_15_70": {
        "in_shape": [
            null,
            5
        ],
        "layers": [
            {
                "type": "dense",
                "activation": "tanh",
                "shape": [
                    null,
                    4
                ],
                "weights": [
                    [
                        [
                            0.1215188130736351,
                            -0.5288947820663452,
                            0.7911195158958435,
                            0.18494752049446106
                        ],
                        [
                            -0.018487555906176567,
                            -0.022447790950536728,
                            -0.48857414722442627,
                            0.25858160853385925
                        ],
                        [
                            -0.37381261587142944,
                            -0.03430040180683136,
                            0.11518637090921402,
                            0.7792478203773499
                        ],
                        [
                            0.017954088747501373,
                            -0.031086482107639313,
                            -0.27039721608161926,
                            0.14381222426891327
                        ],
                        [
                            -0.9254599809646606,
                            0.0654054582118988,
                            0.06141534075140953,
                            -0.024344880133867264
                        ]
                    ],
                    [
                        8.696930308360606e-05,
                        0.0006996383308432996,
                        -6.514491360576358e-06,
                        0.0011585409520193934
                    ]
                ]
            },
            {
                "type": "dense",
                "activation": "tanh",
                "shape": [
                    null,
                    4
                ],
                "weights": [
                    [
                        [
                            0.22594371438026428,
                            0.5200815200805664,
                            0.7060056328773499,
                            -0.4381098449230194
                        ],
                        [
                            1.0744000673294067,
                            0.40361759066581726,
                            -0.42451760172843933,
                            -0.017990717664361
                        ],
                        [
                            -0.05219355970621109,
                            -0.3275620937347412,
                            0.12781871855258942,
                            -0.5076308846473694
                        ],
                        [
                            -0.2956695556640625,
                            0.5731475353240967,
                            -0.0077499039471149445,
                            -0.4759901463985443
                        ]
                    ],
                    [
                        0.0004830935795325786,
                        -0.0005384855321608484,
                        0.00023067260917741805,
                        1.0953084711218253e-05
                    ]
                ]
            },
            {
                "type": "dense",
                "activation": "",
                "shape": [
                    null,
                    1
                ],
                "weights": [
                    [
                        [
                            -0.20142841339111328
                        ],
                        [
                            0.2698000967502594
                        ],
                        [
                            0.7010307312011719
                        ],
                        [
                            -0.06958626955747604
                        ]
                    ],
                    [
                        -3.637005283962935e-05
                    ]
                ]
            }
        ]
    },
    "drive_20_70": {
        "in_shape": [
            null,
            5
        ],
        "layers": [
            {
                "type": "dense",
                "activation": "tanh",
                "shape": [
                    null,
                    4
                ],
                "weights": [
                    [
                        [
                            -0.24581551551818848,
                            0.582804799079895,
                            0.988235592842102,
                            0.503777265548706
                        ],
                        [
                            -0.41272151470184326,
                            0.12869097292423248,
                            -0.1415659338235855,
                            -0.18449461460113525
                        ],
                        [
                            -0.27671289443969727,
                            0.5641153454780579,
                            -0.13122738897800446,
                            -0.22590170800685883
                        ],
                        [
                            -0.186152383685112,
                            0.3925314247608185,
                            -0.21726028621196747,
                            -0.21408478915691376
                        ],
                        [
                            0.5360671281814575,
                            -0.13773812353610992,
                            -0.04459847882390022,
                            0.8766228556632996
                        ]
                    ],
                    [
                        0.0002648382796905935,
                        -0.0022055204026401043,
                        0.0005727712996304035,
                        0.00013698522525373846
                    ]
                ]
            },
            {
                "type": "dense",
                "activation": "tanh",
                "shape": [
                    null,
                    4
                ],
                "weights": [
                    [
                        [
                            -0.14650116860866547,
                            -0.9577335119247437,
                            0.6960600018501282,
                            0.4893043339252472
                        ],
                        [
                            -0.14870689809322357,
                            0.26862555742263794,
                            0.06406685709953308,
                            -0.024799896404147148
                        ],
                        [
                            -0.6822158098220825,
                            0.21244631707668304,
                            0.6548430323600769,
                            0.11884763091802597
                        ],
                        [
                            0.7864688634872437,
                            -1.108554482460022,
                            -0.37929767370224,
                            0.48283064365386963
                        ]
                    ],
                    [
                        0.00013427507656160742,
                        -0.0003739180974662304,
                        -0.0011832283344119787,
                        0.0007459674379788339
                    ]
                ]
            },
            {
                "type": "dense",
                "activation": "",
                "shape": [
                    null,
                    1
                ],
                "weights": [
                    [
                        [
                            -1.1820632219314575
                        ],
                        [
                            -0.29186657071113586
                        ],
                        [
                            -0.5110365748405457
                        ],
                        [
                            -0.2769693434238434
                        ]
                    ],
                    [
                        -0.00036066019674763083
                    ]
                ]
            }
        ]
    },
    "drive_25_70": {
        "in_shape": [
            null,
            5
        ],
        "layers": [
            {
                "type": "dense",
                "activation": "tanh",
                "shape": [
                    null,
                    4
                ],
                "weights": [
                    [
                        [
                            0.6494602560997009,
                            0.787921130657196,
                            0.8237239718437195,
                            -0.2624301016330719
                        ],
                        [
                            0.0980367511510849,
                            -0.3685595393180847,
                            0.3312433660030365,
                            -0.19157911837100983
                        ],
                        [
                            0.2808479368686676,
                            -0.610288143157959,
                            -0.389138400554657,
                            -0.7471535801887512
                        ],
                        [
                            -0.26327943801879883,
                            -0.3045332133769989,
                            0.03801562637090683,
                            -0.11450705677270889
                        ],
                        [
                            0.102012500166893,
                            1.023831844329834,
                            0.830720067024231,
                            0.40248987078666687
                        ]
                    ],
                    [
                        -0.001684761606156826,
                        0.0001534670009277761,
                        -0.003938841167837381,
                        0.0005005640559829772
                    ]
                ]
            },
            {
                "type": "dense",
                "activation": "tanh",
                "shape": [
                    null,
                    4
                ],
                "weights": [
                    [
                        [
                            0.38062357902526855,
                            -0.8272537589073181,
                            0.17192669212818146,
                            0.4935040771961212
                        ],
                        [
                            0.47489476203918457,
                            -0.7582033276557922,
                            -0.9203262329101562,
                            0.5863484740257263
                        ],
                        [
                            -0.26865091919898987,
                            0.9365791082382202,
                            0.35667622089385986,
                            -0.012896510772407055
                        ],
                        [
                            0.6550227403640747,
                            -0.7792463302612305,
                            0.35480237007141113,
                            -0.5945142507553101
                        ]
                    ],
                    [
                        0.0002600376319605857,
                        -0.00020176554971840233,
                        0.0005596865667030215,
                        0.0027228312101215124
                    ]
                ]
            },
            {
                "type": "dense",
                "activation": "",
                "shape": [
                    null,
                    1
                ],
                "weights": [
                    [
                        [
                            -1.1258666515350342
                        ],
                        [
                            -0.42063426971435547
                        ],
                        [
                            0.22387561202049255
                        ],
                        [
                            0.05448722094297409
                        ]
                    ],
                    [
                        6.590961857000366e-05
                    ]
                ]
            }
        ]
    },
    "drive_30_70": {
        "in_shape": [
            null,
            5
        ],
        "layers": [
            {
                "type": "dense",
                "activation": "tanh",
                "shape": [
                    null,
                    4
                ],
                "weights": [
                    [
                        [
                            -0.42923080921173096,
                            -0.09184292703866959,
                            -0.2651955485343933,
                            0.26483625173568726
                        ],
                        [
                            -0.07150372862815857,
                            -0.27920258045196533,
                            0.12371988594532013,
                            0.3155907094478607
                        ],
                        [
                            -0.3460409939289093,
                            -0.07381382584571838,
                            -0.357334703207016,
                            -0.027577891945838928
                        ],
                        [
                            -0.07809844613075256,
                            -0.14000089466571808,
                            0.2540920376777649,
                            0.1455407589673996
                        ],
                        [
                            -0.15521125495433807,
                            0.6372275352478027,
                            -0.0010790270753204823,
                            0.039370227605104446
                        ]
                    ],
                    [
                        0.0005261512123979628,
                        -0.0003052543324884027,
                        -3.18546372000128e-05,
                        -0.00016760530706960708
                    ]
                ]
            },
            {
                "type": "dense",
                "activation": "tanh",
                "shape": [
                    null,
                    4
                ],
                "weights": [
                    [
                        [
                            -0.08411641418933868,
                            -0.4300716817378998,
                            -0.04788212478160858,
                            -0.6686581373214722
                        ],
                        [
                            -0.8749709725379944,
                            0.5193653702735901,
                            -0.5814284682273865,
                            -0.838890790939331
                        ],
                        [
                            0.38021016120910645,
                            -0.16663353145122528,
                            0.772229790687561,
                            -0.14360205829143524
                        ],
                        [
                            0.6312570571899414,
                            0.35410276055336,
                            -0.39980384707450867,
                            -0.0866791382431984
                        ]
                    ],
                    [
                        -0.000170208077179268,
                        -0.00021058668789919466,
                        0.00033598829759284854,
                        -0.0002521901624277234
                    ]
                ]
            },
            {
                "type": "dense",
                "activation": "",
                "shape": [
                    null,
                    1
                ],
                "weights": [
                    [
                        [
                            -0.3388967514038086
                        ],
                        [
                            -0.37119060754776
                        ],
                        [
                            0.40637099742889404
                        ],
                        [
                            0.8694939613342285
                        ]
                    ],
                    [
                        -0.0001682898582657799
                    ]
                ]
            }
        ]
    },
    "drive_35_70": {
        "in_shape": [
            null,
            5
        ],
        "layers": [
            {
                "type": "dense",
                "activation": "tanh",
                "shape": [
                    null,
                    4
                ],
                "weights": [
                    [
                        [
                            0.35345378518104553,
                            -0.20236028730869293,
                            0.8579771518707275,
                            -0.4100182354450226
                        ],
                        [
                            -0.015011539682745934,
                            0.07529642432928085,
                            -0.029261384159326553,
                            0.6608930826187134
                        ],
                        [
                            -0.6640283465385437,
                            0.2675935924053192,
                            -0.23141798377037048,
                            -0.9343624114990234
                        ],
                        [
                            0.12322978675365448,
                            0.3819010853767395,
                            0.03219130262732506,
                            0.7075319886207581
                        ],
                        [
                            -0.8745688199996948,
                            0.17659327387809753,
                            0.023085810244083405,
                            -0.2520923912525177
                        ]
                    ],
                    [
                        0.0001901173818623647,
                        -0.0014070823090150952,
                        -0.00021909858332946897,
                        0.0011877266224473715
                    ]
                ]
            },
            {
                "type": "dense",
                "activation": "tanh",
                "shape": [
                    null,
                    4
                ],
                "weights": [
                    [
                        [
                            -0.08278990536928177,
                            0.8577828407287598,
                            -0.5697119235992432,
                            -0.6767346262931824
                        ],
                        [
                            0.053334008902311325,
                            0.5425565838813782,
                            -0.47714632749557495,
                            0.39422327280044556
                        ],
                        [
                            0.6496189832687378,
                            0.5113420486450195,
                            -0.3496788442134857,
                            0.16437184810638428
                        ],
                        [
                            -0.4970311224460602,
                            -0.5955737233161926,
                            0.5905445218086243,
                            -0.39697158336639404
                        ]
                    ],
                    [
                        -0.0002707907697185874,
                        0.00025773595552891493,
                        0.0006596599123440683,
                        -0.00010679923434508964
                    ]
                ]
            },
            {
                "type": "dense",
                "activation": "",
                "shape": [
                    null,
                    1
                ],
                "weights": [
                    [
                        [
                            0.8383455276489258
                        ],
                        [
                            -0.041220441460609436
                        ],
                        [
                            -0.25337812304496765
                        ],
                        [
                            -0.9506052136421204
                        ]
                    ],
                    [
                        0.00014294081483967602
                    ]
                ]
            }
        ]
    },
    "drive_40_70": {
        "in_shape": [
            null,
            5
        ],
        "layers": [
            {
                "type": "dense",
                "activation": "tanh",
                "shape": [
                    null,
                    4
                ],
                "weights": [
                    [
                        [
                            -0.44157594442367554,
                            -0.9069535732269287,
                            0.5923750400543213,
                            -0.380565345287323
                        ],
                        [
                            0.5730521082878113,
                            -0.09089362621307373,
                            0.4083649814128876,
                            0.08380404114723206
                        ],
                        [
                            0.7301520109176636,
                            -0.27489957213401794,
                            -0.2636810839176178,
                            0.8265891671180725
                        ],
                        [
                            0.4061136841773987,
                            -0.16021692752838135,
                            0.28221598267555237,
                            -0.008436222560703754
                        ],
                        [
                            -0.41831129789352417,
                            0.08977664262056351,
                            -0.05503389984369278,
                            0.5719868540763855
                        ]
                    ],
                    [
                        0.0007090638973750174,
                        0.0017227701609954238,
                        0.0008537127869203687,
                        -0.00021295284386724234
                    ]
                ]
            },
            {
                "type": "dense",
                "activation": "tanh",
                "shape": [
                    null,
                    4
                ],
                "weights": [
                    [
                        [
                            0.43641120195388794,
                            -0.8872174620628357,
                            0.27779170870780945,
                            0.3927108943462372
                        ],
                        [
                            -0.3360899090766907,
                            0.5908415913581848,
                            0.19107866287231445,
                            -0.01341457199305296
                        ],
                        [
                            -0.6835718750953674,
                            -0.43758267164230347,
                            0.08664777874946594,
                            0.8027285933494568
                        ],
                        [
                            -0.12530569732189178,
                            0.6350197792053223,
                            -0.6701099276542664,
                            0.20054978132247925
                        ]
                    ],
                    [
                        -3.1967501854524016e-05,
                        -0.00012699115904979408,
                        0.0003499322338029742,
                        0.00027822295669466257
                    ]
                ]
            },
            {
                "type": "dense",
                "activation": "",
                "shape": [
                    null,
                    1
                ],
                "weights": [
                    [
                        [
                            0.8859587907791138
                        ],
                        [
                            0.1499401330947876
                        ],
                        [
                            0.38663598895072937
                        ],
                        [
                            0.44669023156166077
                        ]
                    ],
                    [
                        -0.00017078679229598492
                    ]
                ]
            }
        ]
    },
    "drive_45_70": {
        "in_shape": [
            null,
            5
        ],
        "layers": [
            {
                "type": "dense",
                "activation": "tanh",
                "shape": [
                    null,
                    4
                ],
                "weights": [
                    [
                        [
                            -0.5514857769012451,
                            -0.18988287448883057,
                            -0.5771275162696838,
                            -0.48870521783828735
                        ],
                        [
                            0.2986578047275543,
                            -0.1837785840034485,
                            -0.3834863007068634,
                            -0.02028244361281395
                        ],
                        [
                            0.04114591330289841,
                            -0.7065216898918152,
                            -0.5815907716751099,
                            -1.350627064704895
                        ],
                        [
                            0.30639564990997314,
                            -0.18844471871852875,
                            -0.1591876745223999,
                            0.4124406576156616
                        ],
                        [
                            -0.8447513580322266,
                            0.765455961227417,
                            0.050803642719984055,
                            -0.5454831123352051
                        ]
                    ],
                    [
                        -0.00014589124475605786,
                        0.0001981444947887212,
                        0.003649404738098383,
                        0.00244450313039124
                    ]
                ]
            },
            {
                "type": "dense",
                "activation": "tanh",
                "shape": [
                    null,
                    4
                ],
                "weights": [
                    [
                        [
                            0.5261549353599548,
                            -0.5383324027061462,
                            0.7321321368217468,
                            -0.8916174173355103
                        ],
                        [
                            -0.030347414314746857,
                            -0.11911417543888092,
                            -0.46598362922668457,
                            -0.22497116029262543
                        ],
                        [
                            -0.5650280714035034,
                            0.777749240398407,
                            0.24413424730300903,
                            0.4510728716850281
                        ],
                        [
                            -0.19342729449272156,
                            -0.5333917737007141,
                            0.41927430033683777,
                            -0.6180325150489807
                        ]
                    ],
                    [
                        -3.267514694016427e-05,
                        -0.0008954955264925957,
                        0.0005754517042078078,
                        -0.0027897891122847795
                    ]
                ]
            },
            {
                "type": "dense",
                "activation": "",
                "shape": [
                    null,
                    1
                ],
                "weights": [
                    [
                        [
                            0.7880124449729919
                        ],
                        [
                            0.5582863092422485
                        ],
                        [
                            0.6472396850585938
                        ],
                        [
                            0.05065702274441719
                        ]
                    ],
                    [
                        0.0003326734295114875
                    ]
                ]
            }
        ]
    },
    "drive_50_70": {
        "in_shape": [
            null,
            5
        ],
        "layers": [
            {
                "type": "dense",
                "activation": "tanh",
                "shape": [
                    null,
                    4
                ],
                "weights": [
                    [
                        [
                            -0.06321753561496735,
                            -0.8602392673492432,
                            0.902082622051239,
                            0.13272696733474731
                        ],
                        [
                            -0.0468299575150013,
                            -0.5505212545394897,
                            0.023906992748379707,
                            0.633367121219635
                        ],
                        [
                            0.21789522469043732,
                            -0.25573721528053284,
                            0.3221260607242584,
                            0.8265079259872437
                        ],
                        [
                            -0.1122288852930069,
                            0.04623366892337799,
                            -0.013950343243777752,
                            0.1256508082151413
                        ],
                        [
                            0.9633355140686035,
                            -0.1786596029996872,
                            0.03321045637130737,
                            -0.15128904581069946
                        ]
                    ],
                    [
                        0.00157347007188946,
                        0.0018718631472438574,
                        -0.003614392364397645,
                        -0.0005243591731414199
                    ]
                ]
            },
            {
                "type": "dense",
                "activation": "tanh",
                "shape": [
                    null,
                    4
                ],
                "weights": [
                    [
                        [
                            0.7234387397766113,
                            -0.1449446976184845,
                            0.5813180208206177,
                            0.8841732144355774
                        ],
                        [
                            -0.35798460245132446,
                            -0.401245653629303,
                            -0.36809220910072327,
                            0.30172497034072876
                        ],
                        [
                            0.3148535192012787,
                            -0.5244162678718567,
                            0.1755499690771103,
                            0.3302953839302063
                        ],
                        [
                            -0.10240278393030167,
                            -0.8903600573539734,
                            -0.07934807986021042,
                            0.7099484801292419
                        ]
                    ],
                    [
                        -0.0028401240706443787,
                        0.0011167798656970263,
                        -0.001794701674953103,
                        -0.0023636457044631243
                    ]
                ]
            },
            {
                "type": "dense",
                "activation": "",
                "shape": [
                    null,
                    1
                ],
                "weights": [
                    [
                        [
                            -0.41278794407844543
                        ],
                        [
                            -0.7591539025306702
                        ],
                        [
                            -0.31663620471954346
                        ],
                        [
                            -0.06672411412000656
                        ]
                    ],
                    [
                        -0.0003107499214820564
                    ]
                ]
            }
        ]
    },
    "drive_55_70": {
        "in_shape": [
            null,
            5
        ],
        "layers": [
            {
                "type": "dense",
                "activation": "tanh",
                "shape": [
                    null,
                    4
                ],
                "weights": [
                    [
                        [
                            0.20672325789928436,
                            -0.5523027181625366,
                            -0.2650563716888428,
                            -0.7019810080528259
                        ],
                        [
                            0.31208130717277527,
                            0.3405815064907074,
                            0.34635844826698303,
                            -0.022434305399656296
                        ],
                        [
                            0.8937697410583496,
                            0.11215190589427948,
                            0.9104478359222412,
                            -0.08604240417480469
                        ],
                        [
                            -0.4792460799217224,
                            0.1231750026345253,
                            0.31478506326675415,
                            0.5182498693466187
                        ],
                        [
                            -0.80323725938797,
                            -1.056949496269226,
                            0.11680031567811966,
                            -0.10064806789159775
                        ]
                    ],
                    [
                        -0.0012384429574012756,
                        0.0015167536912485957,
                        -0.0013929067645221949,
                        0.0010791796958073974
                    ]
                ]
            },
            {
                "type": "dense",
                "activation": "tanh",
                "shape": [
                    null,
                    4
                ],
                "weights": [
                    [
                        [
                            -0.5018423795700073,
                            0.551947832107544,
                            -0.0035150088369846344,
                            -0.4664309024810791
                        ],
                        [
                            -0.20028480887413025,
                            -0.13203802704811096,
                            0.415056437253952,
                            0.3381427228450775
                        ],
                        [
                            0.12372656166553497,
                            -0.2689397633075714,
                            0.2944415211677551,
                            -0.6106359958648682
                        ],
                        [
                            0.34091100096702576,
                            0.03837845101952553,
                            0.2615145444869995,
                            -0.37424105405807495
                        ]
                    ],
                    [
                        0.0005659175803884864,
                        0.00035678414860740304,
                        -0.0005340773495845497,
                        -0.0008832302410155535
                    ]
                ]
            },
            {
                "type": "dense",
                "activation": "",
                "shape": [
                    null,
                    1
                ],
                "weights": [
                    [
                        [
                            0.4304178059101105
                        ],
                        [
                            0.9132153391838074
                        ],
                        [
                            1.1341627836227417
                        ],
                        [
                            -0.36386966705322266
                        ]
                    ],
                    [
                        -0.00010228731844108552
                    ]
                ]
            }
        ]
    },
    "drive_60_70": {
        "in_shape": [
            null,
            5
        ],
        "layers": [
            {
                "type": "dense",
                "activation": "tanh",
                "shape": [
                    null,
                    4
                ],
                "weights": [
                    [
                        [
                            -0.12532122433185577,
                            -0.24896907806396484,
                            0.3255717158317566,
                            -0.5995030999183655
                        ],
                        [
                            -0.33985435962677,
                            -0.07697638124227524,
                            -0.1579952836036682,
                            -0.2870992124080658
                        ],
                        [
                            -0.8134329915046692,
                            0.40227118134498596,
                            0.5395057201385498,
                            -0.019334053620696068
                        ],
                        [
                            -0.2805556654930115,
                            -0.11168889701366425,
                            -0.18832150101661682,
                            -0.2928205728530884
                        ],
                        [
                            0.019866149872541428,
                            0.8750277757644653,
                            -0.8592212200164795,
                            -0.24201273918151855
                        ]
                    ],
                    [
                        0.0018402714049443603,
                        -0.0007634502835571766,
                        0.0006551578990183771,
                        0.003308991901576519
                    ]
                ]
            },
            {
                "type": "dense",
                "activation": "tanh",
                "shape": [
                    null,
                    4
                ],
                "weights": [
                    [
                        [
                            -0.5746434926986694,
                            -1.146501898765564,
                            0.3587239682674408,
                            -0.6147422790527344
                        ],
                        [
                            -0.6405100226402283,
                            -0.6557495594024658,
                            0.7191804051399231,
                            -0.8108725547790527
                        ],
                        [
                            -0.4760741889476776,
                            0.06749776005744934,
                            -0.4766177833080292,
                            -0.4113471508026123
                        ],
                        [
                            0.6349581480026245,
                            -0.49311554431915283,
                            0.5119463205337524,
                            -0.1396956443786621
                        ]
                    ],
                    [
                        -0.001118171843700111,
                        0.0009581084595993161,
                        9.75614893832244e-05,
                        0.0009870145004242659
                    ]
                ]
            },
            {
                "type": "dense",
                "activation": "",
                "shape": [
                    null,
                    1
                ],
                "weights": [
                    [
                        [
                            0.5654921531677246
                        ],
                        [
                            -0.10372604429721832
                        ],
                        [
                            -0.6404122114181519
                        ],
                        [
                            -0.3593065142631531
                        ]
                    ],
                    [
                        0.0006342640845105052
                    ]
                ]
            }
        ]
    },
    "drive_65_70": {
        "in_shape": [
            null,
            5
        ],
        "layers": [
            {
                "type": "dense",
                "activation": "tanh",
                "shape": [
                    null,
                    4
                ],
                "weights": [
                    [
                        [
                            -0.4495851993560791,
                            0.398651659488678,
                            0.04782263934612274,
                            -0.6494762897491455
                        ],
                        [
                            -0.07452063262462616,
                            -0.05854698643088341,
                            -0.02116386406123638,
                            0.02612299658358097
                        ],
                        [
                            -0.24640999734401703,
                            -0.07948359102010727,
                            -0.31749311089515686,
                            0.9026820659637451
                        ],
                        [
                            -0.0644182488322258,
                            -0.40089523792266846,
                            0.05285879969596863,
                            0.26112762093544006
                        ],
                        [
                            0.30540749430656433,
                            0.7012614607810974,
                            -0.7326526045799255,
                            0.9497381448745728
                        ]
                    ],
                    [
                        0.00033488753251731396,
                        -0.003445075126364827,
                        -0.0004690785426646471,
                        0.0001498222118243575
                    ]
                ]
            },
            {
                "type": "dense",
                "activation": "tanh",
                "shape": [
                    null,
                    4
                ],
                "weights": [
                    [
                        [
                            0.5549585223197937,
                            0.19902373850345612,
                            -0.002701035002246499,
                            -0.4438904821872711
                        ],
                        [
                            -0.3574482500553131,
                            -0.41383275389671326,
                            0.5551157593727112,
                            0.5661954283714294
                        ],
                        [
                            -0.20070745050907135,
                            0.0900879055261612,
                            -0.01408795453608036,
                            0.24568134546279907
                        ],
                        [
                            -0.315279096364975,
                            -0.3429107069969177,
                            -0.6859721541404724,
                            -0.40887269377708435
                        ]
                    ],
                    [
                        0.0001735012629069388,
                        0.00037716180668212473,
                        -0.0003986488445661962,
                        0.00011541607091203332
                    ]
                ]
            },
            {
                "type": "dense",
                "activation": "",
                "shape": [
                    null,
                    1
                ],
                "weights": [
                    [
                        [
                            -0.5889989733695984
                        ],
                        [
                            0.8011062145233154
                        ],
                        [
                            -0.2185002863407135
                        ],
                        [
                            0.3588194251060486
                        ]
                    ],
                    [
                        -0.0001603880664333701
                    ]
                ]
            }
        ]
    },
    "drive_70_70": {
        "in_shape": [
            null,
            5
        ],
        "layers": [
            {
                "type": "dense",
                "activation": "tanh",
                "shape": [
                    null,
                    4
                ],
                "weights": [
                    [
                        [
                            0.10839132964611053,
                            0.6956244111061096,
                            0.23902346193790436,
                            0.11343994736671448
                        ],
                        [
                            -0.41932421922683716,
                            0.005932873580604792,
                            -0.20610103011131287,
                            -0.27236056327819824
                        ],
                        [
                            -0.48830264806747437,
                            -0.5223289132118225,
                            -0.156839981675148,
                            -0.7178047895431519
                        ],
                        [
                            0.48584723472595215,
                            -0.492788702249527,
                            -0.03617902472615242,
                            -0.3217024505138397
                        ],
                        [
                            -0.202950119972229,
                            0.5371643304824829,
                            0.7977995872497559,
                            -0.5439324975013733
                        ]
                    ],
                    [
                        1.3589875379693694e-05,
                        -0.0005699467728845775,
                        3.657831621239893e-05,
                        0.0006535274442285299
                    ]
                ]
            },
            {
                "type": "dense",
                "activation": "tanh",
                "shape": [
                    null,
                    4
                ],
                "weights": [
                    [
                        [
                            -0.29262983798980713,
                            0.34671154618263245,
                            0.3383394479751587,
                            -0.59306401014328
                        ],
                        [
                            0.001275513437576592,
                            -0.8319379091262817,
                            -0.5343207120895386,
                            0.11849851906299591
                        ],
                        [
                            -0.0311729796230793,
                            0.23787786066532135,
                            -0.7932792901992798,
                            0.17127005755901337
                        ],
                        [
                            -0.10308679938316345,
                            0.19221125543117523,
                            0.253923237323761,
                            -0.5718461275100708
                        ]
                    ],
                    [
                        -0.0003016072732862085,
                        -0.0008082734420895576,
                        0.0007728661876171827,
                        -0.0007237360114231706
                    ]
                ]
            },
            {
                "type": "dense",
                "activation": "",
                "shape": [
                    null,
                    1
                ],
                "weights": [
                    [
                        [
                            0.6599006652832031
                        ],
                        [
                            0.2559156119823456
                        ],
                        [
                            0.7923809289932251
                        ],
                        [
                            0.7724135518074036
                        ]
                    ],
                    [
                        0.00024197778839152306
                    ]
                ]
            }
        ]
    },
    "drive_75_70": {
        "in_shape": [
            null,
            5
        ],
        "layers": [
            {
                "type": "dense",
                "activation": "tanh",
                "shape": [
                    null,
                    4
                ],
                "weights": [
                    [
                        [
                            -0.9485960006713867,
                            0.7263590693473816,
                            0.3466210961341858,
                            0.088065966963768
                        ],
                        [
                            0.019413135945796967,
                            -0.835350751876831,
                            0.2012607455253601,
                            -0.3470558822154999
                        ],
                        [
                            0.26406511664390564,
                            0.43582579493522644,
                            -0.26898330450057983,
                            0.5232466459274292
                        ],
                        [
                            -0.06186676025390625,
                            -0.6630021929740906,
                            0.29561376571655273,
                            -0.2796850800514221
                        ],
                        [
                            0.010496164672076702,
                            -0.6594830751419067,
                            0.9398564696311951,
                            0.8536224365234375
                        ]
                    ],
                    [
                        0.0004602977423928678,
                        0.000643853796645999,
                        -0.0017609992064535618,
                        0.00022760768479201943
                    ]
                ]
            },
            {
                "type": "dense",
                "activation": "tanh",
                "shape": [
                    null,
                    4
                ],
                "weights": [
                    [
                        [
                            0.35709965229034424,
                            0.7817280292510986,
                            0.42794302105903625,
                            0.1138666495680809
                        ],
                        [
                            -0.24202445149421692,
                            -0.6259794235229492,
                            -0.008540857583284378,
                            -0.30929461121559143
                        ],
                        [
                            0.5515975952148438,
                            0.3823639154434204,
                            0.4230653643608093,
                            0.16264383494853973
                        ],
                        [
                            0.6695975661277771,
                            0.6668393611907959,
                            0.5529398918151855,
                            -0.27469033002853394
                        ]
                    ],
                    [
                        0.00021667110559064895,
                        0.0008745209197513759,
                        -0.0002673697017598897,
                        0.0006847259355708957
                    ]
                ]
            },
            {
                "type": "dense",
                "activation": "",
                "shape": [
                    null,
                    1
                ],
                "weights": [
                    [
                        [
                            -0.5092361569404602
                        ],
                        [
                            -0.6168158054351807
                        ],
                        [
                            0.8574469089508057
                        ],
                        [
                            0.7537403106689453
                        ]
                    ],
                    [
                        0.00032772490521892905
                    ]
                ]
            }
        ]
    },
    "drive_80_70": {
        "in_shape": [
            null,
            5
        ],
        "layers": [
            {
                "type": "dense",
                "activation": "tanh",
                "shape": [
                    null,
                    4
                ],
                "weights": [
                    [
                        [
                            -0.4167966842651367,
                            0.3797658383846283,
                            -0.25940096378326416,
                            -0.07786839455366135
                        ],
                        [
                            -0.0647515207529068,
                            -0.16814260184764862,
                            -0.4649660587310791,
                            0.30012011528015137
                        ],
                        [
                            -0.09422986954450607,
                            0.12497232854366302,
                            0.18183372914791107,
                            0.6523295044898987
                        ],
                        [
                            0.20812198519706726,
                            -0.23408794403076172,
                            0.5513476729393005,
                            0.05380801111459732
                        ],
                        [
                            -0.4444705843925476,
                            0.4926324486732483,
                            -0.004336473066359758,
                            0.18061259388923645
                        ]
                    ],
                    [
                        0.0020446351263672113,
                        0.000679582532029599,
                        -0.011454434134066105,
                        -0.0006650279392488301
                    ]
                ]
            },
            {
                "type": "dense",
                "activation": "tanh",
                "shape": [
                    null,
                    4
                ],
                "weights": [
                    [
                        [
                            -0.11216755211353302,
                            -0.21880772709846497,
                            -0.45035234093666077,
                            0.17364268004894257
                        ],
                        [
                            -0.3585139214992523,
                            -0.22720859944820404,
                            0.4042528569698334,
                            0.8145384192466736
                        ],
                        [
                            0.8459654450416565,
                            0.026492556557059288,
                            0.5008344650268555,
                            -0.2851411700248718
                        ],
                        [
                            0.7646292448043823,
                            -0.21148580312728882,
                            -0.37581315636634827,
                            -0.15371397137641907
                        ]
                    ],
                    [
                        0.0009073210530914366,
                        -1.4215737792255823e-05,
                        3.7332536066969624e-06,
                        -0.0006318167434073985
                    ]
                ]
            },
            {
                "type": "dense",
                "activation": "",
                "shape": [
                    null,
                    1
                ],
                "weights": [
                    [
                        [
                            0.20362107455730438
                        ],
                        [
                            -0.6833545565605164
                        ],
                        [
                            -0.37669655680656433
                        ],
                        [
                            -0.16956225037574768
                        ]
                    ],
                    [
                        -0.0002629268274176866
                    ]
                ]
            }
        ]
    },
    "drive_85_70": {
        "in_shape": [
            null,
            5
        ],
        "layers": [
            {
                "type": "dense",
                "activation": "tanh",
                "shape": [
                    null,
                    4
                ],
                "weights": [
                    [
                        [
                            0.07479209452867508,
                            -0.33289170265197754,
                            -0.6059079766273499,
                            0.5807021260261536
                        ],
                        [
                            0.2782367765903473,
                            0.1380603164434433,
                            -0.035078827291727066,
                            0.21464566886425018
                        ],
                        [
                            -0.15222984552383423,
                            -0.2320532202720642,
                            0.022872671484947205,
                            -0.713495671749115
                        ],
                        [
                            -0.04004579409956932,
                            0.16760258376598358,
                            0.01015282142907381,
                            0.08965577930212021
                        ],
                        [
                            -0.49073365330696106,
                            -0.06150516867637634,
                            0.9812270402908325,
                            -0.2670183777809143
                        ]
                    ],
                    [
                        -0.0015802670968696475,
                        -0.0002704529033508152,
                        0.0008505606092512608,
                        -0.0013632688205689192
                    ]
                ]
            },
            {
                "type": "dense",
                "activation": "tanh",
                "shape": [
                    null,
                    4
                ],
                "weights": [
                    [
                        [
                            0.26268288493156433,
                            -0.37972185015678406,
                            -0.02113932929933071,
                            0.40999335050582886
                        ],
                        [
                            0.370601087808609,
                            0.15665923058986664,
                            0.23694655299186707,
                            0.750160276889801
                        ],
                        [
                            0.7096312046051025,
                            -0.3363700807094574,
                            -0.688148021697998,
                            -0.13926129043102264
                        ],
                        [
                            0.31537753343582153,
                            0.6205856204032898,
                            0.6804949641227722,
                            -0.08407652378082275
                        ]
                    ],
                    [
                        -0.0009890468791127205,
                        0.0005673604318872094,
                        -0.00010834740533027798,
                        -0.0005237269797362387
                    ]
                ]
            },
            {
                "type": "dense",
                "activation": "",
                "shape": [
                    null,
                    1
                ],
                "weights": [
                    [
                        [
                            -0.4011426568031311
                        ],
                        [
                            0.32414066791534424
                        ],
                        [
                            -0.1977337747812271
                        ],
                        [
                            0.5380861759185791
                        ]
                    ],
                    [
                        -0.00012628297554329038
                    ]
                ]
            }
        ]
    },
    "drive_90_70": {
        "in_shape": [
            null,
            5
        ],
        "layers": [
            {
                "type": "dense",
                "activation": "tanh",
                "shape": [
                    null,
                    4
                ],
                "weights": [
                    [
                        [
                            -0.17562639713287354,
                            0.0566549114882946,
                            0.13364413380622864,
                            -0.4962538182735443
                        ],
                        [
                            0.21834266185760498,
                            0.272749662399292,
                            -0.41471007466316223,
                            0.2956050932407379
                        ],
                        [
                            -0.32049766182899475,
                            0.6338508129119873,
                            -0.2509911060333252,
                            -1.1622211933135986
                        ],
                        [
                            0.24524420499801636,
                            0.2616976797580719,
                            -0.6530384421348572,
                            -0.3634355068206787
                        ],
                        [
                            -0.9177834987640381,
                            -0.14183031022548676,
                            -0.10007775574922562,
                            -1.1506292819976807
                        ]
                    ],
                    [
                        0.00246047368273139,
                        -0.0013962102821096778,
                        0.00026379257906228304,
                        0.005736055783927441
                    ]
                ]
            },
            {
                "type": "dense",
                "activation": "tanh",
                "shape": [
                    null,
                    4
                ],
                "weights": [
                    [
                        [
                            0.6696309447288513,
                            -0.14784429967403412,
                            0.08827584981918335,
                            0.573070764541626
                        ],
                        [
                            -0.20910023152828217,
                            0.011644288897514343,
                            -0.6235695481300354,
                            0.543143093585968
                        ],
                        [
                            0.43456417322158813,
                            -0.7461564540863037,
                            -0.23315338790416718,
                            -0.15928643941879272
                        ],
                        [
                            0.7071486711502075,
                            -0.27115458250045776,
                            0.8166025876998901,
                            -0.6075695753097534
                        ]
                    ],
                    [
                        -0.0005017333896830678,
                        0.0005944438744336367,
                        4.7227305913111195e-05,
                        0.00010019257024396211
                    ]
                ]
            },
            {
                "type": "dense",
                "activation": "",
                "shape": [
                    null,
                    1
                ],
                "weights": [
                    [
                        [
                            0.7057220339775085
                        ],
                        [
                            0.09821409732103348
                        ],
                        [
                            -0.5675502419471741
                        ],
                        [
                            0.17389518022537231
                        ]
                    ],
                    [
                        -3.86813044315204e-05
                    ]
                ]
            }
        ]
    },
    "drive_95_70": {
        "in_shape": [
            null,
            5
        ],
        "layers": [
            {
                "type": "dense",
                "activation": "tanh",
                "shape": [
                    null,
                    4
                ],
                "weights": [
                    [
                        [
                            -0.8944072127342224,
                            -0.6217641830444336,
                            0.2414662092924118,
                            -0.36125701665878296
                        ],
                        [
                            0.09036260098218918,
                            -0.07166164368391037,
                            -0.16210108995437622,
                            0.1999167650938034
                        ],
                        [
                            0.43638747930526733,
                            -0.4219787120819092,
                            0.6559626460075378,
                            -0.20749537646770477
                        ],
                        [
                            0.14501279592514038,
                            -0.47947564721107483,
                            -0.19750089943408966,
                            0.22237515449523926
                        ],
                        [
                            -0.1663137972354889,
                            0.2330506294965744,
                            -1.0102287530899048,
                            -0.41291344165802
                        ]
                    ],
                    [
                        0.002110738307237625,
                        0.011443275958299637,
                        -0.0024636005982756615,
                        0.0015889432979747653
                    ]
                ]
            },
            {
                "type": "dense",
                "activation": "tanh",
                "shape": [
                    null,
                    4
                ],
                "weights": [
                    [
                        [
                            -0.0013328548520803452,
                            -0.274432897567749,
                            0.5041890144348145,
                            0.46685367822647095
                        ],
                        [
                            -0.5212451219558716,
                            -0.6290425658226013,
                            0.7988320589065552,
                            0.6164522767066956
                        ],
                        [
                            0.1115916520357132,
                            -0.3014325201511383,
                            0.14397181570529938,
                            -0.3941243290901184
                        ],
                        [
                            -0.551243245601654,
                            0.22708085179328918,
                            -0.28234297037124634,
                            -0.514769971370697
                        ]
                    ],
                    [
                        -0.0008562079165130854,
                        -0.0018929413054138422,
                        0.0011616514530032873,
                        0.00047591852489858866
                    ]
                ]
            },
            {
                "type": "dense",
                "activation": "",
                "shape": [
                    null,
                    1
                ],
                "weights": [
                    [
                        [
                            -0.2665090262889862
                        ],
                        [
                            0.27789703011512756
                        ],
                        [
                            0.6545029282569885
                        ],
                        [
                            -0.7817028760910034
                        ]
                    ],
                    [
                        0.000184633259777911
                    ]
                ]
            }
        ]
    },
    "drive_100_70": {
        "in_shape": [
            null,
            5
        ],
        "layers": [
            {
                "type": "dense",
                "activation": "tanh",
                "shape": [
                    null,
                    4
                ],
                "weights": [
                    [
                        [
                            0.21416635811328888,
                            0.1414855271577835,
                            -0.2137012928724289,
                            -0.7851800918579102
                        ],
                        [
                            -0.06082150712609291,
                            0.16598623991012573,
                            -0.15301956236362457,
                            0.3195684552192688
                        ],
                        [
                            0.17770026624202728,
                            0.4467317461967468,
                            -1.1026235818862915,
                            0.4229307770729065
                        ],
                        [
                            -0.10277929902076721,
                            0.11130747199058533,
                            -0.4051453471183777,
                            0.2875167429447174
                        ],
                        [
                            0.312055379152298,
                            -0.6367421746253967,
                            0.2583642601966858,
                            -1.26108980178833
                        ]
                    ],
                    [
                        -0.002870377851650119,
                        -0.0010001069167628884,
                        0.01776696927845478,
                        -0.0001966293202713132
                    ]
                ]
            },
            {
                "type": "dense",
                "activation": "tanh",
                "shape": [
                    null,
                    4
                ],
                "weights": [
                    [
                        [
                            -0.07575946301221848,
                            -0.5762266516685486,
                            0.7001831531524658,
                            -0.38447535037994385
                        ],
                        [
                            -0.20454277098178864,
                            0.0003965239448007196,
                            0.1463019698858261,
                            0.38184574246406555
                        ],
                        [
                            -0.6122295260429382,
                            -0.5839652419090271,
                            0.45410776138305664,
                            -0.4479812979698181
                        ],
                        [
                            0.047874078154563904,
                            -0.4898408353328705,
                            0.8912734985351562,
                            -0.3787710964679718
                        ]
                    ],
                    [
                        0.0007761552114970982,
                        0.00018179579637944698,
                        0.0013682026183232665,
                        0.0003970893449150026
                    ]
                ]
            },
            {
                "type": "dense",
                "activation": "",
                "shape": [
                    null,
                    1
                ],
                "weights": [
                    [
                        [
                            -0.390550434589386
                        ],
                        [
                            1.0141828060150146
                        ],
                        [
                            0.6832684278488159
                        ],
                        [
                            -0.06858789175748825
                        ]
                    ],
                    [
                        -0.0006050992524251342
                    ]
                ]
            }
        ]
    }
}