{
    "drive_0_60": {
        "in_shape": [
            null,
            5
        ],
        "layers": [
            {
                "type": "dense",
                "activation": "tanh",
                "shape": [
                    null,
                    4
                ],
                "weights": [
                    [
                        [
                            0.7930416464805603,
                            -0.6545807123184204,
                            -0.14461538195610046,
                            0.17503312230110168
                        ],
                        [
                            0.16733188927173615,
                            0.360948771238327,
                            0.10593242198228836,
                            0.03696015104651451
                        ],
                        [
                            0.2221151888370514,
                            0.32311320304870605,
                            -0.7116870284080505,
                            0.5554966330528259
                        ],
                        [
                            0.06799057126045227,
                            0.45917439460754395,
                            0.6997463703155518,
                            -0.5532644987106323
                        ],
                        [
                            -0.19134972989559174,
                            -0.3074926435947418,
                            0.3940989375114441,
                            0.027338609099388123
                        ]
                    ],
                    [
                        -0.00038565730210393667,
                        -0.0005295168375596404,
                        -0.0004520818474702537,
                        -0.0005351713043637574
                    ]
                ]
            },
            {
                "type": "dense",
                "activation": "tanh",
                "shape": [
                    null,
                    4
                ],
                "weights": [
                    [
                        [
                            0.47493356466293335,
                            -0.2724025249481201,
                            0.4913780987262726,
                            -0.07945626229047775
                        ],
                        [
                            0.4747105836868286,
                            -0.03529450297355652,
                            0.28947895765304565,
                            -0.7652140855789185
                        ],
                        [
                            -0.6055465340614319,
                            -0.6623615026473999,
                            -0.6234757304191589,
                            -0.27044984698295593
                        ],
                        [
                            -0.5858868360519409,
                            -0.8135370016098022,
                            -0.10676737874746323,
                            0.14489467442035675
                        ]
                    ],
                    [
                        0.0011059818789362907,
                        -0.00137966254260391,
                        0.0002230253303423524,
                        0.000229309152928181
                    ]
                ]
            },
            {
                "type": "dense",
                "activation": "",
                "shape": [
                    null,
                    1
                ],
                "weights": [
                    [
                        [
                            0.23848393559455872
                        ],
                        [
                            0.4144437611103058
                        ],
                        [
                            0.8517993688583374
                        ],
                        [
                            -0.5840455889701843
                        ]
                    ],
                    [
                        0.00019924633670598269
                    ]
                ]
            }
        ]
    },
    "drive_5_60": {
        "in_shape": [
            null,
            5
        ],
        "layers": [
            {
                "type": "dense",
                "activation": "tanh",
                "shape": [
                    null,
                    4
                ],
                "weights": [
                    [
                        [
                            0.8506858348846436,
                            0.03062918223440647,
                            -0.2119860202074051,
                            -0.4504286050796509
                        ],
                        [
                            0.11305076628923416,
                            -0.2802314758300781,
                            -0.0038199000991880894,
                            0.5674859285354614
                        ],
                        [
                            0.8152602910995483,
                            -0.6339244246482849,
                            -0.22954483330249786,
                            -0.4489878714084625
                        ],
                        [
                            -0.32937291264533997,
                            -0.2357204705476761,
                            0.09700343012809753,
                            0.38037046790122986
                        ],
                        [
                            -0.4603751301765442,
                            -0.01111509371548891,
                            -0.9032853841781616,
                            0.12473638355731964
                        ]
                    ],
                    [
                        -0.0022752496879547834,
                        5.467617665999569e-05,
                        0.00014489947352558374,
                        0.0013672081986442208
                    ]
                ]
            },
            {
                "type": "dense",
                "activation": "tanh",
                "shape": [
                    null,
                    4
                ],
                "weights": [
                    [
                        [
                            0.6604617834091187,
                            0.673676609992981,
                            0.02224937081336975,
                            -0.7532179355621338
                        ],
                        [
                            0.20941367745399475,
                            -0.5146186351776123,
                            -0.5401018261909485,
                            0.06998222321271896
                        ],
                        [
                            -0.16605596244335175,
                            -0.41403278708457947,
                            0.04798898473381996,
                            -0.772392213344574
                        ],
                        [
                            -0.25331443548202515,
                            -0.6408641338348389,
                            -0.325419545173645,
                            -0.09621115773916245
                        ]
                    ],
                    [
                        -0.0006768017774447799,
                        0.000585659930948168,
                        8.30340213724412e-05,
                        0.0005553386290557683
                    ]
                ]
            },
            {
                "type": "dense",
                "activation": "",
                "shape": [
                    null,
                    1
                ],
                "weights": [
                    [
                        [
                            -0.9177215695381165
                        ],
                        [
                            0.2529503107070923
                        ],
                        [
                            0.6211941242218018
                        ],
                        [
                            -0.8205667734146118
                        ]
                    ],
                    [
                        6.380498234648257e-05
                    ]
                ]
            }
        ]
    },
    "drive_10_60": {
        "in_shape": [
            null,
            5
        ],
        "layers": [
            {
                "type": "dense",
                "activation": "tanh",
                "shape": [
                    null,
                    4
                ],
                "weights": [
                    [
                        [
                            -0.009026594460010529,
                            0.619198739528656,
                            -0.41591620445251465,
                            -0.7584357261657715
                        ],
                        [
                            0.14422890543937683,
                            0.16425968706607819,
                            0.3772284984588623,
                            -0.04941733926534653
                        ],
                        [
                            -0.2355361133813858,
                            0.057023994624614716,
                            -0.6529114246368408,
                            0.4294843375682831
                        ],
                        [
                            0.19158969819545746,
                            0.18575528264045715,
                            0.3337477147579193,
                            -0.1323695033788681
                        ],
                        [
                            -0.42357897758483887,
                            -0.07123555988073349,
                            -0.4954734742641449,
                            -0.7582619786262512
                        ]
                    ],
                    [
                        0.0009625879465602338,
                        -0.000979865901172161,
                        -0.00026290753157809377,
                        0.0005503586144186556
                    ]
                ]
            },
            {
                "type": "dense",
                "activation": "tanh",
                "shape": [
                    null,
                    4
                ],
                "weights": [
                    [
                        [
                            -0.5417643785476685,
                            -0.2876139283180237,
                            0.1434897780418396,
                            0.14407981932163239
                        ],
                        [
                            0.11542562395334244,
                            0.45994648337364197,
                            0.8147528767585754,
                            0.7323294878005981
                        ],
                        [
                            -0.30588844418525696,
                            -0.337290495634079,
                            0.11073553562164307,
                            0.9225717782974243
                        ],
                        [
                            -0.05437037721276283,
                            -0.792966902256012,
                            0.38409659266471863,
                            -0.9837283492088318
                        ]
                    ],
                    [
                        -7.637100497959182e-05,
                        0.0007564654806628823,
                        -0.0003126545634586364,
                        -0.001069112797267735
                    ]
                ]
            },
            {
                "type": "dense",
                "activation": "",
                "shape": [
                    null,
                    1
                ],
                "weights": [
                    [
                        [
                            -0.43057551980018616
                        ],
                        [
                            0.23604340851306915
                        ],
                        [
                            0.9481731057167053
                        ],
                        [
                            -0.23529255390167236
                        ]
                    ],
                    [
                        1.5094697118911427e-05
                    ]
                ]
            }
        ]
    },
    "drive_15_60": {
        "in_shape": [
            null,
            5
        ],
        "layers": [
            {
                "type": "dense",
                "activation": "tanh",
                "shape": [
                    null,
                    4
                ],
                "weights": [
                    [
                        [
                            0.46913161873817444,
                            -0.43326956033706665,
                            -0.7769348621368408,
                            0.3629748225212097
                        ],
                        [
                            0.6545831561088562,
                            0.08011671900749207,
                            -0.10934530943632126,
                            -0.3104765713214874
                        ],
                        [
                            -0.1274634450674057,
                            0.7325319647789001,
                            -0.3535613715648651,
                            0.22391286492347717
                        ],
                        [
                            0.6487868428230286,
                            -0.07534821331501007,
                            -0.05488632991909981,
                            -0.15891043841838837
                        ],
                        [
                            0.5253177881240845,
                            -0.019992219284176826,
                            0.7808932662010193,
                            0.3316689729690552
                        ]
                    ],
                    [
                        -0.002227705903351307,
                        -0.000853149511385709,
                        0.001198503072373569,
                        -0.0005911655025556684
                    ]
                ]
            },
            {
                "type": "dense",
                "activation": "tanh",
                "shape": [
                    null,
                    4
                ],
                "weights": [
                    [
                        [
                            0.6391147375106812,
                            0.04207560047507286,
                            -0.3484831154346466,
                            -0.014144746586680412
                        ],
                        [
                            -0.15530389547348022,
                            0.14920468628406525,
                            -0.8623269200325012,
                            -0.454924076795578
                        ],
                        [
                            -0.7982762455940247,
                            -0.40080806612968445,
                            0.14580652117729187,
                            -0.5990137457847595
                        ],
                        [
                            0.9055485129356384,
                            -0.09442373365163803,
                            -0.28125065565109253,
                            -0.2486499547958374
                        ]
                    ],
                    [
                        0.0005984660820104182,
                        -0.00019458313181530684,
                        -0.0003077142173424363,
                        0.0005274839932098985
                    ]
                ]
            },
            {
                "type": "dense",
                "activation": "",
                "shape": [
                    null,
                    1
                ],
                "weights": [
                    [
                        [
                            0.13767947256565094
                        ],
                        [
                            0.8240349888801575
                        ],
                        [
                            0.5730219483375549
                        ],
                        [
                            0.13653312623500824
                        ]
                    ],
                    [
                        3.417844345676713e-05
                    ]
                ]
            }
        ]
    },
    "drive_20_60": {
        "in_shape": [
            null,
            5
        ],
        "layers": [
            {
                "type": "dense",
                "activation": "tanh",
                "shape": [
                    null,
                    4
                ],
                "weights": [
                    [
                        [
                            -0.6875743269920349,
                            -0.7437173128128052,
                            0.3024422228336334,
                            -0.6514724493026733
                        ],
                        [
                            -0.14275570213794708,
                            0.25419580936431885,
                            -0.3216851055622101,
                            -0.07447542250156403
                        ],
                        [
                            0.050938136875629425,
                            0.7121171355247498,
                            0.1050056666135788,
                            -0.10757134109735489
                        ],
                        [
                            -0.023948779329657555,
                            0.18623784184455872,
                            -0.34709012508392334,
                            -0.24236145615577698
                        ],
                        [
                            0.25269171595573425,
                            0.38279983401298523,
                            1.2247740030288696,
                            -0.3339989483356476
                        ]
                    ],
                    [
                        -0.0005034575005993247,
                        0.00010419213504064828,
                        0.00016846181824803352,
                        0.0020190102513879538
                    ]
                ]
            },
            {
                "type": "dense",
                "activation": "tanh",
                "shape": [
                    null,
                    4
                ],
                "weights": [
                    [
                        [
                            -0.4894600808620453,
                            0.09760409593582153,
                            -0.5209255814552307,
                            -0.27468252182006836
                        ],
                        [
                            -0.48041099309921265,
                            0.7096326947212219,
                            -0.6756948232650757,
                            -0.4265357553958893
                        ],
                        [
                            -0.8145575523376465,
                            0.3129883110523224,
                            0.5017344951629639,
                            0.9820257425308228
                        ],
                        [
                            -0.4972236156463623,
                            0.09263323247432709,
                            -0.46337202191352844,
                            -0.4816281497478485
                        ]
                    ],
                    [
                        -0.000939968740567565,
                        -3.463926987024024e-05,
                        0.00025403217296116054,
                        -0.0015119023155421019
                    ]
                ]
            },
            {
                "type": "dense",
                "activation": "",
                "shape": [
                    null,
                    1
                ],
                "weights": [
                    [
                        [
                            -0.20920157432556152
                        ],
                        [
                            -1.1007517576217651
                        ],
                        [
                            0.4720039665699005
                        ],
                        [
                            -0.13234718143939972
                        ]
                    ],
                    [
                        -0.00017479393864050508
                    ]
                ]
            }
        ]
    },
    "drive_25_60": {
        "in_shape": [
            null,
            5
        ],
        "layers": [
            {
                "type": "dense",
                "activation": "tanh",
                "shape": [
                    null,
                    4
                ],
                "weights": [
                    [
                        [
                            -0.4203316867351532,
                            -0.3014804422855377,
                            0.03156386688351631,
                            -0.8737913966178894
                        ],
                        [
                            -0.47340843081474304,
                            -0.05783462151885033,
                            0.29311108589172363,
                            0.728076159954071
                        ],
                        [
                            -0.47425395250320435,
                            0.7945448160171509,
                            0.7656428217887878,
                            -0.04356929287314415
                        ],
                        [
                            -0.3282517194747925,
                            -0.004740606993436813,
                            0.25293001532554626,
                            0.3454568386077881
                        ],
                        [
                            -0.5274344086647034,
                            0.5605793595314026,
                            -0.03432656079530716,
                            0.19349902868270874
                        ]
                    ],
                    [
                        0.0029700896702706814,
                        -0.0015679101925343275,
                        -0.0004925227258354425,
                        0.004414604976773262
                    ]
                ]
            },
            {
                "type": "dense",
                "activation": "tanh",
                "shape": [
                    null,
                    4
                ],
                "weights": [
                    [
                        [
                            -1.0018775463104248,
                            -0.34199172258377075,
                            -0.8534893989562988,
                            0.46332263946533203
                        ],
                        [
                            0.26626351475715637,
                            0.48300114274024963,
                            0.7195625305175781,
                            -0.8663558959960938
                        ],
                        [
                            -0.346024751663208,
                            -0.10728447139263153,
                            -0.03816865012049675,
                            0.7133683562278748
                        ],
                        [
                            0.15399307012557983,
                            0.5339673757553101,
                            0.6073497533798218,
                            -0.24479317665100098
                        ]
                    ],
                    [
                        -0.00018180608458351344,
                        -0.0001127879586420022,
                        -0.00038208847399801016,
                        -0.00022573962633032352
                    ]
                ]
            },
            {
                "type": "dense",
                "activation": "",
                "shape": [
                    null,
                    1
                ],
                "weights": [
                    [
                        [
                            0.2078864574432373
                        ],
                        [
                            -0.21102489531040192
                        ],
                        [
                            0.223910853266716
                        ],
                        [
                            0.8016204833984375
                        ]
                    ],
                    [
                        8.099290425889194e-05
                    ]
                ]
            }
        ]
    },
    "drive_30_60": {
        "in_shape": [
            null,
            5
        ],
        "layers": [
            {
                "type": "dense",
                "activation": "tanh",
                "shape": [
                    null,
                    4
                ],
                "weights": [
                    [
                        [
                            -0.23750096559524536,
                            0.4306371808052063,
                            0.8619136810302734,
                            0.20832112431526184
                        ],
                        [
                            -0.20856717228889465,
                            0.031076790764927864,
                            -0.2573908269405365,
                            -0.13034534454345703
                        ],
                        [
                            -0.5765870809555054,
                            -0.8438117504119873,
                            -0.8114631772041321,
                            -0.8262776136398315
                        ],
                        [
                            -0.18431465327739716,
                            -0.11958067119121552,
                            -0.1648550182580948,
                            0.12960131466388702
                        ],
                        [
                            -0.17333123087882996,
                            -1.0076340436935425,
                            -0.7506471276283264,
                            -0.6098076701164246
                        ]
                    ],
                    [
                        0.0007307920604944229,
                        0.0051137469708919525,
                        0.0022411749232560396,
                        -0.0013761995360255241
                    ]
                ]
            },
            {
                "type": "dense",
                "activation": "tanh",
                "shape": [
                    null,
                    4
                ],
                "weights": [
                    [
                        [
                            0.8838135004043579,
                            0.08542439341545105,
                            0.19516432285308838,
                            -0.051299985498189926
                        ],
                        [
                            0.11692778766155243,
                            0.33050382137298584,
                            -0.3309130072593689,
                            -0.5210790038108826
                        ],
                        [
                            -0.1998155117034912,
                            0.3909863531589508,
                            0.5189597010612488,
                            0.31124067306518555
                        ],
                        [
                            -0.1303148716688156,
                            -0.442746102809906,
                            -0.8669484853744507,
                            0.6635510325431824
                        ]
                    ],
                    [
                        -8.098999387584627e-05,
                        0.0017688291845843196,
                        0.0019648729357868433,
                        0.0008230822859331965
                    ]
                ]
            },
            {
                "type": "dense",
                "activation": "",
                "shape": [
                    null,
                    1
                ],
                "weights": [
                    [
                        [
                            -0.4679225981235504
                        ],
                        [
                            0.7342207431793213
                        ],
                        [
                            -0.2888866662979126
                        ],
                        [
                            0.24846525490283966
                        ]
                    ],
                    [
                        -0.0019475601147860289
                    ]
                ]
            }
        ]
    },
    "drive_35_60": {
        "in_shape": [
            null,
            5
        ],
        "layers": [
            {
                "type": "dense",
                "activation": "tanh",
                "shape": [
                    null,
                    4
                ],
                "weights": [
                    [
                        [
                            -0.4885353147983551,
                            0.3109408915042877,
                            -0.022752728313207626,
                            -0.6287437677383423
                        ],
                        [
                            -0.6135336756706238,
                            0.16495978832244873,
                            0.6857537031173706,
                            0.2370535284280777
                        ],
                        [
                            0.8043591380119324,
                            0.2933223843574524,
                            -0.12791839241981506,
                            0.9335134625434875
                        ],
                        [
                            0.19018878042697906,
                            0.16548305749893188,
                            -0.07685482501983643,
                            0.06693357974290848
                        ],
                        [
                            -0.5254183411598206,
                            0.5089240670204163,
                            0.2470521777868271,
                            0.5493928790092468
                        ]
                    ],
                    [
                        0.00024336868955288082,
                        -0.0008495849324390292,
                        0.00028065446531400084,
                        -0.0003085385833401233
                    ]
                ]
            },
            {
                "type": "dense",
                "activation": "tanh",
                "shape": [
                    null,
                    4
                ],
                "weights": [
                    [
                        [
                            -0.4076065719127655,
                            -0.31469935178756714,
                            0.03427475690841675,
                            0.2400961071252823
                        ],
                        [
                            0.6776377558708191,
                            -0.508686363697052,
                            0.3338310122489929,
                            0.3404897153377533
                        ],
                        [
                            -0.6659340262413025,
                            -0.2299715131521225,
                            -0.44207140803337097,
                            0.011333388276398182
                        ],
                        [
                            -0.2973644733428955,
                            -0.14930658042430878,
                            0.752839207649231,
                            -0.8258199691772461
                        ]
                    ],
                    [
                        4.917384285363369e-05,
                        0.00012521690223366022,
                        -0.00010783415200421587,
                        0.00010268485493725166
                    ]
                ]
            },
            {
                "type": "dense",
                "activation": "",
                "shape": [
                    null,
                    1
                ],
                "weights": [
                    [
                        [
                            -0.018417296931147575
                        ],
                        [
                            -0.8835107088088989
                        ],
                        [
                            -0.573931097984314
                        ],
                        [
                            0.30834126472473145
                        ]
                    ],
                    [
                        -5.216386853135191e-05
                    ]
                ]
            }
        ]
    },
    "drive_40_60": {
        "in_shape": [
            null,
            5
        ],
        "layers": [
            {
                "type": "dense",
                "activation": "tanh",
                "shape": [
                    null,
                    4
                ],
                "weights": [
                    [
                        [
                            -0.359432190656662,
                            0.5348655581474304,
                            0.5386676788330078,
                            0.44013866782188416
                        ],
                        [
                            -0.3632817268371582,
                            -0.3079864978790283,
                            -0.22807826101779938,
                            0.21021372079849243
                        ],
                        [
                            -0.14279243350028992,
                            0.9948313236236572,
                            -0.17866037786006927,
                            0.11803273111581802
                        ],
                        [
                            -0.3925756514072418,
                            0.18753978610038757,
                            -0.22876447439193726,
                            0.21791750192642212
                        ],
                        [
                            0.20645804703235626,
                            -0.44737276434898376,
                            0.3826797604560852,
                            -0.4909445643424988
                        ]
                    ],
                    [
                        0.0007984687690623105,
                        -0.0014221279416233301,
                        -0.00021152988483663648,
                        -0.00030790764139965177
                    ]
                ]
            },
            {
                "type": "dense",
                "activation": "tanh",
                "shape": [
                    null,
                    4
                ],
                "weights": [
                    [
                        [
                            -0.0004862736095674336,
                            -0.7774413824081421,
                            0.3584277331829071,
                            -0.0937151163816452
                        ],
                        [
                            -0.6565887331962585,
                            0.7228772044181824,
                            -0.09064877778291702,
                            0.18240946531295776
                        ],
                        [
                            -0.34618160128593445,
                            0.2486378401517868,
                            -0.4273267090320587,
                            -0.10055771470069885
                        ],
                        [
                            -0.5708546042442322,
                            -0.713450014591217,
                            0.4991958439350128,
                            0.309543639421463
                        ]
                    ],
                    [
                        0.0005955568049103022,
                        -0.0009199684136547148,
                        0.0002507591852918267,
                        -0.0004513936582952738
                    ]
                ]
            },
            {
                "type": "dense",
                "activation": "",
                "shape": [
                    null,
                    1
                ],
                "weights": [
                    [
                        [
                            -0.5869117975234985
                        ],
                        [
                            -0.3933190703392029
                        ],
                        [
                            0.861943244934082
                        ],
                        [
                            0.11305390298366547
                        ]
                    ],
                    [
                        -0.0002952889772132039
                    ]
                ]
            }
        ]
    },
    "drive_45_60": {
        "in_shape": [
            null,
            5
        ],
        "layers": [
            {
                "type": "dense",
                "activation": "tanh",
                "shape": [
                    null,
                    4
                ],
                "weights": [
                    [
                        [
                            0.16799741983413696,
                            0.353193998336792,
                            0.6945756673812866,
                            -0.601986289024353
                        ],
                        [
                            -0.12008020281791687,
                            0.15877081453800201,
                            0.5416091084480286,
                            -0.3648592233657837
                        ],
                        [
                            0.2100837528705597,
                            0.4163006544113159,
                            -0.5933656692504883,
                            0.6032081842422485
                        ],
                        [
                            -0.15399375557899475,
                            0.17115764319896698,
                            -0.2018626183271408,
                            0.19311334192752838
                        ],
                        [
                            1.0564610958099365,
                            0.19470541179180145,
                            0.2416307032108307,
                            -0.6061081886291504
                        ]
                    ],
                    [
                        -0.0005602458259090781,
                        -0.0011149994097650051,
                        0.00345940375700593,
                        -0.0015374792274087667
                    ]
                ]
            },
            {
                "type": "dense",
                "activation": "tanh",
                "shape": [
                    null,
                    4
                ],
                "weights": [
                    [
                        [
                            -0.17111149430274963,
                            -0.716437578201294,
                            -0.7681615948677063,
                            0.37160956859588623
                        ],
                        [
                            0.6239742040634155,
                            0.4246827960014343,
                            0.7409155964851379,
                            -0.34231364727020264
                        ],
                        [
                            0.8433799147605896,
                            -0.65538090467453,
                            0.3088187277317047,
                            -0.68393474817276
                        ],
                        [
                            0.5563396215438843,
                            -0.5216721296310425,
                            -0.64951491355896,
                            0.0990259125828743
                        ]
                    ],
                    [
                        0.0001616299559827894,
                        -0.0008918255916796625,
                        -6.77332718623802e-05,
                        -0.00027051748475059867
                    ]
                ]
            },
            {
                "type": "dense",
                "activation": "",
                "shape": [
                    null,
                    1
                ],
                "weights": [
                    [
                        [
                            0.32435354590415955
                        ],
                        [
                            0.5175376534461975
                        ],
                        [
                            -0.4149046242237091
                        ],
                        [
                            -0.4605073630809784
                        ]
                    ],
                    [
                        0.0001971050223801285
                    ]
                ]
            }
        ]
    },
    "drive_50_60": {
        "in_shape": [
            null,
            5
        ],
        "layers": [
            {
                "type": "dense",
                "activation": "tanh",
                "shape": [
                    null,
                    4
                ],
                "weights": [
                    [
                        [
                            0.5869307518005371,
                            -0.4719546139240265,
                            -0.810966968536377,
                            0.795663058757782
                        ],
                        [
                            -0.280405730009079,
                            -0.0029893203172832727,
                            -0.2168048918247223,
                            0.05131613090634346
                        ],
                        [
                            -0.29037660360336304,
                            -0.22430504858493805,
                            -0.4979841411113739,
                            0.05867072939872742
                        ],
                        [
                            -0.1731024533510208,
                            -0.09681228548288345,
                            0.3447396755218506,
                            -0.40479958057403564
                        ],
                        [
                            0.7554289102554321,
                            0.5021723508834839,
                            0.39656007289886475,
                            0.38343727588653564
                        ]
                    ],
                    [
                        0.0007142833201214671,
                        -0.00046763839782215655,
                        0.0014426523121073842,
                        -0.004346359986811876
                    ]
                ]
            },
            {
                "type": "dense",
                "activation": "tanh",
                "shape": [
                    null,
                    4
                ],
                "weights": [
                    [
                        [
                            -0.47665461897850037,
                            0.09600716084241867,
                            0.48839065432548523,
                            0.37374287843704224
                        ],
                        [
                            -0.290779173374176,
                            -0.6970456838607788,
                            -0.15954770147800446,
                            0.5266879796981812
                        ],
                        [
                            0.04048977419734001,
                            -0.1623913198709488,
                            0.3694482743740082,
                            0.44668421149253845
                        ],
                        [
                            -0.3331396281719208,
                            0.22860856354236603,
                            -0.13047033548355103,
                            -0.1631295382976532
                        ]
                    ],
                    [
                        -6.215965549927205e-05,
                        -0.000488430610857904,
                        0.0016066349344328046,
                        0.001456253114156425
                    ]
                ]
            },
            {
                "type": "dense",
                "activation": "",
                "shape": [
                    null,
                    1
                ],
                "weights": [
                    [
                        [
                            0.6054851412773132
                        ],
                        [
                            0.09119665622711182
                        ],
                        [
                            -0.04237956926226616
                        ],
                        [
                            -0.318859726190567
                        ]
                    ],
                    [
                        0.0004190305480733514
                    ]
                ]
            }
        ]
    },
    "drive_55_60": {
        "in_shape": [
            null,
            5
        ],
        "layers": [
            {
                "type": "dense",
                "activation": "tanh",
                "shape": [
                    null,
                    4
                ],
                "weights": [
                    [
                        [
                            -0.10680023580789566,
                            0.3938751816749573,
                            -0.182683065533638,
                            0.782931923866272
                        ],
                        [
                            0.08112800866365433,
                            0.15960001945495605,
                            0.20513269305229187,
                            -0.0641954317688942
                        ],
                        [
                            0.5478754043579102,
                            0.24030421674251556,
                            -0.1323547214269638,
                            0.3842298984527588
                        ],
                        [
                            -0.1251811385154724,
                            0.1839788556098938,
                            -0.06060284748673439,
                            -0.11679363250732422
                        ],
                        [
                            0.6446115374565125,
                            0.3703230917453766,
                            -0.9493857026100159,
                            -0.9007630944252014
                        ]
                    ],
                    [
                        -0.0018935658736154437,
                        -0.0018490385264158249,
                        0.0006400295533239841,
                        -0.0011015714844688773
                    ]
                ]
            },
            {
                "type": "dense",
                "activation": "tanh",
                "shape": [
                    null,
                    4
                ],
                "weights": [
                    [
                        [
                            -0.5178589224815369,
                            -0.06068465858697891,
                            0.24019692838191986,
                            -0.559601366519928
                        ],
                        [
                            0.05319096893072128,
                            0.5514869093894958,
                            -0.3915262520313263,
                            -0.3886741101741791
                        ],
                        [
                            -0.6890588402748108,
                            -0.5781881213188171,
                            0.5326786637306213,
                            0.535332441329956
                        ],
                        [
                            -0.4589458703994751,
                            -0.5329727530479431,
                            0.14413440227508545,
                            0.6214537024497986
                        ]
                    ],
                    [
                        -0.0006847414188086987,
                        0.0012013748055323958,
                        -0.0008801601361483335,
                        -0.0011582159204408526
                    ]
                ]
            },
            {
                "type": "dense",
                "activation": "",
                "shape": [
                    null,
                    1
                ],
                "weights": [
                    [
                        [
                            -0.42898398637771606
                        ],
                        [
                            0.8277643322944641
                        ],
                        [
                            -0.12479885667562485
                        ],
                        [
                            0.8328487873077393
                        ]
                    ],
                    [
                        -0.000605541281402111
                    ]
                ]
            }
        ]
    },
    "drive_60_60": {
        "in_shape": [
            null,
            5
        ],
        "layers": [
            {
                "type": "dense",
                "activation": "tanh",
                "shape": [
                    null,
                    4
                ],
                "weights": [
                    [
                        [
                            -0.5885996222496033,
                            -0.23254422843456268,
                            -0.34808048605918884,
                            0.045064378529787064
                        ],
                        [
                            -0.2924766540527344,
                            -0.15528973937034607,
                            -0.31579482555389404,
                            0.05859798192977905
                        ],
                        [
                            -0.4196416437625885,
                            -0.24282704293727875,
                            -0.7091813087463379,
                            -0.5648167133331299
                        ],
                        [
                            -0.21529732644557953,
                            -0.19361405074596405,
                            -0.17711029946804047,
                            0.0948723629117012
                        ],
                        [
                            -0.7696062922477722,
                            -0.15420681238174438,
                            0.21523351967334747,
                            -0.5861101746559143
                        ]
                    ],
                    [
                        0.002750343643128872,
                        -0.002356956247240305,
                        0.0033651848789304495,
                        -0.001229075132869184
                    ]
                ]
            },
            {
                "type": "dense",
                "activation": "tanh",
                "shape": [
                    null,
                    4
                ],
                "weights": [
                    [
                        [
                            -0.5376193523406982,
                            0.7314809560775757,
                            0.3486926853656769,
                            0.36002954840660095
                        ],
                        [
                            0.025693055242300034,
                            -0.39831432700157166,
                            -0.2691170871257782,
                            0.33487752079963684
                        ],
                        [
                            -0.5780631899833679,
                            -0.18548540771007538,
                            0.6049789786338806,
                            0.6071149706840515
                        ],
                        [
                            -0.03666183352470398,
                            0.5298824906349182,
                            -0.1275564432144165,
                            0.2654995024204254
                        ]
                    ],
                    [
                        -4.822847040486522e-05,
                        0.0018023147713392973,
                        0.001763344625942409,
                        0.000658520613797009
                    ]
                ]
            },
            {
                "type": "dense",
                "activation": "",
                "shape": [
                    null,
                    1
                ],
                "weights": [
                    [
                        [
                            -0.7393158674240112
                        ],
                        [
                            0.6074132323265076
                        ],
                        [
                            -0.4742336571216583
                        ],
                        [
                            -0.7824693322181702
                        ]
                    ],
                    [
                        -2.9188053304096684e-05
                    ]
                ]
            }
        ]
    },
    "drive_65_60": {
        "in_shape": [
            null,
            5
        ],
        "layers": [
            {
                "type": "dense",
                "activation": "tanh",
                "shape": [
                    null,
                    4
                ],
                "weights": [
                    [
                        [
                            -0.902215838432312,
                            0.7333193421363831,
                            0.05786089599132538,
                            0.7177231311798096
                        ],
                        [
                            -0.39092302322387695,
                            0.5208616852760315,
                            -0.050268642604351044,
                            -0.07225292921066284
                        ],
                        [
                            0.3031783103942871,
                            -0.0854792445898056,
                            0.41879895329475403,
                            -0.1637927144765854
                        ],
                        [
                            -0.21972668170928955,
                            0.3278861939907074,
                            -0.08645862340927124,
                            -0.015842588618397713
                        ],
                        [
                            0.12484309077262878,
                            0.02334340289235115,
                            0.22655799984931946,
                            -0.08119931071996689
                        ]
                    ],
                    [
                        -9.479360596742481e-05,
                        -0.000326384324580431,
                        -0.000416067021433264,
                        -0.0007965564145706594
                    ]
                ]
            },
            {
                "type": "dense",
                "activation": "tanh",
                "shape": [
                    null,
                    4
                ],
                "weights": [
                    [
                        [
                            -0.7662822008132935,
                            0.8193129897117615,
                            0.11670428514480591,
                            -0.09561188519001007
                        ],
                        [
                            0.036417651921510696,
                            0.6732630729675293,
                            -0.053885214030742645,
                            0.24070754647254944
                        ],
                        [
                            0.37078678607940674,
                            0.5073772668838501,
                            -0.1888747662305832,
                            0.10706561803817749
                        ],
                        [
                            0.17817577719688416,
                            0.2535330057144165,
                            -0.3829415738582611,
                            -0.32916033267974854
                        ]
                    ],
                    [
                        -0.0006779796094633639,
                        -0.00014672373072244227,
                        0.0002901481930166483,
                        -0.00012860943388659507
                    ]
                ]
            },
            {
                "type": "dense",
                "activation": "",
                "shape": [
                    null,
                    1
                ],
                "weights": [
                    [
                        [
                            0.27229154109954834
                        ],
                        [
                            -0.7107473015785217
                        ],
                        [
                            -0.38991856575012207
                        ],
                        [
                            -0.8626047372817993
                        ]
                    ],
                    [
                        -4.854023063671775e-05
                    ]
                ]
            }
        ]
    },
    "drive_70_60": {
        "in_shape": [
            null,
            5
        ],
        "layers": [
            {
                "type": "dense",
                "activation": "tanh",
                "shape": [
                    null,
                    4
                ],
                "weights": [
                    [
                        [
                            -0.01202000305056572,
                            -0.8175007104873657,
                            -0.5310272574424744,
                            -0.6218642592430115
                        ],
                        [
                            -0.09911731630563736,
                            0.27402356266975403,
                            -0.2520271837711334,
                            -0.3411369323730469
                        ],
                        [
                            0.5352931618690491,
                            0.022553255781531334,
                            -0.3597137928009033,
                            -0.21433663368225098
                        ],
                        [
                            -0.14917100965976715,
                            -0.3005654215812683,
                            -0.1810004860162735,
                            -0.263202041387558
                        ],
                        [
                            0.79107266664505,
                            -0.12825879454612732,
                            0.18724048137664795,
                            -1.0137356519699097
                        ]
                    ],
                    [
                        -0.001083211274817586,
                        0.01363582257181406,
                        -0.00041801901534199715,
                        -0.0010309540666639805
                    ]
                ]
            },
            {
                "type": "dense",
                "activation": "tanh",
                "shape": [
                    null,
                    4
                ],
                "weights": [
                    [
                        [
                            -0.2532804012298584,
                            0.38616594672203064,
                            1.1289103031158447,
                            -0.7996386289596558
                        ],
                        [
                            -0.20303818583488464,
                            -0.26036515831947327,
                            -0.10074019432067871,
                            0.1528506875038147
                        ],
                        [
                            -0.4524926543235779,
                            0.12924781441688538,
                            0.016766220331192017,
                            -0.6312519907951355
                        ],
                        [
                            0.3201104998588562,
                            0.4036374092102051,
                            0.4509808421134949,
                            -0.4348584711551666
                        ]
                    ],
                    [
                        -0.0008855611667968333,
                        -0.000797307351604104,
                        -0.0004383340128697455,
                        -0.00021489949722308666
                    ]
                ]
            },
            {
                "type": "dense",
                "activation": "",
                "shape": [
                    null,
                    1
                ],
                "weights": [
                    [
                        [
                            0.7047349810600281
                        ],
                        [
                            -0.696548581123352
                        ],
                        [
                            0.07367806136608124
                        ],
                        [
                            -0.27680668234825134
                        ]
                    ],
                    [
                        1.1813172022812068e-05
                    ]
                ]
            }
        ]
    },
    "drive_75_60": {
        "in_shape": [
            null,
            5
        ],
        "layers": [
            {
                "type": "dense",
                "activation": "tanh",
                "shape": [
                    null,
                    4
                ],
                "weights": [
                    [
                        [
                            0.7025827169418335,
                            0.5677027106285095,
                            -0.7769797444343567,
                            -0.150229349732399
                        ],
                        [
                            0.18276569247245789,
                            -0.3217514157295227,
                            -0.01766369119286537,
                            0.46406376361846924
                        ],
                        [
                            0.6933442950248718,
                            0.06741469353437424,
                            0.11210180073976517,
                            -1.0452021360397339
                        ],
                        [
                            0.3452412784099579,
                            -0.3012227416038513,
                            -0.0012737660435959697,
                            0.352726548910141
                        ],
                        [
                            -0.6138153672218323,
                            0.27061331272125244,
                            0.321531742811203,
                            0.6672580242156982
                        ]
                    ],
                    [
                        -0.010966159403324127,
                        -0.001066461205482483,
                        4.5138276618672535e-05,
                        0.0033604397904127836
                    ]
                ]
            },
            {
                "type": "dense",
                "activation": "tanh",
                "shape": [
                    null,
                    4
                ],
                "weights": [
                    [
                        [
                            0.5700453519821167,
                            -0.3586212992668152,
                            0.6595156192779541,
                            0.08952689170837402
                        ],
                        [
                            -0.44892382621765137,
                            0.17310336232185364,
                            -0.8108289241790771,
                            -0.3460839092731476
                        ],
                        [
                            -0.44774681329727173,
                            0.33819863200187683,
                            -0.6452812552452087,
                            -0.1662486493587494
                        ],
                        [
                            0.4848545491695404,
                            -0.5910075902938843,
                            0.16347263753414154,
                            -0.14566399157047272
                        ]
                    ],
                    [
                        9.937369759427384e-05,
                        0.00018202523642685264,
                        -0.00016218064411077648,
                        -4.947098204866052e-05
                    ]
                ]
            },
            {
                "type": "dense",
                "activation": "",
                "shape": [
                    null,
                    1
                ],
                "weights": [
                    [
                        [
                            -0.9557238221168518
                        ],
                        [
                            -0.7980066537857056
                        ],
                        [
                            0.2669169306755066
                        ],
                        [
                            0.8872519731521606
                        ]
                    ],
                    [
                        0.00031999978818930686
                    ]
                ]
            }
        ]
    },
    "drive_80_60": {
        "in_shape": [
            null,
            5
        ],
        "layers": [
            {
                "type": "dense",
                "activation": "tanh",
                "shape": [
                    null,
                    4
                ],
                "weights": [
                    [
                        [
                            0.6718841195106506,
                            -0.10906509310007095,
                            -0.09342840313911438,
                            0.8754503726959229
                        ],
                        [
                            0.026766180992126465,
                            0.21234510838985443,
                            0.03071201778948307,
                            -0.624127209186554
                        ],
                        [
                            0.05943542346358299,
                            -0.3017236292362213,
                            -0.4569172263145447,
                            0.3518602252006531
                        ],
                        [
                            0.03107776679098606,
                            0.1534394472837448,
                            0.1868908405303955,
                            -0.7213732600212097
                        ],
                        [
                            -0.5795400738716125,
                            -0.9243435263633728,
                            -0.47479143738746643,
                            -0.1534942090511322
                        ]
                    ],
                    [
                        -0.00170534395147115,
                        -0.0014213857939466834,
                        0.0023784253280609846,
                        -0.0006082481704652309
                    ]
                ]
            },
            {
                "type": "dense",
                "activation": "tanh",
                "shape": [
                    null,
                    4
                ],
                "weights": [
                    [
                        [
                            -0.2423107922077179,
                            0.020021019503474236,
                            0.2842167913913727,
                            -0.4021046459674835
                        ],
                        [
                            0.3179023265838623,
                            0.2167801856994629,
                            0.004837555345147848,
                            -0.5060420036315918
                        ],
                        [
                            -0.5082542896270752,
                            -0.27591627836227417,
                            -0.6259450912475586,
                            0.14450329542160034
                        ],
                        [
                            0.11219103634357452,
                            0.6668450832366943,
                            0.4813479483127594,
                            -0.6956028342247009
                        ]
                    ],
                    [
                        -0.0008951362106017768,
                        -0.00018149921379517764,
                        -0.0007153403712436557,
                        -0.0005638031288981438
                    ]
                ]
            },
            {
                "type": "dense",
                "activation": "",
                "shape": [
                    null,
                    1
                ],
                "weights": [
                    [
                        [
                            -0.12494662404060364
                        ],
                        [
                            -0.35160574316978455
                        ],
                        [
                            -0.18384481966495514
                        ],
                        [
                            -0.6161466836929321
                        ]
                    ],
                    [
                        -0.0003147375537082553
                    ]
                ]
            }
        ]
    },
    "drive_85_60": {
        "in_shape": [
            null,
            5
        ],
        "layers": [
            {
                "type": "dense",
                "activation": "tanh",
                "shape": [
                    null,
                    4
                ],
                "weights": [
                    [
                        [
                            -0.13331791758537292,
                            0.8525693416595459,
                            0.8723402619361877,
                            0.4400933086872101
                        ],
                        [
                            0.22990791499614716,
                            0.5337929725646973,
                            -0.38654395937919617,
                            0.18406741321086884
                        ],
                        [
                            0.6387714743614197,
                            0.8521286845207214,
                            -0.5769934058189392,
                            0.30531737208366394
                        ],
                        [
                            0.25014254450798035,
                            0.37375113368034363,
                            -0.284717321395874,
                            -0.29361942410469055
                        ],
                        [
                            -0.2197168618440628,
                            -0.13155744969844818,
                            0.9436816573143005,
                            0.6624072790145874
                        ]
                    ],
                    [
                        -0.0004954549367539585,
                        -0.003220895305275917,
                        0.00039767686394043267,
                        -0.0016399971209466457
                    ]
                ]
            },
            {
                "type": "dense",
                "activation": "tanh",
                "shape": [
                    null,
                    4
                ],
                "weights": [
                    [
                        [
                            -0.6693776845932007,
                            -0.4972803294658661,
                            0.6347146034240723,
                            0.350070059299469
                        ],
                        [
                            0.5889142751693726,
                            -0.22871612012386322,
                            -0.34871140122413635,
                            -0.2054315209388733
                        ],
                        [
                            0.6653047800064087,
                            -0.04054715856909752,
                            0.524603545665741,
                            -0.47089463472366333
                        ],
                        [
                            0.2698987126350403,
                            -0.4985194802284241,
                            0.39385032653808594,
                            0.02932007424533367
                        ]
                    ],
                    [
                        -0.0008332788711413741,
                        0.0005265696090646088,
                        -0.0020740381442010403,
                        0.0007556276977993548
                    ]
                ]
            },
            {
                "type": "dense",
                "activation": "",
                "shape": [
                    null,
                    1
                ],
                "weights": [
                    [
                        [
                            -0.3722914457321167
                        ],
                        [
                            -0.4247278869152069
                        ],
                        [
                            -0.17752091586589813
                        ],
                        [
                            -0.1369440257549286
                        ]
                    ],
                    [
                        -0.00011992398503934965
                    ]
                ]
            }
        ]
    },
    "drive_90_60": {
        "in_shape": [
            null,
            5
        ],
        "layers": [
            {
                "type": "dense",
                "activation": "tanh",
                "shape": [
                    null,
                    4
                ],
                "weights": [
                    [
                        [
                            0.6159285306930542,
                            0.4397345185279846,
                            0.01293462049216032,
                            -0.005943662952631712
                        ],
                        [
                            -0.0261010080575943,
                            0.4171008765697479,
                            -0.8863396048545837,
                            0.027914870530366898
                        ],
                        [
                            0.08384183794260025,
                            0.28691422939300537,
                            0.857927143573761,
                            -0.573981523513794
                        ],
                        [
                            0.023411652073264122,
                            0.07936414331197739,
                            -0.7476934790611267,
                            0.06470893323421478
                        ],
                        [
                            -0.7025845050811768,
                            -0.3463956117630005,
                            0.0880306288599968,
                            -0.7489017844200134
                        ]
                    ],
                    [
                        8.147240441758186e-05,
                        -5.7958422985393554e-05,
                        0.001350586535409093,
                        -8.500575495418161e-05
                    ]
                ]
            },
            {
                "type": "dense",
                "activation": "tanh",
                "shape": [
                    null,
                    4
                ],
                "weights": [
                    [
                        [
                            -0.045334119349718094,
                            0.27841082215309143,
                            -0.39928990602493286,
                            -0.5199143290519714
                        ],
                        [
                            -0.19137975573539734,
                            0.5115868449211121,
                            -0.2932163178920746,
                            -0.7334264516830444
                        ],
                        [
                            0.1186983734369278,
                            0.2898975908756256,
                            0.2168818563222885,
                            0.31511977314949036
                        ],
                        [
                            -0.135539710521698,
                            0.15709754824638367,
                            -0.5604009032249451,
                            -0.40000149607658386
                        ]
                    ],
                    [
                        3.0293789677671157e-05,
                        -0.0005851872265338898,
                        0.0001304273318964988,
                        -3.700107481563464e-05
                    ]
                ]
            },
            {
                "type": "dense",
                "activation": "",
                "shape": [
                    null,
                    1
                ],
                "weights": [
                    [
                        [
                            0.5599754452705383
                        ],
                        [
                            0.2952253520488739
                        ],
                        [
                            -0.8180578947067261
                        ],
                        [
                            0.316501259803772
                        ]
                    ],
                    [
                        0.00016455519653391093
                    ]
                ]
            }
        ]
    },
    "drive_95_60": {
        "in_shape": [
            null,
            5
        ],
        "layers": [
            {
                "type": "dense",
                "activation": "tanh",
                "shape": [
                    null,
                    4
                ],
                "weights": [
                    [
                        [
                            0.41165897250175476,
                            0.6582812666893005,
                            -0.3147992789745331,
                            -0.6131473183631897
                        ],
                        [
                            0.16549870371818542,
                            0.1701316237449646,
                            -0.18588042259216309,
                            0.3994502127170563
                        ],
                        [
                            0.4978794455528259,
                            0.39847633242607117,
                            -0.45476171374320984,
                            -0.14500242471694946
                        ],
                        [
                            0.4285447895526886,
                            0.3797803819179535,
                            -0.31226304173469543,
                            0.29173412919044495
                        ],
                        [
                            1.1501100063323975,
                            -0.8345341682434082,
                            -0.4452281892299652,
                            -1.7250515222549438
                        ]
                    ],
                    [
                        -0.004059529397636652,
                        -0.004167581908404827,
                        0.004750700201839209,
                        -0.00012925070768687874
                    ]
                ]
            },
            {
                "type": "dense",
                "activation": "tanh",
                "shape": [
                    null,
                    4
                ],
                "weights": [
                    [
                        [
                            0.19591474533081055,
                            0.25477975606918335,
                            -0.2656695246696472,
                            -0.6091187596321106
                        ],
                        [
                            0.3488231897354126,
                            0.3611143231391907,
                            -0.6213328242301941,
                            -0.07925224304199219
                        ],
                        [
                            -0.503353476524353,
                            0.08375079929828644,
                            -0.4579711854457855,
                            0.4994346499443054
                        ],
                        [
                            -0.3445400595664978,
                            0.21873484551906586,
                            0.8353662490844727,
                            -0.14249363541603088
                        ]
                    ],
                    [
                        -0.001046278397552669,
                        -0.00028425376513041556,
                        0.0029975236393511295,
                        0.0005044636782258749
                    ]
                ]
            },
            {
                "type": "dense",
                "activation": "",
                "shape": [
                    null,
                    1
                ],
                "weights": [
                    [
                        [
                            0.6890740394592285
                        ],
                        [
                            0.768958330154419
                        ],
                        [
                            0.22204704582691193
                        ],
                        [
                            0.8383834362030029
                        ]
                    ],
                    [
                        3.7194957258179784e-05
                    ]
                ]
            }
        ]
    },
    "drive_100_60": {
        "in_shape": [
            null,
            5
        ],
        "layers": [
            {
                "type": "dense",
                "activation": "tanh",
                "shape": [
                    null,
                    4
                ],
                "weights": [
                    [
                        [
                            -0.024047283455729485,
                            0.38219454884529114,
                            -0.5613317489624023,
                            0.5161526799201965
                        ],
                        [
                            0.09309390932321548,
                            0.38368910551071167,
                            0.32815536856651306,
                            0.19277052581310272
                        ],
                        [
                            -0.800696074962616,
                            0.9296157956123352,
                            -0.20416563749313354,
                            0.2090531438589096
                        ],
                        [
                            0.16905879974365234,
                            0.2944188416004181,
                            0.34362855553627014,
                            0.198639377951622
                        ],
                        [
                            0.7508216500282288,
                            -0.09581579267978668,
                            -0.7311161756515503,
                            -0.39550304412841797
                        ]
                    ],
                    [
                        0.004944310523569584,
                        -0.01196261215955019,
                        0.004164798650890589,
                        0.0026606956962496042
                    ]
                ]
            },
            {
                "type": "dense",
                "activation": "tanh",
                "shape": [
                    null,
                    4
                ],
                "weights": [
                    [
                        [
                            -0.45271801948547363,
                            -0.7062368988990784,
                            0.9348670840263367,
                            -0.3624139130115509
                        ],
                        [
                            0.646157443523407,
                            0.11842924356460571,
                            0.23050308227539062,
                            0.05559903383255005
                        ],
                        [
                            0.23018492758274078,
                            0.5220819115638733,
                            0.3009268641471863,
                            -0.4754747748374939
                        ],
                        [
                            0.0269212294369936,
                            0.15937194228172302,
                            0.042359609156847,
                            -0.16722066700458527
                        ]
                    ],
                    [
                        -9.693128959042951e-05,
                        -9.543036867398769e-05,
                        0.002054991200566292,
                        -0.0008548718178644776
                    ]
                ]
            },
            {
                "type": "dense",
                "activation": "",
                "shape": [
                    null,
                    1
                ],
                "weights": [
                    [
                        [
                            0.30883821845054626
                        ],
                        [
                            -0.22019611299037933
                        ],
                        [
                            -0.6605637073516846
                        ],
                        [
                            -0.9953915476799011
                        ]
                    ],
                    [
                        7.95676969573833e-05
                    ]
                ]
            }
        ]
    }
}