{
    "drive_0_90": {
        "in_shape": [
            null,
            5
        ],
        "layers": [
            {
                "type": "dense",
                "activation": "tanh",
                "shape": [
                    null,
                    4
                ],
                "weights": [
                    [
                        [
                            0.16993944346904755,
                            0.1586727797985077,
                            0.19878755509853363,
                            -0.3460966646671295
                        ],
                        [
                            -0.468502402305603,
                            0.39438462257385254,
                            -0.31087058782577515,
                            0.3318394422531128
                        ],
                        [
                            -0.43829256296157837,
                            0.97836834192276,
                            0.08675431460142136,
                            -0.06240539625287056
                        ],
                        [
                            0.4264028072357178,
                            0.36598536372184753,
                            -0.061980340629816055,
                            -0.20029014348983765
                        ],
                        [
                            0.16591434180736542,
                            0.8779926300048828,
                            -0.02289430983364582,
                            1.1215585470199585
                        ]
                    ],
                    [
                        0.0015894214157015085,
                        -0.001037168549373746,
                        0.0012876067776232958,
                        -0.00249293795786798
                    ]
                ]
            },
            {
                "type": "dense",
                "activation": "tanh",
                "shape": [
                    null,
                    4
                ],
                "weights": [
                    [
                        [
                            0.07264123857021332,
                            0.2496313750743866,
                            -0.2791443467140198,
                            0.07736612111330032
                        ],
                        [
                            0.3234007954597473,
                            -0.6877363324165344,
                            0.3689633905887604,
                            -0.564650297164917
                        ],
                        [
                            -0.6596693992614746,
                            0.01065395213663578,
                            0.5986328721046448,
                            -0.711958646774292
                        ],
                        [
                            0.0793088898062706,
                            0.27392351627349854,
                            -0.1260761320590973,
                            -0.42871540784835815
                        ]
                    ],
                    [
                        -0.0007306023617275059,
                        0.0002878148516174406,
                        0.0007018986507318914,
                        -4.138685471843928e-05
                    ]
                ]
            },
            {
                "type": "dense",
                "activation": "",
                "shape": [
                    null,
                    1
                ],
                "weights": [
                    [
                        [
                            0.2969171702861786
                        ],
                        [
                            -0.6851217746734619
                        ],
                        [
                            0.3707837462425232
                        ],
                        [
                            0.8985642194747925
                        ]
                    ],
                    [
                        2.3429312932421453e-05
                    ]
                ]
            }
        ]
    },
    "drive_5_90": {
        "in_shape": [
            null,
            5
        ],
        "layers": [
            {
                "type": "dense",
                "activation": "tanh",
                "shape": [
                    null,
                    4
                ],
                "weights": [
                    [
                        [
                            0.23120544850826263,
                            0.5268253684043884,
                            -0.09401841461658478,
                            0.7368943691253662
                        ],
                        [
                            0.6130804419517517,
                            -0.29077669978141785,
                            0.3930707275867462,
                            -0.12055348604917526
                        ],
                        [
                            0.003991425037384033,
                            -0.15100139379501343,
                            0.17097367346286774,
                            0.1621045619249344
                        ],
                        [
                            0.8360279202461243,
                            -0.3233020603656769,
                            0.5932097434997559,
                            -0.2814718186855316
                        ],
                        [
                            0.5406782627105713,
                            0.45403432846069336,
                            0.47277313470840454,
                            -0.47061437368392944
                        ]
                    ],
                    [
                        -0.0004315233090892434,
                        6.445261533372104e-05,
                        0.00027757848147302866,
                        0.0002687472151592374
                    ]
                ]
            },
            {
                "type": "dense",
                "activation": "tanh",
                "shape": [
                    null,
                    4
                ],
                "weights": [
                    [
                        [
                            0.805019199848175,
                            0.4707617163658142,
                            -0.2953346073627472,
                            0.31131792068481445
                        ],
                        [
                            0.457582950592041,
                            0.0788334459066391,
                            -0.9106863737106323,
                            0.8287740349769592
                        ],
                        [
                            -0.4974949061870575,
                            0.10827293992042542,
                            -0.3349795639514923,
                            0.5330476760864258
                        ],
                        [
                            0.6549278497695923,
                            0.7145789265632629,
                            0.3788897395133972,
                            0.3608674705028534
                        ]
                    ],
                    [
                        0.00017876231868285686,
                        -0.00023015726765152067,
                        -5.386653356254101e-05,
                        -0.0003234919859096408
                    ]
                ]
            },
            {
                "type": "dense",
                "activation": "",
                "shape": [
                    null,
                    1
                ],
                "weights": [
                    [
                        [
                            -1.046524167060852
                        ],
                        [
                            1.1190868616104126
                        ],
                        [
                            0.7171443700790405
                        ],
                        [
                            0.5185034275054932
                        ]
                    ],
                    [
                        0.00014868688595015556
                    ]
                ]
            }
        ]
    },
    "drive_10_90": {
        "in_shape": [
            null,
            5
        ],
        "layers": [
            {
                "type": "dense",
                "activation": "tanh",
                "shape": [
                    null,
                    4
                ],
                "weights": [
                    [
                        [
                            0.21573840081691742,
                            0.5753869414329529,
                            -0.1023990735411644,
                            -0.6964998245239258
                        ],
                        [
                            -0.42968425154685974,
                            0.1742083877325058,
                            0.1129811704158783,
                            -0.436180055141449
                        ],
                        [
                            -0.7936809062957764,
                            0.3973412811756134,
                            -0.43208083510398865,
                            0.2796970009803772
                        ],
                        [
                            0.2754388153553009,
                            -0.005153239239007235,
                            0.2473059743642807,
                            0.5180791020393372
                        ],
                        [
                            0.17259424924850464,
                            -0.20775915682315826,
                            -0.5786969065666199,
                            0.38431516289711
                        ]
                    ],
                    [
                        0.0021838380489498377,
                        -0.00073242123471573,
                        0.00033125237678177655,
                        -0.0016773478128015995
                    ]
                ]
            },
            {
                "type": "dense",
                "activation": "tanh",
                "shape": [
                    null,
                    4
                ],
                "weights": [
                    [
                        [
                            -0.5061143636703491,
                            0.1025911495089531,
                            -0.6714758276939392,
                            -0.025523368269205093
                        ],
                        [
                            -0.6842309236526489,
                            -0.3994986116886139,
                            0.6614022850990295,
                            0.006887658964842558
                        ],
                        [
                            -0.07579731196165085,
                            -0.38227739930152893,
                            0.5101425647735596,
                            0.3122829496860504
                        ],
                        [
                            -0.11265701055526733,
                            -0.35380879044532776,
                            -0.01107492484152317,
                            -0.45799878239631653
                        ]
                    ],
                    [
                        -0.00042995274998247623,
                        -0.00025166006525978446,
                        0.0018390659242868423,
                        -0.0005582345183938742
                    ]
                ]
            },
            {
                "type": "dense",
                "activation": "",
                "shape": [
                    null,
                    1
                ],
                "weights": [
                    [
                        [
                            -0.3105282485485077
                        ],
                        [
                            -0.4780923128128052
                        ],
                        [
                            0.011573418974876404
                        ],
                        [
                            0.5309246778488159
                        ]
                    ],
                    [
                        -5.4556610848521814e-05
                    ]
                ]
            }
        ]
    },
    "drive_15_90": {
        "in_shape": [
            null,
            5
        ],
        "layers": [
            {
                "type": "dense",
                "activation": "tanh",
                "shape": [
                    null,
                    4
                ],
                "weights": [
                    [
                        [
                            -0.5444452166557312,
                            -0.30262625217437744,
                            0.040162913501262665,
                            0.825013279914856
                        ],
                        [
                            -0.21530313789844513,
                            -0.5109144449234009,
                            0.1944890171289444,
                            -0.12762737274169922
                        ],
                        [
                            0.614142894744873,
                            0.4678182303905487,
                            -0.44554442167282104,
                            0.14946472644805908
                        ],
                        [
                            -0.40385523438453674,
                            -0.6980375647544861,
                            -0.017990482971072197,
                            0.1662723422050476
                        ],
                        [
                            -0.22752225399017334,
                            -0.5656566023826599,
                            -0.7648503184318542,
                            0.2567287087440491
                        ]
                    ],
                    [
                        -0.0004911145661026239,
                        1.2256906302354764e-05,
                        0.0002772774896584451,
                        -0.0007113944157026708
                    ]
                ]
            },
            {
                "type": "dense",
                "activation": "tanh",
                "shape": [
                    null,
                    4
                ],
                "weights": [
                    [
                        [
                            0.2679175138473511,
                            -0.8015990853309631,
                            0.43831583857536316,
                            -0.8018902540206909
                        ],
                        [
                            -0.3554421067237854,
                            0.5477046370506287,
                            -0.048725299537181854,
                            0.3856123685836792
                        ],
                        [
                            -0.6570846438407898,
                            -0.5091162919998169,
                            0.12876679003238678,
                            0.5407249927520752
                        ],
                        [
                            0.46790310740470886,
                            -0.10919148474931717,
                            0.43727704882621765,
                            0.3986932337284088
                        ]
                    ],
                    [
                        -0.000384946761187166,
                        0.0018956559943035245,
                        -0.0002939538680948317,
                        6.485276389867067e-05
                    ]
                ]
            },
            {
                "type": "dense",
                "activation": "",
                "shape": [
                    null,
                    1
                ],
                "weights": [
                    [
                        [
                            -0.30477339029312134
                        ],
                        [
                            0.315109521150589
                        ],
                        [
                            0.6952170729637146
                        ],
                        [
                            0.8031511306762695
                        ]
                    ],
                    [
                        -0.0006871491204947233
                    ]
                ]
            }
        ]
    },
    "drive_20_90": {
        "in_shape": [
            null,
            5
        ],
        "layers": [
            {
                "type": "dense",
                "activation": "tanh",
                "shape": [
                    null,
                    4
                ],
                "weights": [
                    [
                        [
                            -0.8575890064239502,
                            -0.25032925605773926,
                            -0.9787610769271851,
                            0.4869586229324341
                        ],
                        [
                            0.14139346778392792,
                            -0.06539375334978104,
                            -0.4488205015659332,
                            -0.22534625232219696
                        ],
                        [
                            0.08123521506786346,
                            0.6438244581222534,
                            -0.49473387002944946,
                            -0.13066142797470093
                        ],
                        [
                            -0.060735300183296204,
                            -0.06171013042330742,
                            0.11908940970897675,
                            0.15753591060638428
                        ],
                        [
                            0.30165615677833557,
                            0.6436429619789124,
                            0.06734438985586166,
                            0.11968252062797546
                        ]
                    ],
                    [
                        -0.00038969662273302674,
                        0.0005432043690234423,
                        0.0027136688586324453,
                        -0.0005958323599770665
                    ]
                ]
            },
            {
                "type": "dense",
                "activation": "tanh",
                "shape": [
                    null,
                    4
                ],
                "weights": [
                    [
                        [
                            0.7330885529518127,
                            0.544640064239502,
                            -0.22462108731269836,
                            -0.3517642617225647
                        ],
                        [
                            -0.37527185678482056,
                            -0.0960630550980568,
                            0.40082505345344543,
                            -0.6400306224822998
                        ],
                        [
                            0.09140388667583466,
                            0.39446112513542175,
                            -0.016064675524830818,
                            0.4778556823730469
                        ],
                        [
                            -0.054343488067388535,
                            0.4954022467136383,
                            -0.350868284702301,
                            0.09236539900302887
                        ]
                    ],
                    [
                        0.0008644021581858397,
                        7.283461309270933e-05,
                        -0.00015486475604120642,
                        0.0009598862379789352
                    ]
                ]
            },
            {
                "type": "dense",
                "activation": "",
                "shape": [
                    null,
                    1
                ],
                "weights": [
                    [
                        [
                            -0.059270504862070084
                        ],
                        [
                            -0.6094852089881897
                        ],
                        [
                            -0.49394044280052185
                        ],
                        [
                            0.40184104442596436
                        ]
                    ],
                    [
                        -0.0002493087376933545
                    ]
                ]
            }
        ]
    },
    "drive_25_90": {
        "in_shape": [
            null,
            5
        ],
        "layers": [
            {
                "type": "dense",
                "activation": "tanh",
                "shape": [
                    null,
                    4
                ],
                "weights": [
                    [
                        [
                            -0.13979054987430573,
                            0.024627521634101868,
                            -0.5623235106468201,
                            -0.33843591809272766
                        ],
                        [
                            0.43144726753234863,
                            -0.5646218061447144,
                            -0.36446264386177063,
                            0.13928116858005524
                        ],
                        [
                            0.022688360884785652,
                            -0.7264429330825806,
                            0.8292739987373352,
                            0.1953658014535904
                        ],
                        [
                            0.2791428565979004,
                            -0.36838212609291077,
                            -0.2253803312778473,
                            -0.15518252551555634
                        ],
                        [
                            -0.6050096154212952,
                            -0.4916771352291107,
                            -0.10341699421405792,
                            0.05508210137486458
                        ]
                    ],
                    [
                        0.0003600427007768303,
                        0.0002981573052238673,
                        -0.00032415686291642487,
                        0.0006149541586637497
                    ]
                ]
            },
            {
                "type": "dense",
                "activation": "tanh",
                "shape": [
                    null,
                    4
                ],
                "weights": [
                    [
                        [
                            -0.8795608878135681,
                            0.2273353487253189,
                            0.9856465458869934,
                            -0.3361213803291321
                        ],
                        [
                            0.07644525170326233,
                            -0.8647513389587402,
                            0.2844366729259491,
                            -0.10079082101583481
                        ],
                        [
                            -0.20224592089653015,
                            0.5739395618438721,
                            0.25977909564971924,
                            0.34945183992385864
                        ],
                        [
                            0.167258620262146,
                            -0.3671687841415405,
                            -0.36951178312301636,
                            0.8169543147087097
                        ]
                    ],
                    [
                        7.93173021520488e-05,
                        7.099735375959426e-05,
                        0.00015289393195416778,
                        0.0009333722409792244
                    ]
                ]
            },
            {
                "type": "dense",
                "activation": "",
                "shape": [
                    null,
                    1
                ],
                "weights": [
                    [
                        [
                            -0.2989215552806854
                        ],
                        [
                            0.41452109813690186
                        ],
                        [
                            0.5835728645324707
                        ],
                        [
                            0.3272055685520172
                        ]
                    ],
                    [
                        -0.0004350772069301456
                    ]
                ]
            }
        ]
    },
    "drive_30_90": {
        "in_shape": [
            null,
            5
        ],
        "layers": [
            {
                "type": "dense",
                "activation": "tanh",
                "shape": [
                    null,
                    4
                ],
                "weights": [
                    [
                        [
                            0.5081214308738708,
                            -0.17075489461421967,
                            -0.38959628343582153,
                            -0.5847182869911194
                        ],
                        [
                            -0.6629907488822937,
                            0.022512122988700867,
                            -0.06698773801326752,
                            0.18125174939632416
                        ],
                        [
                            0.07733558118343353,
                            -0.3245542645454407,
                            -0.4576992690563202,
                            1.0218746662139893
                        ],
                        [
                            0.2980574667453766,
                            0.17908577620983124,
                            0.0034605737309902906,
                            0.160971000790596
                        ],
                        [
                            0.19329866766929626,
                            -0.3593794107437134,
                            0.3868909180164337,
                            0.38958317041397095
                        ]
                    ],
                    [
                        0.0021651205606758595,
                        0.0013229991309344769,
                        0.0003514329146128148,
                        0.0005662330659106374
                    ]
                ]
            },
            {
                "type": "dense",
                "activation": "tanh",
                "shape": [
                    null,
                    4
                ],
                "weights": [
                    [
                        [
                            -0.6066989898681641,
                            -0.09321331977844238,
                            0.03141098469495773,
                            -0.3649344742298126
                        ],
                        [
                            -0.5256146788597107,
                            -0.2152225375175476,
                            -0.2507639229297638,
                            0.6280766129493713
                        ],
                        [
                            0.5214077234268188,
                            0.7658396363258362,
                            0.44019630551338196,
                            -0.42421308159828186
                        ],
                        [
                            -0.4548644423484802,
                            0.5830097794532776,
                            0.5187268853187561,
                            0.024929041042923927
                        ]
                    ],
                    [
                        0.0001473878073738888,
                        -0.0001853246649261564,
                        0.00029381128842942417,
                        -0.00039414461934939027
                    ]
                ]
            },
            {
                "type": "dense",
                "activation": "",
                "shape": [
                    null,
                    1
                ],
                "weights": [
                    [
                        [
                            -0.07527162879705429
                        ],
                        [
                            -0.6144485473632812
                        ],
                        [
                            -0.07695647329092026
                        ],
                        [
                            0.2375302016735077
                        ]
                    ],
                    [
                        2.6425545911479276e-06
                    ]
                ]
            }
        ]
    },
    "drive_35_90": {
        "in_shape": [
            null,
            5
        ],
        "layers": [
            {
                "type": "dense",
                "activation": "tanh",
                "shape": [
                    null,
                    4
                ],
                "weights": [
                    [
                        [
                            -0.4385645091533661,
                            0.31484776735305786,
                            -0.7479223012924194,
                            0.6070351600646973
                        ],
                        [
                            0.06190066412091255,
                            0.180135115981102,
                            0.33729979395866394,
                            -0.12790973484516144
                        ],
                        [
                            -0.3973475694656372,
                            0.5304130911827087,
                            0.4374396800994873,
                            0.25051990151405334
                        ],
                        [
                            0.5107075572013855,
                            -0.06225605681538582,
                            0.22024749219417572,
                            0.3707776367664337
                        ],
                        [
                            -0.2951732277870178,
                            -0.13902658224105835,
                            -0.7654978632926941,
                            -0.12909092009067535
                        ]
                    ],
                    [
                        0.002129100961610675,
                        -0.00022851172252558172,
                        -0.00012065324699506164,
                        -0.000554812082555145
                    ]
                ]
            },
            {
                "type": "dense",
                "activation": "tanh",
                "shape": [
                    null,
                    4
                ],
                "weights": [
                    [
                        [
                            -0.17547932267189026,
                            0.361901193857193,
                            -0.018127016723155975,
                            0.8410130143165588
                        ],
                        [
                            0.4115901589393616,
                            0.6701249480247498,
                            -0.9524130821228027,
                            0.9119579792022705
                        ],
                        [
                            -0.70517498254776,
                            0.3996855318546295,
                            -0.5160557627677917,
                            0.18128536641597748
                        ],
                        [
                            -0.2538662552833557,
                            0.429901123046875,
                            -0.6820769309997559,
                            0.8113981485366821
                        ]
                    ],
                    [
                        -0.001144865178503096,
                        0.00021509479847736657,
                        -0.0002627295325510204,
                        -0.00046988544636406004
                    ]
                ]
            },
            {
                "type": "dense",
                "activation": "",
                "shape": [
                    null,
                    1
                ],
                "weights": [
                    [
                        [
                            -0.1881706416606903
                        ],
                        [
                            0.9658242464065552
                        ],
                        [
                            -0.09507102519273758
                        ],
                        [
                            -0.4652279019355774
                        ]
                    ],
                    [
                        -0.0003791922063101083
                    ]
                ]
            }
        ]
    },
    "drive_40_90": {
        "in_shape": [
            null,
            5
        ],
        "layers": [
            {
                "type": "dense",
                "activation": "tanh",
                "shape": [
                    null,
                    4
                ],
                "weights": [
                    [
                        [
                            -0.023779241368174553,
                            -0.35591426491737366,
                            0.7483670115470886,
                            -0.46411287784576416
                        ],
                        [
                            0.07794170826673508,
                            -0.2309384047985077,
                            -0.550514817237854,
                            0.15645083785057068
                        ],
                        [
                            0.21015553176403046,
                            -0.8477683663368225,
                            -0.2263016551733017,
                            0.15394964814186096
                        ],
                        [
                            0.03160262852907181,
                            -0.1427568793296814,
                            -0.44478151202201843,
                            0.2308187186717987
                        ],
                        [
                            -0.44593653082847595,
                            0.4147554934024811,
                            0.9699212908744812,
                            -0.6824035048484802
                        ]
                    ],
                    [
                        -0.00022409463417716324,
                        0.0005904577556066215,
                        -0.0001912442676257342,
                        0.0010014079743996263
                    ]
                ]
            },
            {
                "type": "dense",
                "activation": "tanh",
                "shape": [
                    null,
                    4
                ],
                "weights": [
                    [
                        [
                            -0.17912082374095917,
                            0.1074194386601448,
                            -0.15957343578338623,
                            0.05057646706700325
                        ],
                        [
                            0.13946665823459625,
                            -0.25626540184020996,
                            -0.6135680675506592,
                            0.5344404578208923
                        ],
                        [
                            0.520329475402832,
                            0.024755842983722687,
                            -0.882844865322113,
                            0.6182210445404053
                        ],
                        [
                            -0.5211612582206726,
                            0.0827857181429863,
                            0.7937207221984863,
                            -0.5923691987991333
                        ]
                    ],
                    [
                        -0.00035942523390986025,
                        -1.663750663283281e-05,
                        0.00020864137331955135,
                        0.00025978960911743343
                    ]
                ]
            },
            {
                "type": "dense",
                "activation": "",
                "shape": [
                    null,
                    1
                ],
                "weights": [
                    [
                        [
                            -0.6795148849487305
                        ],
                        [
                            0.8762416839599609
                        ],
                        [
                            -0.6307371258735657
                        ],
                        [
                            -0.4536842107772827
                        ]
                    ],
                    [
                        -4.3539994294405915e-06
                    ]
                ]
            }
        ]
    },
    "drive_45_90": {
        "in_shape": [
            null,
            5
        ],
        "layers": [
            {
                "type": "dense",
                "activation": "tanh",
                "shape": [
                    null,
                    4
                ],
                "weights": [
                    [
                        [
                            0.017942579463124275,
                            0.8863925933837891,
                            0.14519500732421875,
                            0.07319976389408112
                        ],
                        [
                            -0.1321287602186203,
                            0.12851281464099884,
                            -0.35653579235076904,
                            -0.0896504819393158
                        ],
                        [
                            0.39115285873413086,
                            0.3217718005180359,
                            -0.4797097146511078,
                            0.1854897439479828
                        ],
                        [
                            0.4334699213504791,
                            -0.023760415613651276,
                            0.5005258321762085,
                            -0.1643340289592743
                        ],
                        [
                            -0.47728389501571655,
                            -0.5920457243919373,
                            0.317888468503952,
                            0.7613914608955383
                        ]
                    ],
                    [
                        -0.0002711839333642274,
                        0.0007492774166166782,
                        -0.00023170365602709353,
                        -0.00032947954605333507
                    ]
                ]
            },
            {
                "type": "dense",
                "activation": "tanh",
                "shape": [
                    null,
                    4
                ],
                "weights": [
                    [
                        [
                            -0.5402535796165466,
                            0.7335571646690369,
                            -0.2908020317554474,
                            0.5465172529220581
                        ],
                        [
                            0.40543124079704285,
                            0.5403032302856445,
                            0.2289702445268631,
                            0.12666967511177063
                        ],
                        [
                            -0.5314666628837585,
                            -0.6222279071807861,
                            -0.40446391701698303,
                            -0.15676751732826233
                        ],
                        [
                            0.2545374035835266,
                            -0.0937669426202774,
                            -0.6508151292800903,
                            0.8514562845230103
                        ]
                    ],
                    [
                        -0.0003520119353197515,
                        -0.0006590370903722942,
                        -0.0005938329850323498,
                        0.0004758090362884104
                    ]
                ]
            },
            {
                "type": "dense",
                "activation": "",
                "shape": [
                    null,
                    1
                ],
                "weights": [
                    [
                        [
                            -0.2982526421546936
                        ],
                        [
                            0.39113274216651917
                        ],
                        [
                            0.3452746868133545
                        ],
                        [
                            -0.12214364111423492
                        ]
                    ],
                    [
                        0.00016255088848993182
                    ]
                ]
            }
        ]
    },
    "drive_50_90": {
        "in_shape": [
            null,
            5
        ],
        "layers": [
            {
                "type": "dense",
                "activation": "tanh",
                "shape": [
                    null,
                    4
                ],
                "weights": [
                    [
                        [
                            0.5212821364402771,
                            0.46344390511512756,
                            -0.33835914731025696,
                            -0.7887910008430481
                        ],
                        [
                            0.06977080553770065,
                            0.35784876346588135,
                            0.7840275168418884,
                            0.3293072283267975
                        ],
                        [
                            0.21898475289344788,
                            -0.5051901340484619,
                            0.013749910518527031,
                            0.5216825008392334
                        ],
                        [
                            0.07277242839336395,
                            0.3608786165714264,
                            0.7237362861633301,
                            0.277767539024353
                        ],
                        [
                            0.29359951615333557,
                            -0.304734468460083,
                            -0.2422088384628296,
                            -1.0137990713119507
                        ]
                    ],
                    [
                        -0.0002603254106361419,
                        0.0004035848251078278,
                        -1.2723777217615861e-05,
                        -0.0007241998100653291
                    ]
                ]
            },
            {
                "type": "dense",
                "activation": "tanh",
                "shape": [
                    null,
                    4
                ],
                "weights": [
                    [
                        [
                            0.5358596444129944,
                            -0.4913000464439392,
                            -0.457157164812088,
                            0.5571536421775818
                        ],
                        [
                            1.19265615940094,
                            0.43132907152175903,
                            -0.6810049414634705,
                            0.08251548558473587
                        ],
                        [
                            -0.19823826849460602,
                            0.14601850509643555,
                            0.9311367869377136,
                            0.07848017662763596
                        ],
                        [
                            0.35964658856391907,
                            0.5798624753952026,
                            0.3607620894908905,
                            0.5333697199821472
                        ]
                    ],
                    [
                        -0.00023262128524947912,
                        0.0002868407464120537,
                        0.00015294413606170565,
                        -0.00034221255918964744
                    ]
                ]
            },
            {
                "type": "dense",
                "activation": "",
                "shape": [
                    null,
                    1
                ],
                "weights": [
                    [
                        [
                            -0.23506967723369598
                        ],
                        [
                            0.7345664501190186
                        ],
                        [
                            -0.7202526926994324
                        ],
                        [
                            0.6006247401237488
                        ]
                    ],
                    [
                        0.00017284085333812982
                    ]
                ]
            }
        ]
    },
    "drive_55_90": {
        "in_shape": [
            null,
            5
        ],
        "layers": [
            {
                "type": "dense",
                "activation": "tanh",
                "shape": [
                    null,
                    4
                ],
                "weights": [
                    [
                        [
                            -0.07311388850212097,
                            -0.3131764829158783,
                            -0.27831825613975525,
                            -0.14171452820301056
                        ],
                        [
                            -0.42189571261405945,
                            0.20714722573757172,
                            -0.370307058095932,
                            -0.20521321892738342
                        ],
                        [
                            -0.554958164691925,
                            -0.016204703599214554,
                            -0.41717711091041565,
                            -0.7687426805496216
                        ],
                        [
                            0.14921200275421143,
                            0.20385324954986572,
                            0.16841551661491394,
                            -0.2212609499692917
                        ],
                        [
                            -0.4515068233013153,
                            -0.9618747234344482,
                            0.23394569754600525,
                            0.2569192349910736
                        ]
                    ],
                    [
                        0.0031900282483547926,
                        -0.0019857524894177914,
                        0.0008292497368529439,
                        -0.00032948775333352387
                    ]
                ]
            },
            {
                "type": "dense",
                "activation": "tanh",
                "shape": [
                    null,
                    4
                ],
                "weights": [
                    [
                        [
                            0.39939337968826294,
                            -0.22666844725608826,
                            0.9704764485359192,
                            -0.3429328203201294
                        ],
                        [
                            -0.06153235211968422,
                            -0.5928057432174683,
                            -0.5564333200454712,
                            -0.10471681505441666
                        ],
                        [
                            0.03306092321872711,
                            0.17211155593395233,
                            0.13260430097579956,
                            0.11148498207330704
                        ],
                        [
                            0.17698414623737335,
                            -0.06498844176530838,
                            0.10946476459503174,
                            0.10220309346914291
                        ]
                    ],
                    [
                        0.0003884339239448309,
                        -0.0027890533674508333,
                        -0.004005833063274622,
                        -0.0001960858644451946
                    ]
                ]
            },
            {
                "type": "dense",
                "activation": "",
                "shape": [
                    null,
                    1
                ],
                "weights": [
                    [
                        [
                            -0.9569844007492065
                        ],
                        [
                            -0.31784069538116455
                        ],
                        [
                            0.14634427428245544
                        ],
                        [
                            -0.940311074256897
                        ]
                    ],
                    [
                        -0.00012348804739303887
                    ]
                ]
            }
        ]
    },
    "drive_60_90": {
        "in_shape": [
            null,
            5
        ],
        "layers": [
            {
                "type": "dense",
                "activation": "tanh",
                "shape": [
                    null,
                    4
                ],
                "weights": [
                    [
                        [
                            0.40006059408187866,
                            0.02444312907755375,
                            0.22719526290893555,
                            -0.4288003742694855
                        ],
                        [
                            -0.647864580154419,
                            -0.49157610535621643,
                            -0.16046303510665894,
                            -0.015595248900353909
                        ],
                        [
                            -0.6567999720573425,
                            -0.2994205057621002,
                            0.34946826100349426,
                            -0.23124973475933075
                        ],
                        [
                            0.009674076922237873,
                            0.1113487258553505,
                            -0.2068108469247818,
                            -0.11599615216255188
                        ],
                        [
                            -0.20976902544498444,
                            0.05465153232216835,
                            0.06528504937887192,
                            0.1579626202583313
                        ]
                    ],
                    [
                        -2.282632704009302e-05,
                        -7.944434764795005e-05,
                        -0.0003006485931109637,
                        0.0004107935819774866
                    ]
                ]
            },
            {
                "type": "dense",
                "activation": "tanh",
                "shape": [
                    null,
                    4
                ],
                "weights": [
                    [
                        [
                            -0.3313065469264984,
                            -0.4752601087093353,
                            0.6078984141349792,
                            0.9102869629859924
                        ],
                        [
                            0.10651468485593796,
                            0.7344762086868286,
                            -0.5278324484825134,
                            -0.3412899374961853
                        ],
                        [
                            0.5525073409080505,
                            -0.04991533234715462,
                            0.07056355476379395,
                            -0.38857460021972656
                        ],
                        [
                            0.21579039096832275,
                            0.572956919670105,
                            0.5592217445373535,
                            0.5048167705535889
                        ]
                    ],
                    [
                        -0.0008489997708238661,
                        0.0008440967067144811,
                        0.00016897845489438623,
                        -0.0010113850003108382
                    ]
                ]
            },
            {
                "type": "dense",
                "activation": "",
                "shape": [
                    null,
                    1
                ],
                "weights": [
                    [
                        [
                            -0.7107823491096497
                        ],
                        [
                            -0.8375239968299866
                        ],
                        [
                            0.7612590789794922
                        ],
                        [
                            -0.18321500718593597
                        ]
                    ],
                    [
                        -0.00022710533812642097
                    ]
                ]
            }
        ]
    },
    "drive_65_90": {
        "in_shape": [
            null,
            5
        ],
        "layers": [
            {
                "type": "dense",
                "activation": "tanh",
                "shape": [
                    null,
                    4
                ],
                "weights": [
                    [
                        [
                            -0.19991865754127502,
                            -0.14612320065498352,
                            0.18587960302829742,
                            0.015398064628243446
                        ],
                        [
                            0.21293571591377258,
                            0.338018536567688,
                            -0.29288163781166077,
                            -0.38089215755462646
                        ],
                        [
                            -0.252466082572937,
                            -0.6862831115722656,
                            -0.8222246170043945,
                            -0.9795765280723572
                        ],
                        [
                            0.10949945449829102,
                            0.033517640084028244,
                            -0.28938132524490356,
                            -0.6877562403678894
                        ],
                        [
                            -0.5777155160903931,
                            0.4324388802051544,
                            0.07470081746578217,
                            -0.04545692354440689
                        ]
                    ],
                    [
                        -0.0002750518615357578,
                        -0.0010973538737744093,
                        0.00032994584762491286,
                        0.0016663463320583105
                    ]
                ]
            },
            {
                "type": "dense",
                "activation": "tanh",
                "shape": [
                    null,
                    4
                ],
                "weights": [
                    [
                        [
                            0.09338801354169846,
                            -0.90348881483078,
                            -0.0085547911003232,
                            0.558527946472168
                        ],
                        [
                            -0.8122530579566956,
                            0.2231677919626236,
                            0.6041262149810791,
                            -0.563426673412323
                        ],
                        [
                            0.07569263130426407,
                            0.5474748611450195,
                            -0.14769193530082703,
                            -0.6238979697227478
                        ],
                        [
                            0.03817050904035568,
                            -0.4947793185710907,
                            -0.4835642874240875,
                            -0.3456796109676361
                        ]
                    ],
                    [
                        -0.0010388687951490283,
                        0.0006873911479488015,
                        -0.0009796650847420096,
                        -0.0007775637786835432
                    ]
                ]
            },
            {
                "type": "dense",
                "activation": "",
                "shape": [
                    null,
                    1
                ],
                "weights": [
                    [
                        [
                            -0.09296693652868271
                        ],
                        [
                            -0.39536258578300476
                        ],
                        [
                            -0.06671024113893509
                        ],
                        [
                            0.3508232533931732
                        ]
                    ],
                    [
                        0.00019496717141009867
                    ]
                ]
            }
        ]
    },
    "drive_70_90": {
        "in_shape": [
            null,
            5
        ],
        "layers": [
            {
                "type": "dense",
                "activation": "tanh",
                "shape": [
                    null,
                    4
                ],
                "weights": [
                    [
                        [
                            -0.6148514151573181,
                            0.022536348551511765,
                            -0.16531696915626526,
                            0.6386463046073914
                        ],
                        [
                            0.5094562768936157,
                            0.3723270893096924,
                            0.3190579116344452,
                            -0.5582137703895569
                        ],
                        [
                            0.49346575140953064,
                            0.8832347989082336,
                            -0.26552248001098633,
                            -0.13015145063400269
                        ],
                        [
                            0.5538323521614075,
                            0.3227658271789551,
                            0.18611465394496918,
                            -0.3717551529407501
                        ],
                        [
                            -1.1087429523468018,
                            0.4954429566860199,
                            0.15324150025844574,
                            -0.6325289011001587
                        ]
                    ],
                    [
                        0.00021685296087525785,
                        -0.00016964161477517337,
                        -0.0005693762213923037,
                        0.0004534693725872785
                    ]
                ]
            },
            {
                "type": "dense",
                "activation": "tanh",
                "shape": [
                    null,
                    4
                ],
                "weights": [
                    [
                        [
                            0.5713790059089661,
                            -0.8066150546073914,
                            0.7701406478881836,
                            0.3736494183540344
                        ],
                        [
                            -0.3276863694190979,
                            0.03487597033381462,
                            -0.46354010701179504,
                            0.19204959273338318
                        ],
                        [
                            0.2594462037086487,
                            0.6333109736442566,
                            -0.525356650352478,
                            0.45260584354400635
                        ],
                        [
                            -0.02895362116396427,
                            0.10238940268754959,
                            -0.13076364994049072,
                            0.7288450598716736
                        ]
                    ],
                    [
                        0.0006013511447235942,
                        0.0006268067518249154,
                        0.0002747142279986292,
                        -0.0002396913623670116
                    ]
                ]
            },
            {
                "type": "dense",
                "activation": "",
                "shape": [
                    null,
                    1
                ],
                "weights": [
                    [
                        [
                            0.45353642106056213
                        ],
                        [
                            0.24277065694332123
                        ],
                        [
                            -0.305958092212677
                        ],
                        [
                            0.7630020380020142
                        ]
                    ],
                    [
                        -6.526554352603853e-05
                    ]
                ]
            }
        ]
    },
    "drive_75_90": {
        "in_shape": [
            null,
            5
        ],
        "layers": [
            {
                "type": "dense",
                "activation": "tanh",
                "shape": [
                    null,
                    4
                ],
                "weights": [
                    [
                        [
                            -0.5596157908439636,
                            -0.22996574640274048,
                            0.4506966769695282,
                            1.188104510307312
                        ],
                        [
                            0.31730902194976807,
                            -0.1440400928258896,
                            -0.3368884027004242,
                            0.42728951573371887
                        ],
                        [
                            0.14443281292915344,
                            -0.8841869831085205,
                            -0.5357772707939148,
                            0.4159083664417267
                        ],
                        [
                            0.33729833364486694,
                            -0.237517312169075,
                            -0.20434258878231049,
                            0.6781767010688782
                        ],
                        [
                            -0.7903576493263245,
                            0.43359825015068054,
                            0.2684204578399658,
                            -0.3469698131084442
                        ]
                    ],
                    [
                        -0.0008476682123728096,
                        0.00149354781024158,
                        -0.003921385854482651,
                        -0.0012017727131024003
                    ]
                ]
            },
            {
                "type": "dense",
                "activation": "tanh",
                "shape": [
                    null,
                    4
                ],
                "weights": [
                    [
                        [
                            -0.11010592430830002,
                            -0.4304545819759369,
                            -0.5088918209075928,
                            0.173171728849411
                        ],
                        [
                            0.48833003640174866,
                            -0.23737891018390656,
                            1.1322935819625854,
                            0.6800608038902283
                        ],
                        [
                            -0.34878745675086975,
                            0.29204729199409485,
                            0.5779643654823303,
                            0.4529208838939667
                        ],
                        [
                            -0.4726674556732178,
                            0.6865742206573486,
                            -0.14343330264091492,
                            -0.5149815678596497
                        ]
                    ],
                    [
                        -0.0003885068872477859,
                        0.00042985781328752637,
                        0.0002587304334156215,
                        0.0011513849021866918
                    ]
                ]
            },
            {
                "type": "dense",
                "activation": "",
                "shape": [
                    null,
                    1
                ],
                "weights": [
                    [
                        [
                            -0.33610549569129944
                        ],
                        [
                            -0.769706666469574
                        ],
                        [
                            0.09681173413991928
                        ],
                        [
                            -0.5651664137840271
                        ]
                    ],
                    [
                        7.730651850579306e-05
                    ]
                ]
            }
        ]
    },
    "drive_80_90": {
        "in_shape": [
            null,
            5
        ],
        "layers": [
            {
                "type": "dense",
                "activation": "tanh",
                "shape": [
                    null,
                    4
                ],
                "weights": [
                    [
                        [
                            -0.908592939376831,
                            0.003688738914206624,
                            0.7271362543106079,
                            0.0569702684879303
                        ],
                        [
                            0.3447774648666382,
                            -0.5240912437438965,
                            -0.027047723531723022,
                            -0.2768190801143646
                        ],
                        [
                            -0.01101754978299141,
                            -0.503162682056427,
                            -0.17400002479553223,
                            0.2893943786621094
                        ],
                        [
                            0.05408797040581703,
                            -0.7249444127082825,
                            0.07758261263370514,
                            -0.1891613006591797
                        ],
                        [
                            0.4759632647037506,
                            0.27179738879203796,
                            0.13659992814064026,
                            0.5189289450645447
                        ]
                    ],
                    [
                        0.004296332132071257,
                        0.003342278068885207,
                        -0.001405552146025002,
                        -0.0016512784641236067
                    ]
                ]
            },
            {
                "type": "dense",
                "activation": "tanh",
                "shape": [
                    null,
                    4
                ],
                "weights": [
                    [
                        [
                            0.5695018172264099,
                            0.34711965918540955,
                            0.19878989458084106,
                            0.38290107250213623
                        ],
                        [
                            0.09723321348428726,
                            -0.2058941274881363,
                            -0.4100154638290405,
                            0.7131415009498596
                        ],
                        [
                            -0.19997408986091614,
                            -0.1137838065624237,
                            0.5410774946212769,
                            0.3395370543003082
                        ],
                        [
                            0.3413291573524475,
                            0.07644607126712799,
                            -0.7279606461524963,
                            -0.8101035356521606
                        ]
                    ],
                    [
                        -0.00024721588124521077,
                        -0.000160650655743666,
                        -0.0011015967465937138,
                        -0.0001126649440266192
                    ]
                ]
            },
            {
                "type": "dense",
                "activation": "",
                "shape": [
                    null,
                    1
                ],
                "weights": [
                    [
                        [
                            -0.8697425127029419
                        ],
                        [
                            0.6988845467567444
                        ],
                        [
                            -0.2639310956001282
                        ],
                        [
                            0.31411242485046387
                        ]
                    ],
                    [
                        -0.0003200628561899066
                    ]
                ]
            }
        ]
    },
    "drive_85_90": {
        "in_shape": [
            null,
            5
        ],
        "layers": [
            {
                "type": "dense",
                "activation": "tanh",
                "shape": [
                    null,
                    4
                ],
                "weights": [
                    [
                        [
                            0.5408560633659363,
                            -0.02551387809216976,
                            0.4333125054836273,
                            -0.17859162390232086
                        ],
                        [
                            0.48357316851615906,
                            0.016623884439468384,
                            0.2537634074687958,
                            0.034969281405210495
                        ],
                        [
                            0.9417759776115417,
                            0.711767852306366,
                            0.3693419396877289,
                            -0.9707526564598083
                        ],
                        [
                            0.2553720772266388,
                            -0.252042680978775,
                            0.09176132082939148,
                            -0.4126265347003937
                        ],
                        [
                            0.05958643555641174,
                            -0.03019234910607338,
                            -0.4823565185070038,
                            -0.7497947812080383
                        ]
                    ],
                    [
                        -0.0003331200568936765,
                        -0.0021594383288174868,
                        -0.0004152230394538492,
                        0.0013336589327082038
                    ]
                ]
            },
            {
                "type": "dense",
                "activation": "tanh",
                "shape": [
                    null,
                    4
                ],
                "weights": [
                    [
                        [
                            -0.2953503727912903,
                            0.39047372341156006,
                            0.8085377812385559,
                            0.5698488354682922
                        ],
                        [
                            -0.4060836434364319,
                            0.5167284607887268,
                            0.5811981558799744,
                            0.10757236182689667
                        ],
                        [
                            0.14495162665843964,
                            0.23811648786067963,
                            -0.5482974052429199,
                            0.7592217922210693
                        ],
                        [
                            0.057709310203790665,
                            -0.712544322013855,
                            -0.6899455785751343,
                            0.5471649169921875
                        ]
                    ],
                    [
                        0.00010312643280485645,
                        8.117791367112659e-06,
                        -7.054924935800955e-05,
                        0.0009699472575448453
                    ]
                ]
            },
            {
                "type": "dense",
                "activation": "",
                "shape": [
                    null,
                    1
                ],
                "weights": [
                    [
                        [
                            0.22279007732868195
                        ],
                        [
                            0.8908954858779907
                        ],
                        [
                            -0.8023102879524231
                        ],
                        [
                            0.007730721030384302
                        ]
                    ],
                    [
                        -7.797517173457891e-05
                    ]
                ]
            }
        ]
    },
    "drive_90_90": {
        "in_shape": [
            null,
            5
        ],
        "layers": [
            {
                "type": "dense",
                "activation": "tanh",
                "shape": [
                    null,
                    4
                ],
                "weights": [
                    [
                        [
                            0.7158946394920349,
                            -0.46458911895751953,
                            0.0875910297036171,
                            -0.10695915669202805
                        ],
                        [
                            -0.09747008979320526,
                            0.23508623242378235,
                            -0.2260282337665558,
                            -0.15678083896636963
                        ],
                        [
                            -0.046796295791864395,
                            0.012966474518179893,
                            -0.7723525166511536,
                            -0.8550766110420227
                        ],
                        [
                            0.0675068199634552,
                            0.22856254875659943,
                            -0.1942077875137329,
                            0.7767086625099182
                        ],
                        [
                            0.6467753052711487,
                            -0.5137137770652771,
                            0.5484440326690674,
                            -0.29397743940353394
                        ]
                    ],
                    [
                        -0.004715070594102144,
                        0.0003901956952176988,
                        0.0015075047267600894,
                        0.005812212824821472
                    ]
                ]
            },
            {
                "type": "dense",
                "activation": "tanh",
                "shape": [
                    null,
                    4
                ],
                "weights": [
                    [
                        [
                            -0.04937528818845749,
                            -0.31731826066970825,
                            -0.22945788502693176,
                            0.3853601813316345
                        ],
                        [
                            0.09990862011909485,
                            -0.06754188239574432,
                            0.06101815775036812,
                            -0.4221532642841339
                        ],
                        [
                            0.166608527302742,
                            -0.09096784889698029,
                            -0.1527595967054367,
                            0.6371015310287476
                        ],
                        [
                            -0.27725401520729065,
                            0.13025078177452087,
                            0.19729933142662048,
                            0.44908300042152405
                        ]
                    ],
                    [
                        0.000483678188174963,
                        -4.726984479930252e-05,
                        0.000538233551196754,
                        0.0010241246782243252
                    ]
                ]
            },
            {
                "type": "dense",
                "activation": "",
                "shape": [
                    null,
                    1
                ],
                "weights": [
                    [
                        [
                            -0.10619436204433441
                        ],
                        [
                            -0.7063524127006531
                        ],
                        [
                            0.8356403112411499
                        ],
                        [
                            -0.23550963401794434
                        ]
                    ],
                    [
                        -0.00016160581435542554
                    ]
                ]
            }
        ]
    },
    "drive_95_90": {
        "in_shape": [
            null,
            5
        ],
        "layers": [
            {
                "type": "dense",
                "activation": "tanh",
                "shape": [
                    null,
                    4
                ],
                "weights": [
                    [
                        [
                            0.5344299077987671,
                            0.8537628054618835,
                            -0.7028522491455078,
                            -0.8782448172569275
                        ],
                        [
                            -0.454172283411026,
                            -0.39152461290359497,
                            -0.047770190984010696,
                            -0.4456764757633209
                        ],
                        [
                            0.25711506605148315,
                            0.028915170580148697,
                            -0.12779280543327332,
                            0.11524324864149094
                        ],
                        [
                            -0.23753511905670166,
                            -0.5270209312438965,
                            0.008516460657119751,
                            -0.37476351857185364
                        ],
                        [
                            0.8889626264572144,
                            0.18223266303539276,
                            0.33296382427215576,
                            -1.2708793878555298
                        ]
                    ],
                    [
                        0.003335839370265603,
                        -0.002841621870175004,
                        0.0006390211055986583,
                        0.0023364699445664883
                    ]
                ]
            },
            {
                "type": "dense",
                "activation": "tanh",
                "shape": [
                    null,
                    4
                ],
                "weights": [
                    [
                        [
                            -0.13143402338027954,
                            -0.30852216482162476,
                            -0.4112478196620941,
                            -0.5620380640029907
                        ],
                        [
                            -0.15059027075767517,
                            -0.8890882134437561,
                            -1.1196192502975464,
                            -0.7899706363677979
                        ],
                        [
                            0.474837064743042,
                            -0.4091492295265198,
                            0.5042925477027893,
                            0.36294591426849365
                        ],
                        [
                            0.6703996062278748,
                            0.12201951444149017,
                            -0.6323875188827515,
                            0.4813239574432373
                        ]
                    ],
                    [
                        0.0015011081704869866,
                        -0.0006604772643186152,
                        0.0006152401911094785,
                        0.001989133423194289
                    ]
                ]
            },
            {
                "type": "dense",
                "activation": "",
                "shape": [
                    null,
                    1
                ],
                "weights": [
                    [
                        [
                            -0.13596385717391968
                        ],
                        [
                            0.4191894233226776
                        ],
                        [
                            -0.2744605243206024
                        ],
                        [
                            0.06318150460720062
                        ]
                    ],
                    [
                        0.00019479678303468972
                    ]
                ]
            }
        ]
    },
    "drive_100_90": {
        "in_shape": [
            null,
            5
        ],
        "layers": [
            {
                "type": "dense",
                "activation": "tanh",
                "shape": [
                    null,
                    4
                ],
                "weights": [
                    [
                        [
                            -0.23116877675056458,
                            0.21163834631443024,
                            0.716446578502655,
                            0.36297208070755005
                        ],
                        [
                            -0.3043195605278015,
                            -0.19810150563716888,
                            -0.3070427477359772,
                            0.3430691659450531
                        ],
                        [
                            -0.6660745143890381,
                            -0.17396332323551178,
                            0.05021155625581741,
                            0.6034998297691345
                        ],
                        [
                            -0.08799366652965546,
                            -0.13104957342147827,
                            -0.46878331899642944,
                            0.05845976620912552
                        ],
                        [
                            0.49614205956459045,
                            -0.15052524209022522,
                            0.500272274017334,
                            0.5975058674812317
                        ]
                    ],
                    [
                        0.0020629288628697395,
                        -0.0014441412640735507,
                        -0.001384441857226193,
                        -0.002604913664981723
                    ]
                ]
            },
            {
                "type": "dense",
                "activation": "tanh",
                "shape": [
                    null,
                    4
                ],
                "weights": [
                    [
                        [
                            0.1155979111790657,
                            0.4899980127811432,
                            0.24775643646717072,
                            0.05751441791653633
                        ],
                        [
                            -0.051889173686504364,
                            0.25854796171188354,
                            -0.6942685842514038,
                            0.38828909397125244
                        ],
                        [
                            0.028908997774124146,
                            -0.09929613023996353,
                            -0.25561001896858215,
                            0.5258082747459412
                        ],
                        [
                            -0.6141186952590942,
                            -0.36980292201042175,
                            0.6363109350204468,
                            0.05760960653424263
                        ]
                    ],
                    [
                        -9.658001545176376e-06,
                        0.00031095120357349515,
                        0.00027499566203914583,
                        0.0006915002595633268
                    ]
                ]
            },
            {
                "type": "dense",
                "activation": "",
                "shape": [
                    null,
                    1
                ],
                "weights": [
                    [
                        [
                            0.8680973649024963
                        ],
                        [
                            -1.0510272979736328
                        ],
                        [
                            -0.3794657289981842
                        ],
                        [
                            -0.41893839836120605
                        ]
                    ],
                    [
                        0.0004532807506620884
                    ]
                ]
            }
        ]
    }
}