{
    "drive_0_0": {
        "in_shape": [
            null,
            6
        ],
        "layers": [
            {
                "type": "dense",
                "activation": "tanh",
                "shape": [
                    null,
                    4
                ],
                "weights": [
                    [
                        [
                            0.18594375252723694,
                            -0.06480123847723007,
                            -0.4223462641239166,
                            -0.3922044336795807
                        ],
                        [
                            0.23126526176929474,
                            0.10313750058412552,
                            0.25639158487319946,
                            0.05757586285471916
                        ],
                        [
                            0.4146292209625244,
                            0.7906561493873596,
                            0.9089623093605042,
                            0.54535311460495
                        ],
                        [
                            -0.08418973535299301,
                            0.24246470630168915,
                            -0.4132758378982544,
                            0.18648529052734375
                        ],
                        [
                            -0.6076681017875671,
                            0.5429636836051941,
                            -0.1583508551120758,
                            0.15934224426746368
                        ],
                        [
                            -0.02514800988137722,
                            0.15144290030002594,
                            -0.09020638465881348,
                            0.5723477602005005
                        ]
                    ],
                    [
                        -0.14310161769390106,
                        0.10124050825834274,
                        0.01886036805808544,
                        0.07910970598459244
                    ]
                ]
            },
            {
                "type": "dense",
                "activation": "tanh",
                "shape": [
                    null,
                    4
                ],
                "weights": [
                    [
                        [
                            0.8641746044158936,
                            0.6919195055961609,
                            -0.4825674295425415,
                            -0.08437865227460861
                        ],
                        [
                            -1.1530489921569824,
                            0.5595642924308777,
                            -0.22938093543052673,
                            -0.5103294849395752
                        ],
                        [
                            -0.07239766418933868,
                            -0.5237715244293213,
                            0.49725058674812317,
                            -0.09892844408750534
                        ],
                        [
                            -0.48854848742485046,
                            -0.6934090852737427,
                            -0.6627041697502136,
                            0.7714300751686096
                        ]
                    ],
                    [
                        -0.2173748016357422,
                        -0.06406993418931961,
                        -0.15539616346359253,
                        -0.010884983465075493
                    ]
                ]
            },
            {
                "type": "dense",
                "activation": "",
                "shape": [
                    null,
                    1
                ],
                "weights": [
                    [
                        [
                            -0.16995255649089813
                        ],
                        [
                            1.0531178712844849
                        ],
                        [
                            0.25620633363723755
                        ],
                        [
                            -0.6495200991630554
                        ]
                    ],
                    [
                        0.13588903844356537
                    ]
                ]
            }
        ]
    },
    "drive_5_0": {
        "in_shape": [
            null,
            6
        ],
        "layers": [
            {
                "type": "dense",
                "activation": "tanh",
                "shape": [
                    null,
                    4
                ],
                "weights": [
                    [
                        [
                            1.4595520496368408,
                            0.4399859309196472,
                            0.19119377434253693,
                            0.2686060667037964
                        ],
                        [
                            0.22246673703193665,
                            -0.3147929310798645,
                            -0.10166844725608826,
                            0.13296429812908173
                        ],
                        [
                            0.18802207708358765,
                            -0.18301847577095032,
                            0.25023460388183594,
                            -0.3692377209663391
                        ],
                        [
                            0.19165542721748352,
                            -0.3827055096626282,
                            -0.1740691363811493,
                            0.2321806102991104
                        ],
                        [
                            0.36379969120025635,
                            -0.5310180187225342,
                            -0.14263246953487396,
                            -0.7951475977897644
                        ],
                        [
                            0.24310186505317688,
                            -0.15119291841983795,
                            0.4768298864364624,
                            -0.38284316658973694
                        ]
                    ],
                    [
                        -0.059707626700401306,
                        0.04344078525900841,
                        0.142279714345932,
                        0.46865710616111755
                    ]
                ]
            },
            {
                "type": "dense",
                "activation": "tanh",
                "shape": [
                    null,
                    4
                ],
                "weights": [
                    [
                        [
                            0.21837596595287323,
                            0.1210465356707573,
                            -1.1236473321914673,
                            -0.5354971885681152
                        ],
                        [
                            -0.6491315960884094,
                            0.21367885172367096,
                            -1.0890053510665894,
                            0.6785851716995239
                        ],
                        [
                            0.8320688009262085,
                            -0.6126054525375366,
                            -0.6758551597595215,
                            0.159580260515213
                        ],
                        [
                            -0.07115995138883591,
                            0.4460318088531494,
                            -0.37831392884254456,
                            0.9758452773094177
                        ]
                    ],
                    [
                        -0.0389142744243145,
                        0.07729089260101318,
                        -0.012509054504334927,
                        -0.02696768380701542
                    ]
                ]
            },
            {
                "type": "dense",
                "activation": "",
                "shape": [
                    null,
                    1
                ],
                "weights": [
                    [
                        [
                            -1.0850858688354492
                        ],
                        [
                            1.1467803716659546
                        ],
                        [
                            -0.5513634085655212
                        ],
                        [
                            -0.8579940795898438
                        ]
                    ],
                    [
                        0.03963890299201012
                    ]
                ]
            }
        ]
    },
    "drive_10_0": {
        "in_shape": [
            null,
            6
        ],
        "layers": [
            {
                "type": "dense",
                "activation": "tanh",
                "shape": [
                    null,
                    4
                ],
                "weights": [
                    [
                        [
                            -0.69875568151474,
                            -0.6939825415611267,
                            0.39135870337486267,
                            -0.8442502617835999
                        ],
                        [
                            0.2944430410861969,
                            0.0740889310836792,
                            -0.294548898935318,
                            -0.43052515387535095
                        ],
                        [
                            -0.4135170876979828,
                            -0.36398229002952576,
                            -0.6689208745956421,
                            -0.969955325126648
                        ],
                        [
                            -0.014360667206346989,
                            -0.12847895920276642,
                            -0.0970829576253891,
                            0.07814044505357742
                        ],
                        [
                            0.4388691484928131,
                            0.5958131551742554,
                            0.006849946919828653,
                            -0.9347293376922607
                        ],
                        [
                            0.48707979917526245,
                            0.3437750041484833,
                            -0.6369016170501709,
                            -0.3303018808364868
                        ]
                    ],
                    [
                        -0.16390995681285858,
                        -0.15793779492378235,
                        -0.11148960143327713,
                        0.21172882616519928
                    ]
                ]
            },
            {
                "type": "dense",
                "activation": "tanh",
                "shape": [
                    null,
                    4
                ],
                "weights": [
                    [
                        [
                            -0.44786569476127625,
                            0.5750872492790222,
                            -0.498847633600235,
                            -0.5638570785522461
                        ],
                        [
                            -1.132598638534546,
                            -0.25897684693336487,
                            0.0671229213476181,
                            0.6075567007064819
                        ],
                        [
                            0.023185554891824722,
                            0.6390985250473022,
                            -0.26732000708580017,
                            -0.9008082747459412
                        ],
                        [
                            -0.8631924986839294,
                            -0.3275078535079956,
                            -0.42404335737228394,
                            -0.4449816048145294
                        ]
                    ],
                    [
                        0.07810551673173904,
                        0.022681495174765587,
                        -0.008826212957501411,
                        -0.022730225697159767
                    ]
                ]
            },
            {
                "type": "dense",
                "activation": "",
                "shape": [
                    null,
                    1
                ],
                "weights": [
                    [
                        [
                            1.0408976078033447
                        ],
                        [
                            1.3442994356155396
                        ],
                        [
                            -0.7262576818466187
                        ],
                        [
                            -0.546373724937439
                        ]
                    ],
                    [
                        0.060868289321660995
                    ]
                ]
            }
        ]
    },
    "drive_15_0": {
        "in_shape": [
            null,
            6
        ],
        "layers": [
            {
                "type": "dense",
                "activation": "tanh",
                "shape": [
                    null,
                    4
                ],
                "weights": [
                    [
                        [
                            0.7839795351028442,
                            0.729496419429779,
                            0.8035879731178284,
                            0.8917875289916992
                        ],
                        [
                            0.22515815496444702,
                            -0.13289105892181396,
                            -0.24186591804027557,
                            0.3401130437850952
                        ],
                        [
                            0.3791919946670532,
                            -0.4871906638145447,
                            0.4114198088645935,
                            0.40047597885131836
                        ],
                        [
                            0.24359188973903656,
                            -0.0892360731959343,
                            -0.2867320477962494,
                            0.2675951421260834
                        ],
                        [
                            -0.016002733260393143,
                            0.0009953236440196633,
                            -0.04312433302402496,
                            0.026232078671455383
                        ],
                        [
                            0.23712202906608582,
                            -0.8129390478134155,
                            0.5061547756195068,
                            0.10647690296173096
                        ]
                    ],
                    [
                        -0.05290810018777847,
                        -0.02537083998322487,
                        0.015405992045998573,
                        0.01198562141507864
                    ]
                ]
            },
            {
                "type": "dense",
                "activation": "tanh",
                "shape": [
                    null,
                    4
                ],
                "weights": [
                    [
                        [
                            -0.6328936815261841,
                            -0.14429250359535217,
                            0.39169901609420776,
                            0.381978303194046
                        ],
                        [
                            0.3470652401447296,
                            -0.6188967227935791,
                            -0.561490535736084,
                            0.7770447134971619
                        ],
                        [
                            0.48289182782173157,
                            0.0796533152461052,
                            0.51479172706604,
                            0.9763966202735901
                        ],
                        [
                            0.5782668590545654,
                            0.20466496050357819,
                            -0.333110511302948,
                            0.8170216083526611
                        ]
                    ],
                    [
                        0.0357702411711216,
                        -0.01182788796722889,
                        -0.0025634572375565767,
                        0.035240598022937775
                    ]
                ]
            },
            {
                "type": "dense",
                "activation": "",
                "shape": [
                    null,
                    1
                ],
                "weights": [
                    [
                        [
                            -0.18867795169353485
                        ],
                        [
                            -0.8808261156082153
                        ],
                        [
                            -0.6290684342384338
                        ],
                        [
                            0.7973511815071106
                        ]
                    ],
                    [
                        0.008670715615153313
                    ]
                ]
            }
        ]
    },
    "drive_20_0": {
        "in_shape": [
            null,
            6
        ],
        "layers": [
            {
                "type": "dense",
                "activation": "tanh",
                "shape": [
                    null,
                    4
                ],
                "weights": [
                    [
                        [
                            -0.43613505363464355,
                            -0.016137421131134033,
                            -1.0930941104888916,
                            0.9991313219070435
                        ],
                        [
                            0.2235909104347229,
                            -0.022342927753925323,
                            -0.10795328766107559,
                            0.1556517332792282
                        ],
                        [
                            0.1917136162519455,
                            0.6996213793754578,
                            -0.35348984599113464,
                            0.9257276058197021
                        ],
                        [
                            0.03268711641430855,
                            0.04719315096735954,
                            -0.08178790658712387,
                            0.02061033993959427
                        ],
                        [
                            -0.23996961116790771,
                            -0.10891284048557281,
                            0.46375277638435364,
                            0.48221978545188904
                        ],
                        [
                            0.7975499629974365,
                            0.24550920724868774,
                            0.04818498715758324,
                            0.7482559680938721
                        ]
                    ],
                    [
                        0.11886461079120636,
                        0.018768494948744774,
                        -0.18690364062786102,
                        -0.2750132381916046
                    ]
                ]
            },
            {
                "type": "dense",
                "activation": "tanh",
                "shape": [
                    null,
                    4
                ],
                "weights": [
                    [
                        [
                            -0.7112522721290588,
                            0.22682209312915802,
                            0.6155458092689514,
                            0.09204263240098953
                        ],
                        [
                            -0.3478771150112152,
                            0.8036109209060669,
                            0.32603779435157776,
                            -0.6353395581245422
                        ],
                        [
                            -1.056174397468567,
                            0.44326674938201904,
                            0.6089787483215332,
                            0.860241711139679
                        ],
                        [
                            0.8161322474479675,
                            0.5562453269958496,
                            0.07334961742162704,
                            0.22356192767620087
                        ]
                    ],
                    [
                        0.08258041739463806,
                        0.06259216368198395,
                        -0.04169287905097008,
                        0.10104134678840637
                    ]
                ]
            },
            {
                "type": "dense",
                "activation": "",
                "shape": [
                    null,
                    1
                ],
                "weights": [
                    [
                        [
                            0.9152270555496216
                        ],
                        [
                            -0.796560525894165
                        ],
                        [
                            -0.28956517577171326
                        ],
                        [
                            0.3719028830528259
                        ]
                    ],
                    [
                        -0.05637853592634201
                    ]
                ]
            }
        ]
    },
    "drive_25_0": {
        "in_shape": [
            null,
            6
        ],
        "layers": [
            {
                "type": "dense",
                "activation": "tanh",
                "shape": [
                    null,
                    4
                ],
                "weights": [
                    [
                        [
                            0.29997408390045166,
                            -0.23607788980007172,
                            -1.14059317111969,
                            -0.7426896691322327
                        ],
                        [
                            -0.44211873412132263,
                            -0.20190709829330444,
                            -0.24789704382419586,
                            0.6228333115577698
                        ],
                        [
                            0.11275546252727509,
                            0.5535871386528015,
                            -1.1132076978683472,
                            0.34262242913246155
                        ],
                        [
                            0.323656290769577,
                            0.2885304093360901,
                            -0.39616072177886963,
                            -0.2666856348514557
                        ],
                        [
                            -0.04138225317001343,
                            -0.03907858580350876,
                            0.008174160495400429,
                            0.07568947225809097
                        ],
                        [
                            -0.14146357774734497,
                            0.801793098449707,
                            -0.4437194764614105,
                            -0.5506541728973389
                        ]
                    ],
                    [
                        0.006799497175961733,
                        0.018815897405147552,
                        -0.003116320353001356,
                        -0.0370587520301342
                    ]
                ]
            },
            {
                "type": "dense",
                "activation": "tanh",
                "shape": [
                    null,
                    4
                ],
                "weights": [
                    [
                        [
                            -0.03192801773548126,
                            -0.5386559367179871,
                            0.07225722819566727,
                            -0.098164863884449
                        ],
                        [
                            0.7718708515167236,
                            0.8924337029457092,
                            -0.803347110748291,
                            -0.48576194047927856
                        ],
                        [
                            0.6175340414047241,
                            0.864445149898529,
                            -0.08022576570510864,
                            0.46648263931274414
                        ],
                        [
                            0.6040250062942505,
                            -0.7228926420211792,
                            -0.3073151111602783,
                            -0.2852253019809723
                        ]
                    ],
                    [
                        -0.0029381033964455128,
                        -0.03549455478787422,
                        -0.004583044443279505,
                        -0.0033272358123213053
                    ]
                ]
            },
            {
                "type": "dense",
                "activation": "",
                "shape": [
                    null,
                    1
                ],
                "weights": [
                    [
                        [
                            -0.9066208600997925
                        ],
                        [
                            -0.2233147919178009
                        ],
                        [
                            1.174891471862793
                        ],
                        [
                            0.16102007031440735
                        ]
                    ],
                    [
                        -0.0015065146144479513
                    ]
                ]
            }
        ]
    },
    "drive_30_0": {
        "in_shape": [
            null,
            6
        ],
        "layers": [
            {
                "type": "dense",
                "activation": "tanh",
                "shape": [
                    null,
                    4
                ],
                "weights": [
                    [
                        [
                            1.236179232597351,
                            0.26525014638900757,
                            1.2025914192199707,
                            0.11907759308815002
                        ],
                        [
                            -0.3380418121814728,
                            0.0907742977142334,
                            0.37472620606422424,
                            -0.017150117084383965
                        ],
                        [
                            -0.6206314563751221,
                            1.1458828449249268,
                            0.842734158039093,
                            -0.38364115357398987
                        ],
                        [
                            0.20661300420761108,
                            -0.025347523391246796,
                            0.3199804127216339,
                            -0.28977513313293457
                        ],
                        [
                            0.2766248881816864,
                            -0.2790738344192505,
                            -0.1501343995332718,
                            -0.10712388902902603
                        ],
                        [
                            -0.21614961326122284,
                            1.0207635164260864,
                            0.6908040046691895,
                            -0.7905268669128418
                        ]
                    ],
                    [
                        0.08255758881568909,
                        -0.08556342869997025,
                        0.09932409971952438,
                        -0.184271901845932
                    ]
                ]
            },
            {
                "type": "dense",
                "activation": "tanh",
                "shape": [
                    null,
                    4
                ],
                "weights": [
                    [
                        [
                            0.8240050673484802,
                            1.2368475198745728,
                            0.07269085198640823,
                            0.4153438210487366
                        ],
                        [
                            -0.570424497127533,
                            0.43023592233657837,
                            0.31089499592781067,
                            -0.2844827175140381
                        ],
                        [
                            -0.05301462113857269,
                            -0.07106824219226837,
                            -0.1454322636127472,
                            0.5121418237686157
                        ],
                        [
                            -1.0327359437942505,
                            -0.12362916022539139,
                            0.010302196256816387,
                            0.6766560077667236
                        ]
                    ],
                    [
                        0.0028578664641827345,
                        0.20037472248077393,
                        -0.017765743657946587,
                        -0.007599130738526583
                    ]
                ]
            },
            {
                "type": "dense",
                "activation": "",
                "shape": [
                    null,
                    1
                ],
                "weights": [
                    [
                        [
                            -0.4753933846950531
                        ],
                        [
                            0.4699060022830963
                        ],
                        [
                            -0.524405837059021
                        ],
                        [
                            1.3458099365234375
                        ]
                    ],
                    [
                        0.015525632537901402
                    ]
                ]
            }
        ]
    },
    "drive_35_0": {
        "in_shape": [
            null,
            6
        ],
        "layers": [
            {
                "type": "dense",
                "activation": "tanh",
                "shape": [
                    null,
                    4
                ],
                "weights": [
                    [
                        [
                            -0.6289244890213013,
                            0.4222486913204193,
                            -2.2096545696258545,
                            -0.1536705493927002
                        ],
                        [
                            0.1263367384672165,
                            0.11993442475795746,
                            -0.24656951427459717,
                            0.28828486800193787
                        ],
                        [
                            0.15430109202861786,
                            -1.1401703357696533,
                            -0.10222338140010834,
                            0.0910324975848198
                        ],
                        [
                            0.06839647144079208,
                            0.24806568026542664,
                            -0.17503461241722107,
                            0.332359254360199
                        ],
                        [
                            -0.1264159381389618,
                            0.5105915665626526,
                            0.3156275153160095,
                            0.3033847212791443
                        ],
                        [
                            1.553739070892334,
                            -0.3290238678455353,
                            -0.3321933150291443,
                            0.10910853743553162
                        ]
                    ],
                    [
                        0.185053288936615,
                        -0.4076893925666809,
                        -0.2748933732509613,
                        0.06305482238531113
                    ]
                ]
            },
            {
                "type": "dense",
                "activation": "tanh",
                "shape": [
                    null,
                    4
                ],
                "weights": [
                    [
                        [
                            0.7782008051872253,
                            -0.5546082854270935,
                            0.19204747676849365,
                            -0.08510050177574158
                        ],
                        [
                            -0.6325136423110962,
                            -0.020341577008366585,
                            -0.29326432943344116,
                            -0.6786031723022461
                        ],
                        [
                            0.844903826713562,
                            -0.33479979634284973,
                            0.7014936804771423,
                            -0.08564411103725433
                        ],
                        [
                            -0.12009575217962265,
                            -0.004607716109603643,
                            0.4576564133167267,
                            -0.0374290868639946
                        ]
                    ],
                    [
                        0.0709570050239563,
                        0.04440531134605408,
                        -0.07788713276386261,
                        -0.01799228973686695
                    ]
                ]
            },
            {
                "type": "dense",
                "activation": "",
                "shape": [
                    null,
                    1
                ],
                "weights": [
                    [
                        [
                            0.5080690979957581
                        ],
                        [
                            1.095913290977478
                        ],
                        [
                            -0.8811364769935608
                        ],
                        [
                            -0.8320735096931458
                        ]
                    ],
                    [
                        -0.024159662425518036
                    ]
                ]
            }
        ]
    },
    "drive_40_0": {
        "in_shape": [
            null,
            6
        ],
        "layers": [
            {
                "type": "dense",
                "activation": "tanh",
                "shape": [
                    null,
                    4
                ],
                "weights": [
                    [
                        [
                            1.5279752016067505,
                            -0.5847676992416382,
                            0.5008407831192017,
                            0.4497476816177368
                        ],
                        [
                            0.28792646527290344,
                            0.13142502307891846,
                            -0.18149767816066742,
                            -0.2798556983470917
                        ],
                        [
                            0.9192419052124023,
                            0.29480209946632385,
                            -0.5696565508842468,
                            0.08805368840694427
                        ],
                        [
                            0.22569440305233002,
                            0.11363166570663452,
                            -0.08379784971475601,
                            -0.11752022057771683
                        ],
                        [
                            0.04292239993810654,
                            -0.16431377828121185,
                            -0.06916714459657669,
                            0.15399296581745148
                        ],
                        [
                            0.5693767666816711,
                            0.9190868139266968,
                            -0.21658986806869507,
                            0.5606433749198914
                        ]
                    ],
                    [
                        -0.05774577334523201,
                        0.13704216480255127,
                        0.055244483053684235,
                        -0.06481269747018814
                    ]
                ]
            },
            {
                "type": "dense",
                "activation": "tanh",
                "shape": [
                    null,
                    4
                ],
                "weights": [
                    [
                        [
                            -0.14323386549949646,
                            0.6584643125534058,
                            0.41307708621025085,
                            0.6093910336494446
                        ],
                        [
                            0.2568378448486328,
                            -0.7368482351303101,
                            -0.30069366097450256,
                            -0.21948203444480896
                        ],
                        [
                            -0.005128900054842234,
                            -0.06531301885843277,
                            -0.8870918154716492,
                            1.0280182361602783
                        ],
                        [
                            0.2886275053024292,
                            0.2584647536277771,
                            0.5938735604286194,
                            -0.0845707505941391
                        ]
                    ],
                    [
                        0.02369098924100399,
                        0.041706182062625885,
                        -0.05951671302318573,
                        -0.01866951584815979
                    ]
                ]
            },
            {
                "type": "dense",
                "activation": "",
                "shape": [
                    null,
                    1
                ],
                "weights": [
                    [
                        [
                            -0.5759915113449097
                        ],
                        [
                            1.0160962343215942
                        ],
                        [
                            -0.8675632476806641
                        ],
                        [
                            0.46669137477874756
                        ]
                    ],
                    [
                        -0.02447601407766342
                    ]
                ]
            }
        ]
    },
    "drive_45_0": {
        "in_shape": [
            null,
            6
        ],
        "layers": [
            {
                "type": "dense",
                "activation": "tanh",
                "shape": [
                    null,
                    4
                ],
                "weights": [
                    [
                        [
                            -2.510338306427002,
                            0.33990252017974854,
                            -0.8925147652626038,
                            -0.08618313819169998
                        ],
                        [
                            -0.07907314598560333,
                            0.08444515615701675,
                            -0.032082825899124146,
                            0.07606911659240723
                        ],
                        [
                            -0.04643399268388748,
                            -0.0637185275554657,
                            0.4669387638568878,
                            0.1596074253320694
                        ],
                        [
                            -0.10845683515071869,
                            -0.09072240442037582,
                            0.2708696722984314,
                            -0.04354346916079521
                        ],
                        [
                            -0.026859518140554428,
                            0.3195977210998535,
                            0.49556899070739746,
                            0.05826827883720398
                        ],
                        [
                            -0.7362402677536011,
                            -0.06981757283210754,
                            0.027934474870562553,
                            0.9186622500419617
                        ]
                    ],
                    [
                        0.015532901510596275,
                        0.07403204590082169,
                        0.1570802628993988,
                        -0.05083877220749855
                    ]
                ]
            },
            {
                "type": "dense",
                "activation": "tanh",
                "shape": [
                    null,
                    4
                ],
                "weights": [
                    [
                        [
                            -0.4341002404689789,
                            0.3182483911514282,
                            -0.6578295230865479,
                            0.47506484389305115
                        ],
                        [
                            -0.5152966380119324,
                            0.19555750489234924,
                            0.3426659405231476,
                            0.5175092816352844
                        ],
                        [
                            0.47084295749664307,
                            -0.18441979587078094,
                            -0.2196912318468094,
                            -0.25326865911483765
                        ],
                        [
                            -0.14123478531837463,
                            0.5841107368469238,
                            -0.26835548877716064,
                            -0.4442675709724426
                        ]
                    ],
                    [
                        -0.0019625816494226456,
                        0.02196914702653885,
                        -0.0042160991579294205,
                        -0.045054592192173004
                    ]
                ]
            },
            {
                "type": "dense",
                "activation": "",
                "shape": [
                    null,
                    1
                ],
                "weights": [
                    [
                        [
                            -0.2201903760433197
                        ],
                        [
                            -1.3349324464797974
                        ],
                        [
                            0.9160373210906982
                        ],
                        [
                            0.733121395111084
                        ]
                    ],
                    [
                        0.006292941514402628
                    ]
                ]
            }
        ]
    },
    "drive_50_0": {
        "in_shape": [
            null,
            6
        ],
        "layers": [
            {
                "type": "dense",
                "activation": "tanh",
                "shape": [
                    null,
                    4
                ],
                "weights": [
                    [
                        [
                            1.4600837230682373,
                            -0.25522512197494507,
                            1.0126372575759888,
                            0.22191083431243896
                        ],
                        [
                            0.3421614170074463,
                            0.05781206488609314,
                            -0.1984843760728836,
                            -0.20150557160377502
                        ],
                        [
                            0.9536020159721375,
                            1.0840789079666138,
                            0.0288136824965477,
                            0.1745738685131073
                        ],
                        [
                            0.10421840101480484,
                            0.6205048561096191,
                            0.38539570569992065,
                            -0.21683505177497864
                        ],
                        [
                            -0.21734438836574554,
                            0.005171706434339285,
                            0.15257269144058228,
                            0.12752316892147064
                        ],
                        [
                            0.15278084576129913,
                            0.8112644553184509,
                            0.3645574748516083,
                            0.8467777371406555
                        ]
                    ],
                    [
                        0.09823949635028839,
                        0.039354246109724045,
                        -0.062375593930482864,
                        -0.1234363466501236
                    ]
                ]
            },
            {
                "type": "dense",
                "activation": "tanh",
                "shape": [
                    null,
                    4
                ],
                "weights": [
                    [
                        [
                            1.002044439315796,
                            0.2147950977087021,
                            -0.4231571853160858,
                            -0.11950193345546722
                        ],
                        [
                            -0.08134723454713821,
                            0.7757236361503601,
                            -0.46206873655319214,
                            0.2479759007692337
                        ],
                        [
                            0.6684102416038513,
                            -0.5613551735877991,
                            0.2174714207649231,
                            -0.2413012683391571
                        ],
                        [
                            -0.006547084078192711,
                            0.7528156638145447,
                            0.012738638557493687,
                            0.10160791873931885
                        ]
                    ],
                    [
                        0.01026507094502449,
                        0.037531133741140366,
                        0.08509509265422821,
                        0.015784848481416702
                    ]
                ]
            },
            {
                "type": "dense",
                "activation": "",
                "shape": [
                    null,
                    1
                ],
                "weights": [
                    [
                        [
                            0.7386288642883301
                        ],
                        [
                            -0.591617226600647
                        ],
                        [
                            0.5161049365997314
                        ],
                        [
                            -0.8020086288452148
                        ]
                    ],
                    [
                        -0.019897975027561188
                    ]
                ]
            }
        ]
    },
    "drive_55_0": {
        "in_shape": [
            null,
            6
        ],
        "layers": [
            {
                "type": "dense",
                "activation": "tanh",
                "shape": [
                    null,
                    4
                ],
                "weights": [
                    [
                        [
                            -1.3625969886779785,
                            -0.9908740520477295,
                            -0.18352225422859192,
                            0.2001418024301529
                        ],
                        [
                            -0.012946974486112595,
                            -0.09257510304450989,
                            -0.22721394896507263,
                            0.16061531007289886
                        ],
                        [
                            -0.27974963188171387,
                            -0.43484461307525635,
                            0.5247377157211304,
                            1.0890554189682007
                        ],
                        [
                            0.07257030159235,
                            -0.13066349923610687,
                            -0.206059992313385,
                            0.13935355842113495
                        ],
                        [
                            0.031215978786349297,
                            -0.23075565695762634,
                            0.23225674033164978,
                            0.22669921815395355
                        ],
                        [
                            -0.6514937877655029,
                            0.5836930274963379,
                            0.11101667582988739,
                            0.34698379039764404
                        ]
                    ],
                    [
                        0.12656378746032715,
                        0.006489098072052002,
                        -0.1065710186958313,
                        -0.06398608535528183
                    ]
                ]
            },
            {
                "type": "dense",
                "activation": "tanh",
                "shape": [
                    null,
                    4
                ],
                "weights": [
                    [
                        [
                            0.35222503542900085,
                            -0.8853978514671326,
                            -0.6895247101783752,
                            -0.30353766679763794
                        ],
                        [
                            -0.27123239636421204,
                            -0.9140710830688477,
                            0.6035785675048828,
                            -0.4680807888507843
                        ],
                        [
                            -0.8962790369987488,
                            -0.420589804649353,
                            0.35102611780166626,
                            -0.5037077069282532
                        ],
                        [
                            1.103884220123291,
                            0.4131680727005005,
                            0.26315730810165405,
                            -0.28610658645629883
                        ]
                    ],
                    [
                        -0.0035696635022759438,
                        0.0357806496322155,
                        0.0009644981473684311,
                        -0.0060502514243125916
                    ]
                ]
            },
            {
                "type": "dense",
                "activation": "",
                "shape": [
                    null,
                    1
                ],
                "weights": [
                    [
                        [
                            -0.9631656408309937
                        ],
                        [
                            0.8503814935684204
                        ],
                        [
                            -0.9250664114952087
                        ],
                        [
                            0.6198440790176392
                        ]
                    ],
                    [
                        -0.02709050290286541
                    ]
                ]
            }
        ]
    },
    "drive_60_0": {
        "in_shape": [
            null,
            6
        ],
        "layers": [
            {
                "type": "dense",
                "activation": "tanh",
                "shape": [
                    null,
                    4
                ],
                "weights": [
                    [
                        [
                            -0.9605482816696167,
                            0.07723578065633774,
                            -0.6657741069793701,
                            0.5059550404548645
                        ],
                        [
                            0.3979189395904541,
                            0.679419994354248,
                            -0.23499101400375366,
                            0.048062391579151154
                        ],
                        [
                            0.5398053526878357,
                            0.4352094233036041,
                            -0.8207182288169861,
                            -0.9653818011283875
                        ],
                        [
                            0.48459064960479736,
                            -0.44634878635406494,
                            -0.4471293091773987,
                            -0.08051183074712753
                        ],
                        [
                            0.609213650226593,
                            -0.05282827466726303,
                            0.16406165063381195,
                            0.3892679810523987
                        ],
                        [
                            -0.08201123028993607,
                            0.182016059756279,
                            -0.7196781635284424,
                            -1.03926682472229
                        ]
                    ],
                    [
                        0.04539855569601059,
                        -0.007290048990398645,
                        -0.07561517506837845,
                        -0.18621693551540375
                    ]
                ]
            },
            {
                "type": "dense",
                "activation": "tanh",
                "shape": [
                    null,
                    4
                ],
                "weights": [
                    [
                        [
                            -0.32696419954299927,
                            -0.5851157307624817,
                            -0.09314104914665222,
                            0.7085983753204346
                        ],
                        [
                            -0.07527691125869751,
                            0.5903834700584412,
                            0.5081716179847717,
                            0.38944220542907715
                        ],
                        [
                            -0.14016655087471008,
                            0.2937188744544983,
                            -1.2323312759399414,
                            0.24149616062641144
                        ],
                        [
                            0.8212823271751404,
                            -0.20387455821037292,
                            0.3195750415325165,
                            0.4353961646556854
                        ]
                    ],
                    [
                        0.03931554779410362,
                        0.08022919297218323,
                        0.08376382291316986,
                        -0.15375865995883942
                    ]
                ]
            },
            {
                "type": "dense",
                "activation": "",
                "shape": [
                    null,
                    1
                ],
                "weights": [
                    [
                        [
                            1.178462028503418
                        ],
                        [
                            -0.12873515486717224
                        ],
                        [
                            0.43683454394340515
                        ],
                        [
                            -0.21814654767513275
                        ]
                    ],
                    [
                        0.05206684395670891
                    ]
                ]
            }
        ]
    },
    "drive_65_0": {
        "in_shape": [
            null,
            6
        ],
        "layers": [
            {
                "type": "dense",
                "activation": "tanh",
                "shape": [
                    null,
                    4
                ],
                "weights": [
                    [
                        [
                            -1.8820295333862305,
                            -0.5731474757194519,
                            -0.6101880669593811,
                            0.0414905771613121
                        ],
                        [
                            -0.22176237404346466,
                            0.07760733366012573,
                            0.1757972091436386,
                            0.008780321106314659
                        ],
                        [
                            -0.09820087999105453,
                            0.8663007020950317,
                            -0.5383171439170837,
                            0.6707560420036316
                        ],
                        [
                            -0.1953636109828949,
                            -0.056085336953401566,
                            0.36887016892433167,
                            -0.08931112289428711
                        ],
                        [
                            0.059511490166187286,
                            0.023533722385764122,
                            0.7517938017845154,
                            -0.7591615915298462
                        ],
                        [
                            -0.16617460548877716,
                            1.2205134630203247,
                            0.23688268661499023,
                            -0.0007753026438876987
                        ]
                    ],
                    [
                        -0.07688682526350021,
                        -0.08545603603124619,
                        0.055114973336458206,
                        -0.032640159130096436
                    ]
                ]
            },
            {
                "type": "dense",
                "activation": "tanh",
                "shape": [
                    null,
                    4
                ],
                "weights": [
                    [
                        [
                            -0.03118813969194889,
                            1.0061564445495605,
                            1.500883936882019,
                            -0.5579777359962463
                        ],
                        [
                            0.8961619138717651,
                            0.32700037956237793,
                            -0.479962557554245,
                            -0.2866280972957611
                        ],
                        [
                            0.08146030455827713,
                            -0.1811094731092453,
                            0.6992664933204651,
                            0.6562431454658508
                        ],
                        [
                            0.30326759815216064,
                            0.3888067305088043,
                            0.6682552695274353,
                            -0.04611238092184067
                        ]
                    ],
                    [
                        0.062092818319797516,
                        -0.056629009544849396,
                        0.11743725836277008,
                        -0.15062251687049866
                    ]
                ]
            },
            {
                "type": "dense",
                "activation": "",
                "shape": [
                    null,
                    1
                ],
                "weights": [
                    [
                        [
                            -0.8990925550460815
                        ],
                        [
                            -0.2504269778728485
                        ],
                        [
                            -0.4420105814933777
                        ],
                        [
                            -0.3616970181465149
                        ]
                    ],
                    [
                        -0.05145826190710068
                    ]
                ]
            }
        ]
    },
    "drive_70_0": {
        "in_shape": [
            null,
            6
        ],
        "layers": [
            {
                "type": "dense",
                "activation": "tanh",
                "shape": [
                    null,
                    4
                ],
                "weights": [
                    [
                        [
                            -0.5437114834785461,
                            -0.651562511920929,
                            -0.12377564609050751,
                            -0.8111973404884338
                        ],
                        [
                            -0.42041757702827454,
                            -0.015112054534256458,
                            -0.5490784049034119,
                            0.10921172052621841
                        ],
                        [
                            0.0678703784942627,
                            -1.2672678232192993,
                            -0.8098134994506836,
                            0.13791373372077942
                        ],
                        [
                            0.07885654270648956,
                            -0.15307779610157013,
                            -0.06511126458644867,
                            -0.06468921899795532
                        ],
                        [
                            0.48596492409706116,
                            -0.09608366340398788,
                            0.38662558794021606,
                            -0.18588335812091827
                        ],
                        [
                            -0.5833566188812256,
                            -0.3596394658088684,
                            -0.9381282329559326,
                            0.6194785833358765
                        ]
                    ],
                    [
                        -0.11755295842885971,
                        -0.021629823371767998,
                        -0.13042955100536346,
                        0.04599945992231369
                    ]
                ]
            },
            {
                "type": "dense",
                "activation": "tanh",
                "shape": [
                    null,
                    4
                ],
                "weights": [
                    [
                        [
                            0.7524328827857971,
                            0.30578818917274475,
                            -0.454565167427063,
                            0.09271519631147385
                        ],
                        [
                            -0.849514365196228,
                            0.17511595785617828,
                            -0.9008547067642212,
                            0.7496363520622253
                        ],
                        [
                            -0.6939886212348938,
                            0.6604185700416565,
                            -0.5409607887268066,
                            1.0367320775985718
                        ],
                        [
                            0.6672247648239136,
                            0.5272316336631775,
                            -1.0191346406936646,
                            -0.5009270310401917
                        ]
                    ],
                    [
                        -0.02525193616747856,
                        2.7310983568895608e-05,
                        0.007346346974372864,
                        -0.19237864017486572
                    ]
                ]
            },
            {
                "type": "dense",
                "activation": "",
                "shape": [
                    null,
                    1
                ],
                "weights": [
                    [
                        [
                            -0.8856573700904846
                        ],
                        [
                            0.6169938445091248
                        ],
                        [
                            1.1835057735443115
                        ],
                        [
                            0.08221690356731415
                        ]
                    ],
                    [
                        -0.003753808792680502
                    ]
                ]
            }
        ]
    },
    "drive_75_0": {
        "in_shape": [
            null,
            6
        ],
        "layers": [
            {
                "type": "dense",
                "activation": "tanh",
                "shape": [
                    null,
                    4
                ],
                "weights": [
                    [
                        [
                            -0.42401573061943054,
                            -1.758070945739746,
                            0.18244312703609467,
                            0.1513027846813202
                        ],
                        [
                            0.004314342048019171,
                            -0.21363312005996704,
                            -0.3397340476512909,
                            -0.04475106671452522
                        ],
                        [
                            -0.051855310797691345,
                            -0.1410631537437439,
                            -0.40003490447998047,
                            0.6409425735473633
                        ],
                        [
                            0.8414973616600037,
                            -0.07050345093011856,
                            0.07358294725418091,
                            -0.12226971983909607
                        ],
                        [
                            0.20721232891082764,
                            0.05754721164703369,
                            0.26711228489875793,
                            0.10672274976968765
                        ],
                        [
                            0.01219762023538351,
                            -0.8295206427574158,
                            -1.1017401218414307,
                            0.9432833194732666
                        ]
                    ],
                    [
                        0.07331530749797821,
                        -0.029331866651773453,
                        -0.15740200877189636,
                        -0.10988093912601471
                    ]
                ]
            },
            {
                "type": "dense",
                "activation": "tanh",
                "shape": [
                    null,
                    4
                ],
                "weights": [
                    [
                        [
                            0.6354941129684448,
                            0.5372076630592346,
                            0.05883243680000305,
                            0.325918585062027
                        ],
                        [
                            -0.22136138379573822,
                            0.5278310179710388,
                            -0.8649411201477051,
                            0.09026487171649933
                        ],
                        [
                            0.08614982664585114,
                            -0.49819424748420715,
                            0.20467257499694824,
                            -0.19399681687355042
                        ],
                        [
                            0.06094574183225632,
                            0.6649698615074158,
                            0.3603833019733429,
                            -0.6093376874923706
                        ]
                    ],
                    [
                        0.035062987357378006,
                        0.005876475479453802,
                        -0.044862911105155945,
                        0.11272324621677399
                    ]
                ]
            },
            {
                "type": "dense",
                "activation": "",
                "shape": [
                    null,
                    1
                ],
                "weights": [
                    [
                        [
                            0.5049011707305908
                        ],
                        [
                            -1.0216033458709717
                        ],
                        [
                            0.17747433483600616
                        ],
                        [
                            0.09730616956949234
                        ]
                    ],
                    [
                        -0.004975344054400921
                    ]
                ]
            }
        ]
    },
    "drive_80_0": {
        "in_shape": [
            null,
            6
        ],
        "layers": [
            {
                "type": "dense",
                "activation": "tanh",
                "shape": [
                    null,
                    4
                ],
                "weights": [
                    [
                        [
                            -2.4154272079467773,
                            -0.3290887475013733,
                            -0.8252854943275452,
                            0.08433093875646591
                        ],
                        [
                            -0.1765298843383789,
                            0.08963673561811447,
                            0.29962798953056335,
                            0.09703734517097473
                        ],
                        [
                            -0.7202876210212708,
                            -0.9460622668266296,
                            0.5766445398330688,
                            -0.945748507976532
                        ],
                        [
                            -0.1469477266073227,
                            0.08395007252693176,
                            0.2077878713607788,
                            0.02927318587899208
                        ],
                        [
                            0.1700766235589981,
                            -0.10588660091161728,
                            0.12204883247613907,
                            1.0720425844192505
                        ],
                        [
                            -0.4660508334636688,
                            -0.8792798519134521,
                            0.48110732436180115,
                            -0.26465678215026855
                        ]
                    ],
                    [
                        -0.11434902250766754,
                        0.14099349081516266,
                        0.07403600960969925,
                        -0.06381680071353912
                    ]
                ]
            },
            {
                "type": "dense",
                "activation": "tanh",
                "shape": [
                    null,
                    4
                ],
                "weights": [
                    [
                        [
                            0.32062214612960815,
                            0.5408567190170288,
                            -0.13434484601020813,
                            -0.08624925464391708
                        ],
                        [
                            0.6459967494010925,
                            -0.11300349980592728,
                            -0.31305697560310364,
                            0.9241747260093689
                        ],
                        [
                            -0.5242011547088623,
                            0.5204839110374451,
                            0.13387012481689453,
                            -0.19448716938495636
                        ],
                        [
                            1.676761507987976,
                            -0.4176730513572693,
                            0.48915591835975647,
                            0.0429486520588398
                        ]
                    ],
                    [
                        0.5556615591049194,
                        0.030486509203910828,
                        0.04562325403094292,
                        -0.0023779659532010555
                    ]
                ]
            },
            {
                "type": "dense",
                "activation": "",
                "shape": [
                    null,
                    1
                ],
                "weights": [
                    [
                        [
                            -0.12614624202251434
                        ],
                        [
                            -0.9173128604888916
                        ],
                        [
                            -0.14390267431735992
                        ],
                        [
                            0.4898633658885956
                        ]
                    ],
                    [
                        0.012873951345682144
                    ]
                ]
            }
        ]
    },
    "drive_85_0": {
        "in_shape": [
            null,
            6
        ],
        "layers": [
            {
                "type": "dense",
                "activation": "tanh",
                "shape": [
                    null,
                    4
                ],
                "weights": [
                    [
                        [
                            -0.7286987900733948,
                            1.8783656358718872,
                            0.33105388283729553,
                            -0.5429022312164307
                        ],
                        [
                            0.2714524269104004,
                            0.17068706452846527,
                            -0.23585668206214905,
                            0.20186182856559753
                        ],
                        [
                            1.014986515045166,
                            0.02906384877860546,
                            -0.09311901777982712,
                            0.2037232220172882
                        ],
                        [
                            0.4111080467700958,
                            0.22346679866313934,
                            -0.34208524227142334,
                            0.24437670409679413
                        ],
                        [
                            -0.6725535988807678,
                            0.10123825073242188,
                            -0.20166520774364471,
                            0.42205533385276794
                        ],
                        [
                            -0.5923923850059509,
                            -0.442220538854599,
                            1.682002067565918,
                            0.5149937868118286
                        ]
                    ],
                    [
                        -0.5208095908164978,
                        -0.07816603034734726,
                        0.2075224369764328,
                        0.2125242054462433
                    ]
                ]
            },
            {
                "type": "dense",
                "activation": "tanh",
                "shape": [
                    null,
                    4
                ],
                "weights": [
                    [
                        [
                            -0.14065247774124146,
                            -0.2536342740058899,
                            0.3765564262866974,
                            0.1004875898361206
                        ],
                        [
                            -0.3774011433124542,
                            -0.26433005928993225,
                            -0.2172747254371643,
                            -2.296611785888672
                        ],
                        [
                            -0.7440701127052307,
                            -0.15157069265842438,
                            0.11570076644420624,
                            -1.306355595588684
                        ],
                        [
                            -0.4308745265007019,
                            -0.04407953843474388,
                            0.22765026986598969,
                            0.23326370120048523
                        ]
                    ],
                    [
                        0.17398948967456818,
                        -0.00853617675602436,
                        0.09222570806741714,
                        0.026736674830317497
                    ]
                ]
            },
            {
                "type": "dense",
                "activation": "",
                "shape": [
                    null,
                    1
                ],
                "weights": [
                    [
                        [
                            0.8602747917175293
                        ],
                        [
                            -0.43724188208580017
                        ],
                        [
                            -0.5486257076263428
                        ],
                        [
                            -0.35687926411628723
                        ]
                    ],
                    [
                        -0.005363329313695431
                    ]
                ]
            }
        ]
    },
    "drive_90_0": {
        "in_shape": [
            null,
            6
        ],
        "layers": [
            {
                "type": "dense",
                "activation": "tanh",
                "shape": [
                    null,
                    4
                ],
                "weights": [
                    [
                        [
                            -0.02239248715341091,
                            0.5590775609016418,
                            1.7440412044525146,
                            0.9966799020767212
                        ],
                        [
                            -0.7486440539360046,
                            -0.07089440524578094,
                            0.26055723428726196,
                            0.24291680753231049
                        ],
                        [
                            -0.8670998215675354,
                            0.922097384929657,
                            0.46788474917411804,
                            -0.1922953575849533
                        ],
                        [
                            -0.47510242462158203,
                            -0.12533020973205566,
                            0.20346945524215698,
                            0.05833722651004791
                        ],
                        [
                            0.28728944063186646,
                            -0.09278496354818344,
                            0.02603953704237938,
                            -0.3791070282459259
                        ],
                        [
                            0.21294358372688293,
                            0.8073067665100098,
                            0.627708375453949,
                            -0.7300196290016174
                        ]
                    ],
                    [
                        -0.08834876120090485,
                        0.05949912220239639,
                        -0.015151380561292171,
                        0.1291833519935608
                    ]
                ]
            },
            {
                "type": "dense",
                "activation": "tanh",
                "shape": [
                    null,
                    4
                ],
                "weights": [
                    [
                        [
                            0.3607079088687897,
                            -0.1267489641904831,
                            -0.19015827775001526,
                            -0.8805535435676575
                        ],
                        [
                            -0.8205116391181946,
                            -0.5686072707176208,
                            0.4240725338459015,
                            0.5266306400299072
                        ],
                        [
                            0.38742297887802124,
                            -0.21135102212429047,
                            -0.0216884296387434,
                            -0.8193808794021606
                        ],
                        [
                            -0.06961457431316376,
                            0.550990104675293,
                            0.48090818524360657,
                            -0.0454503670334816
                        ]
                    ],
                    [
                        -0.027080092579126358,
                        0.04559038206934929,
                        0.01546059362590313,
                        -0.04884158819913864
                    ]
                ]
            },
            {
                "type": "dense",
                "activation": "",
                "shape": [
                    null,
                    1
                ],
                "weights": [
                    [
                        [
                            0.741777777671814
                        ],
                        [
                            0.19573257863521576
                        ],
                        [
                            0.9191563725471497
                        ],
                        [
                            -0.4442421495914459
                        ]
                    ],
                    [
                        -0.010858048684895039
                    ]
                ]
            }
        ]
    },
    "drive_95_0": {
        "in_shape": [
            null,
            6
        ],
        "layers": [
            {
                "type": "dense",
                "activation": "tanh",
                "shape": [
                    null,
                    4
                ],
                "weights": [
                    [
                        [
                            1.4087194204330444,
                            -0.3148185610771179,
                            0.12952594459056854,
                            -1.0113450288772583
                        ],
                        [
                            0.5071122050285339,
                            -0.0553014911711216,
                            -0.27276721596717834,
                            0.4081901013851166
                        ],
                        [
                            1.2218501567840576,
                            -0.15795500576496124,
                            0.8819745779037476,
                            0.12105464190244675
                        ],
                        [
                            0.23114922642707825,
                            -0.40016457438468933,
                            -0.12202169001102448,
                            0.12987485527992249
                        ],
                        [
                            0.3368828594684601,
                            0.6214426159858704,
                            -0.14928743243217468,
                            0.3112907111644745
                        ],
                        [
                            1.1836304664611816,
                            -0.1473148614168167,
                            0.20432299375534058,
                            0.8513513207435608
                        ]
                    ],
                    [
                        -0.1256163865327835,
                        -0.0819322019815445,
                        0.03890001401305199,
                        -0.07937165349721909
                    ]
                ]
            },
            {
                "type": "dense",
                "activation": "tanh",
                "shape": [
                    null,
                    4
                ],
                "weights": [
                    [
                        [
                            -0.60947585105896,
                            0.10318433493375778,
                            -1.2082338333129883,
                            0.8893688321113586
                        ],
                        [
                            -0.6085474491119385,
                            -0.6547883749008179,
                            0.25747811794281006,
                            0.3776791989803314
                        ],
                        [
                            -0.4302208721637726,
                            0.9339725375175476,
                            0.47422319650650024,
                            0.6596435308456421
                        ],
                        [
                            0.5555586218833923,
                            0.8329367637634277,
                            1.146637201309204,
                            0.2705698609352112
                        ]
                    ],
                    [
                        0.12486739456653595,
                        0.07770513743162155,
                        -0.041852325201034546,
                        -0.13968518376350403
                    ]
                ]
            },
            {
                "type": "dense",
                "activation": "",
                "shape": [
                    null,
                    1
                ],
                "weights": [
                    [
                        [
                            0.10082954168319702
                        ],
                        [
                            -0.5391716361045837
                        ],
                        [
                            -0.528810977935791
                        ],
                        [
                            -0.13807737827301025
                        ]
                    ],
                    [
                        -0.0023136886302381754
                    ]
                ]
            }
        ]
    },
    "drive_100_0": {
        "in_shape": [
            null,
            6
        ],
        "layers": [
            {
                "type": "dense",
                "activation": "tanh",
                "shape": [
                    null,
                    4
                ],
                "weights": [
                    [
                        [
                            1.2257746458053589,
                            1.5273791551589966,
                            0.7231217622756958,
                            0.0009939634473994374
                        ],
                        [
                            0.1235789954662323,
                            -0.11862741410732269,
                            0.1527397483587265,
                            0.7430691123008728
                        ],
                        [
                            0.9337801933288574,
                            1.4856725931167603,
                            -0.639173150062561,
                            0.09310794621706009
                        ],
                        [
                            0.31022486090660095,
                            -0.4206352233886719,
                            0.1083562895655632,
                            0.5916433930397034
                        ],
                        [
                            -0.24599449336528778,
                            0.3197114169597626,
                            0.030003052204847336,
                            -0.0010282194707542658
                        ],
                        [
                            0.48173558712005615,
                            0.8962585926055908,
                            -0.7885733246803284,
                            -0.2630769908428192
                        ]
                    ],
                    [
                        0.12435509264469147,
                        -0.19225235283374786,
                        -0.035284195095300674,
                        -0.001762864994816482
                    ]
                ]
            },
            {
                "type": "dense",
                "activation": "tanh",
                "shape": [
                    null,
                    4
                ],
                "weights": [
                    [
                        [
                            0.598544716835022,
                            -0.3279808461666107,
                            0.0625176727771759,
                            -0.09790860116481781
                        ],
                        [
                            0.9424496293067932,
                            -0.6759649515151978,
                            0.5218112468719482,
                            0.5102858543395996
                        ],
                        [
                            0.6970115303993225,
                            0.5816929936408997,
                            -0.8664717078208923,
                            0.06553047895431519
                        ],
                        [
                            0.31722497940063477,
                            0.17106017470359802,
                            0.7361029982566833,
                            0.5615915060043335
                        ]
                    ],
                    [
                        0.027207262814044952,
                        0.07845670729875565,
                        0.004117914475500584,
                        0.024158509448170662
                    ]
                ]
            },
            {
                "type": "dense",
                "activation": "",
                "shape": [
                    null,
                    1
                ],
                "weights": [
                    [
                        [
                            0.6137648224830627
                        ],
                        [
                            0.176923006772995
                        ],
                        [
                            -0.7024592161178589
                        ],
                        [
                            0.026384854689240456
                        ]
                    ],
                    [
                        -0.0021511493250727654
                    ]
                ]
            }
        ]
    }
}