{
    "drive_0_30": {
        "in_shape": [
            null,
            6
        ],
        "layers": [
            {
                "type": "dense",
                "activation": "tanh",
                "shape": [
                    null,
                    4
                ],
                "weights": [
                    [
                        [
                            -2.07063889503479,
                            1.0731263160705566,
                            0.36839157342910767,
                            -0.6359532475471497
                        ],
                        [
                            -0.23557403683662415,
                            0.03770515322685242,
                            -0.40308132767677307,
                            -0.3518710732460022
                        ],
                        [
                            -0.38815951347351074,
                            -0.6531122922897339,
                            0.4001782238483429,
                            0.04982613027095795
                        ],
                        [
                            -0.23851937055587769,
                            0.09387469291687012,
                            -0.36202025413513184,
                            -0.3350646197795868
                        ],
                        [
                            -0.043078333139419556,
                            -0.05345926061272621,
                            -0.09824711084365845,
                            -0.06821911782026291
                        ],
                        [
                            0.30308011174201965,
                            -0.8794172406196594,
                            0.06769196689128876,
                            0.04721222072839737
                        ]
                    ],
                    [
                        0.042673371732234955,
                        0.0077481516636908054,
                        0.09726937115192413,
                        0.07425764948129654
                    ]
                ]
            },
            {
                "type": "dense",
                "activation": "tanh",
                "shape": [
                    null,
                    4
                ],
                "weights": [
                    [
                        [
                            0.13723710179328918,
                            -0.08477770537137985,
                            0.7313520908355713,
                            0.9574400186538696
                        ],
                        [
                            -0.3388144373893738,
                            -1.76101553440094,
                            0.9326385855674744,
                            -0.5198854804039001
                        ],
                        [
                            0.3811759352684021,
                            0.27818596363067627,
                            0.1876976490020752,
                            1.0213338136672974
                        ],
                        [
                            -0.39228925108909607,
                            -0.5801326036453247,
                            -1.9179682731628418,
                            -0.7849860191345215
                        ]
                    ],
                    [
                        0.5116785764694214,
                        -0.08219441026449203,
                        0.03640321269631386,
                        -0.00901426188647747
                    ]
                ]
            },
            {
                "type": "dense",
                "activation": "",
                "shape": [
                    null,
                    1
                ],
                "weights": [
                    [
                        [
                            -0.08804964274168015
                        ],
                        [
                            -0.6530447006225586
                        ],
                        [
                            -1.8211314678192139
                        ],
                        [
                            -2.1507225036621094
                        ]
                    ],
                    [
                        0.024328596889972687
                    ]
                ]
            }
        ]
    },
    "drive_5_30": {
        "in_shape": [
            null,
            6
        ],
        "layers": [
            {
                "type": "dense",
                "activation": "tanh",
                "shape": [
                    null,
                    4
                ],
                "weights": [
                    [
                        [
                            0.45818424224853516,
                            -0.9346461892127991,
                            2.314085006713867,
                            0.5618093609809875
                        ],
                        [
                            0.4055250585079193,
                            -0.3341997563838959,
                            0.1986781656742096,
                            -0.39654263854026794
                        ],
                        [
                            0.05970237776637077,
                            0.003551109926775098,
                            0.7350443601608276,
                            -0.04304782673716545
                        ],
                        [
                            0.1973230242729187,
                            -0.09235017001628876,
                            0.1374543160200119,
                            -0.07054168730974197
                        ],
                        [
                            -0.5646865963935852,
                            -0.07697814702987671,
                            -0.23908527195453644,
                            -0.13042503595352173
                        ],
                        [
                            -0.3276285231113434,
                            -0.023302294313907623,
                            -0.532306432723999,
                            0.2730880081653595
                        ]
                    ],
                    [
                        -0.12005352228879929,
                        0.035472672432661057,
                        0.19448867440223694,
                        0.1575309783220291
                    ]
                ]
            },
            {
                "type": "dense",
                "activation": "tanh",
                "shape": [
                    null,
                    4
                ],
                "weights": [
                    [
                        [
                            -0.2872121334075928,
                            -0.09614840894937515,
                            -0.08588720113039017,
                            0.322752982378006
                        ],
                        [
                            -0.1014619767665863,
                            -0.7105270028114319,
                            0.3257032334804535,
                            -0.6678072810173035
                        ],
                        [
                            0.7375393509864807,
                            -0.1157592236995697,
                            0.3631945252418518,
                            -0.4803565442562103
                        ],
                        [
                            -0.918708324432373,
                            -0.2321152538061142,
                            -0.3489469885826111,
                            0.4701734483242035
                        ]
                    ],
                    [
                        -0.20863549411296844,
                        0.06617126613855362,
                        0.01973785273730755,
                        0.015316234901547432
                    ]
                ]
            },
            {
                "type": "dense",
                "activation": "",
                "shape": [
                    null,
                    1
                ],
                "weights": [
                    [
                        [
                            1.276212215423584
                        ],
                        [
                            -1.2749261856079102
                        ],
                        [
                            0.9501493573188782
                        ],
                        [
                            -1.9393798112869263
                        ]
                    ],
                    [
                        0.034228354692459106
                    ]
                ]
            }
        ]
    },
    "drive_10_30": {
        "in_shape": [
            null,
            6
        ],
        "layers": [
            {
                "type": "dense",
                "activation": "tanh",
                "shape": [
                    null,
                    4
                ],
                "weights": [
                    [
                        [
                            0.18823543190956116,
                            -0.3722594380378723,
                            0.7824071645736694,
                            0.17542114853858948
                        ],
                        [
                            0.24262812733650208,
                            1.007685661315918,
                            0.7913698554039001,
                            -0.04199032112956047
                        ],
                        [
                            0.47984224557876587,
                            0.6628174185752869,
                            -0.9511040449142456,
                            -0.1494302600622177
                        ],
                        [
                            0.15841388702392578,
                            1.018841028213501,
                            0.7925179600715637,
                            -0.16975700855255127
                        ],
                        [
                            0.3003000020980835,
                            0.022694174200296402,
                            -0.01802101917564869,
                            0.2685323655605316
                        ],
                        [
                            -0.8666591644287109,
                            -0.19936956465244293,
                            1.18247389793396,
                            0.5190215110778809
                        ]
                    ],
                    [
                        -0.30316251516342163,
                        -0.010396329686045647,
                        0.01280983816832304,
                        -0.2768995463848114
                    ]
                ]
            },
            {
                "type": "dense",
                "activation": "tanh",
                "shape": [
                    null,
                    4
                ],
                "weights": [
                    [
                        [
                            0.8329052329063416,
                            0.963241696357727,
                            0.017538536339998245,
                            0.13389642536640167
                        ],
                        [
                            -1.362441062927246,
                            0.08580868691205978,
                            0.7890812158584595,
                            -0.11363565921783447
                        ],
                        [
                            0.7443674206733704,
                            0.8365492820739746,
                            -0.1507551372051239,
                            0.05697975680232048
                        ],
                        [
                            0.243971049785614,
                            -1.0348961353302002,
                            0.669641375541687,
                            0.8483774065971375
                        ]
                    ],
                    [
                        0.047646261751651764,
                        0.03359309583902359,
                        0.13619112968444824,
                        -0.21098855137825012
                    ]
                ]
            },
            {
                "type": "dense",
                "activation": "",
                "shape": [
                    null,
                    1
                ],
                "weights": [
                    [
                        [
                            1.2487289905548096
                        ],
                        [
                            1.3220404386520386
                        ],
                        [
                            -0.9904168844223022
                        ],
                        [
                            -0.5108407735824585
                        ]
                    ],
                    [
                        -0.04537241533398628
                    ]
                ]
            }
        ]
    },
    "drive_15_30": {
        "in_shape": [
            null,
            6
        ],
        "layers": [
            {
                "type": "dense",
                "activation": "tanh",
                "shape": [
                    null,
                    4
                ],
                "weights": [
                    [
                        [
                            0.9723100066184998,
                            -0.8095957636833191,
                            0.299856036901474,
                            0.3595217764377594
                        ],
                        [
                            -0.2743583023548126,
                            0.03304228186607361,
                            0.29428616166114807,
                            0.5461235642433167
                        ],
                        [
                            -0.9330968856811523,
                            -0.27140411734580994,
                            0.04373843967914581,
                            -0.8431730270385742
                        ],
                        [
                            -0.028411922976374626,
                            -0.10756070166826248,
                            0.22692906856536865,
                            0.28448715806007385
                        ],
                        [
                            0.07945084571838379,
                            -0.36189281940460205,
                            0.13252109289169312,
                            -0.20715263485908508
                        ],
                        [
                            0.31285467743873596,
                            0.491814523935318,
                            0.21510162949562073,
                            0.89501953125
                        ]
                    ],
                    [
                        0.0368720106780529,
                        0.2394273728132248,
                        -0.19241109490394592,
                        0.04433867707848549
                    ]
                ]
            },
            {
                "type": "dense",
                "activation": "tanh",
                "shape": [
                    null,
                    4
                ],
                "weights": [
                    [
                        [
                            -0.16832107305526733,
                            -0.701225221157074,
                            -1.976423978805542,
                            0.049839459359645844
                        ],
                        [
                            -0.19046375155448914,
                            -0.750090479850769,
                            0.6759434938430786,
                            -0.31570011377334595
                        ],
                        [
                            -0.6609378457069397,
                            -1.2510027885437012,
                            -0.31073951721191406,
                            -0.7202984094619751
                        ],
                        [
                            -0.08145653456449509,
                            0.8035312294960022,
                            -1.1070693731307983,
                            -0.23718848824501038
                        ]
                    ],
                    [
                        -0.003619192633777857,
                        -0.045316182076931,
                        0.07849765568971634,
                        -0.011383911594748497
                    ]
                ]
            },
            {
                "type": "dense",
                "activation": "",
                "shape": [
                    null,
                    1
                ],
                "weights": [
                    [
                        [
                            1.3570661544799805
                        ],
                        [
                            2.160414934158325
                        ],
                        [
                            -0.9492820501327515
                        ],
                        [
                            0.9422287940979004
                        ]
                    ],
                    [
                        -0.02072431705892086
                    ]
                ]
            }
        ]
    },
    "drive_20_30": {
        "in_shape": [
            null,
            6
        ],
        "layers": [
            {
                "type": "dense",
                "activation": "tanh",
                "shape": [
                    null,
                    4
                ],
                "weights": [
                    [
                        [
                            -0.1424034982919693,
                            1.1511965990066528,
                            0.12239943444728851,
                            -0.24593080580234528
                        ],
                        [
                            -0.4068695306777954,
                            0.6659834980964661,
                            0.00158812350127846,
                            -0.8861407041549683
                        ],
                        [
                            -0.07652772963047028,
                            -1.2004152536392212,
                            0.20100931823253632,
                            0.24023079872131348
                        ],
                        [
                            -0.36507463455200195,
                            0.7126508951187134,
                            -0.04744352400302887,
                            -0.8984637260437012
                        ],
                        [
                            0.12255610525608063,
                            -0.011267582885921001,
                            -0.13201504945755005,
                            -0.07826442271471024
                        ],
                        [
                            -0.3412023186683655,
                            1.6606682538986206,
                            -0.6584795117378235,
                            -1.8479093313217163
                        ]
                    ],
                    [
                        -0.10560804605484009,
                        0.46047890186309814,
                        0.14934733510017395,
                        1.1537411212921143
                    ]
                ]
            },
            {
                "type": "dense",
                "activation": "tanh",
                "shape": [
                    null,
                    4
                ],
                "weights": [
                    [
                        [
                            -1.2983852624893188,
                            0.4446803331375122,
                            -0.24154925346374512,
                            0.9250833988189697
                        ],
                        [
                            -0.13695739209651947,
                            0.2987436056137085,
                            -1.008422613143921,
                            -0.16733336448669434
                        ],
                        [
                            -0.2899191677570343,
                            1.2665473222732544,
                            -0.6048877239227295,
                            0.13326242566108704
                        ],
                        [
                            0.6624549627304077,
                            -0.4337112307548523,
                            -0.6535369157791138,
                            -0.5915772318840027
                        ]
                    ],
                    [
                        0.1155875027179718,
                        0.04832400009036064,
                        -0.01186938863247633,
                        -0.030462460592389107
                    ]
                ]
            },
            {
                "type": "dense",
                "activation": "",
                "shape": [
                    null,
                    1
                ],
                "weights": [
                    [
                        [
                            -2.1067991256713867
                        ],
                        [
                            1.7558695077896118
                        ],
                        [
                            -2.2238781452178955
                        ],
                        [
                            0.7714390754699707
                        ]
                    ],
                    [
                        0.04087666794657707
                    ]
                ]
            }
        ]
    },
    "drive_25_30": {
        "in_shape": [
            null,
            6
        ],
        "layers": [
            {
                "type": "dense",
                "activation": "tanh",
                "shape": [
                    null,
                    4
                ],
                "weights": [
                    [
                        [
                            0.41661345958709717,
                            0.3584170341491699,
                            0.2332504838705063,
                            -1.674724817276001
                        ],
                        [
                            0.2603808343410492,
                            0.04421089589595795,
                            -0.09440702944993973,
                            -0.17450255155563354
                        ],
                        [
                            0.06667423993349075,
                            0.2761194705963135,
                            0.3320459723472595,
                            -1.007178783416748
                        ],
                        [
                            0.24582502245903015,
                            -0.10132694244384766,
                            0.20818914473056793,
                            -0.14571189880371094
                        ],
                        [
                            -0.062481869012117386,
                            -0.1509566456079483,
                            0.3498155176639557,
                            0.040069449692964554
                        ],
                        [
                            0.05842828005552292,
                            0.13359270989894867,
                            -0.1126713976264,
                            0.4909568428993225
                        ]
                    ],
                    [
                        0.09219592064619064,
                        0.1563025265932083,
                        -0.2807929515838623,
                        -0.054049789905548096
                    ]
                ]
            },
            {
                "type": "dense",
                "activation": "tanh",
                "shape": [
                    null,
                    4
                ],
                "weights": [
                    [
                        [
                            0.14571985602378845,
                            -0.18195873498916626,
                            -0.1920718103647232,
                            0.73585444688797
                        ],
                        [
                            0.9498679637908936,
                            -0.09659828990697861,
                            -0.6142656207084656,
                            0.624039351940155
                        ],
                        [
                            -0.31876951456069946,
                            -0.5064758658409119,
                            -0.6023761630058289,
                            -0.021463003009557724
                        ],
                        [
                            0.44386374950408936,
                            -0.5203645825386047,
                            -0.5617058873176575,
                            0.3924422860145569
                        ]
                    ],
                    [
                        0.0677555650472641,
                        0.007367713842540979,
                        0.08849639445543289,
                        0.03587490692734718
                    ]
                ]
            },
            {
                "type": "dense",
                "activation": "",
                "shape": [
                    null,
                    1
                ],
                "weights": [
                    [
                        [
                            -1.0435073375701904
                        ],
                        [
                            1.090315341949463
                        ],
                        [
                            2.22499680519104
                        ],
                        [
                            -1.662716269493103
                        ]
                    ],
                    [
                        0.06887832283973694
                    ]
                ]
            }
        ]
    },
    "drive_30_30": {
        "in_shape": [
            null,
            6
        ],
        "layers": [
            {
                "type": "dense",
                "activation": "tanh",
                "shape": [
                    null,
                    4
                ],
                "weights": [
                    [
                        [
                            1.7969211339950562,
                            -0.5738080739974976,
                            0.22262385487556458,
                            0.2179242968559265
                        ],
                        [
                            0.07457353919744492,
                            -0.08491791784763336,
                            0.25168344378471375,
                            0.09319620579481125
                        ],
                        [
                            0.704517662525177,
                            -0.029493484646081924,
                            0.4628714919090271,
                            0.37226322293281555
                        ],
                        [
                            0.20858995616436005,
                            0.28730061650276184,
                            -0.03833017870783806,
                            0.3061050772666931
                        ],
                        [
                            0.059334177523851395,
                            0.1520025134086609,
                            0.0964316800236702,
                            0.1449207216501236
                        ],
                        [
                            -0.40098920464515686,
                            -0.014866252429783344,
                            -0.4773881137371063,
                            0.132961705327034
                        ]
                    ],
                    [
                        -0.14428716897964478,
                        -0.1476573944091797,
                        0.020114779472351074,
                        -0.23211249709129333
                    ]
                ]
            },
            {
                "type": "dense",
                "activation": "tanh",
                "shape": [
                    null,
                    4
                ],
                "weights": [
                    [
                        [
                            -0.16566766798496246,
                            -0.4055345058441162,
                            0.7122284173965454,
                            -0.4620664417743683
                        ],
                        [
                            -0.5532419681549072,
                            -0.9400074481964111,
                            0.38960862159729004,
                            0.9407470226287842
                        ],
                        [
                            0.03325609117746353,
                            -0.26700714230537415,
                            -0.28342685103416443,
                            -1.1685024499893188
                        ],
                        [
                            0.4317488968372345,
                            0.8608207702636719,
                            -1.2040812969207764,
                            -0.5668982863426208
                        ]
                    ],
                    [
                        0.05229049548506737,
                        0.0173514224588871,
                        -0.08947936445474625,
                        -0.10738462954759598
                    ]
                ]
            },
            {
                "type": "dense",
                "activation": "",
                "shape": [
                    null,
                    1
                ],
                "weights": [
                    [
                        [
                            -0.7870762944221497
                        ],
                        [
                            -1.1854960918426514
                        ],
                        [
                            1.7615959644317627
                        ],
                        [
                            -0.841809093952179
                        ]
                    ],
                    [
                        -0.038880348205566406
                    ]
                ]
            }
        ]
    },
    "drive_35_30": {
        "in_shape": [
            null,
            6
        ],
        "layers": [
            {
                "type": "dense",
                "activation": "tanh",
                "shape": [
                    null,
                    4
                ],
                "weights": [
                    [
                        [
                            0.9470371603965759,
                            -0.18338543176651,
                            -0.6803629398345947,
                            -1.1821162700653076
                        ],
                        [
                            -0.0010022009955719113,
                            0.6503400802612305,
                            0.36418411135673523,
                            -0.38827985525131226
                        ],
                        [
                            0.225925013422966,
                            0.7893110513687134,
                            -0.6171311140060425,
                            -1.2723323106765747
                        ],
                        [
                            -0.010189701803028584,
                            0.5579633116722107,
                            0.31782564520835876,
                            -0.33245813846588135
                        ],
                        [
                            0.32275882363319397,
                            -0.10219762474298477,
                            0.08668036758899689,
                            0.18504466116428375
                        ],
                        [
                            -0.5881631374359131,
                            0.36183756589889526,
                            0.5572957992553711,
                            0.49689605832099915
                        ]
                    ],
                    [
                        -0.27935972809791565,
                        0.06639079749584198,
                        -0.02642928995192051,
                        -0.14910221099853516
                    ]
                ]
            },
            {
                "type": "dense",
                "activation": "tanh",
                "shape": [
                    null,
                    4
                ],
                "weights": [
                    [
                        [
                            -0.8436567783355713,
                            -0.35639524459838867,
                            0.20510073006153107,
                            1.6254501342773438
                        ],
                        [
                            -0.6547808051109314,
                            0.9052140712738037,
                            -0.6573027968406677,
                            0.46502000093460083
                        ],
                        [
                            0.17431722581386566,
                            -0.788508951663971,
                            0.12066219002008438,
                            -0.04755614325404167
                        ],
                        [
                            -0.9074009656906128,
                            0.4935782253742218,
                            -0.26070329546928406,
                            -0.41310131549835205
                        ]
                    ],
                    [
                        -0.010600388050079346,
                        0.07913796603679657,
                        0.08447641134262085,
                        -0.0225672610104084
                    ]
                ]
            },
            {
                "type": "dense",
                "activation": "",
                "shape": [
                    null,
                    1
                ],
                "weights": [
                    [
                        [
                            1.5905166864395142
                        ],
                        [
                            -1.8172610998153687
                        ],
                        [
                            0.3740651607513428
                        ],
                        [
                            0.49439874291419983
                        ]
                    ],
                    [
                        0.025313816964626312
                    ]
                ]
            }
        ]
    },
    "drive_40_30": {
        "in_shape": [
            null,
            6
        ],
        "layers": [
            {
                "type": "dense",
                "activation": "tanh",
                "shape": [
                    null,
                    4
                ],
                "weights": [
                    [
                        [
                            0.8029485940933228,
                            -0.010721706785261631,
                            -1.1948564052581787,
                            -0.41016581654548645
                        ],
                        [
                            0.5026739239692688,
                            0.15740595757961273,
                            -0.0707855299115181,
                            -0.13151243329048157
                        ],
                        [
                            0.8772123456001282,
                            0.7000452280044556,
                            -0.8929908871650696,
                            0.10167516022920609
                        ],
                        [
                            0.45267432928085327,
                            0.04252906143665314,
                            -0.012878978624939919,
                            -0.09121409803628922
                        ],
                        [
                            -0.6438578367233276,
                            0.35265710949897766,
                            0.18685582280158997,
                            -0.3911667764186859
                        ],
                        [
                            -0.025041045621037483,
                            -0.06874916702508926,
                            0.041666653007268906,
                            0.8282768130302429
                        ]
                    ],
                    [
                        -0.7493271231651306,
                        -0.1813618689775467,
                        0.1829843521118164,
                        0.1765635758638382
                    ]
                ]
            },
            {
                "type": "dense",
                "activation": "tanh",
                "shape": [
                    null,
                    4
                ],
                "weights": [
                    [
                        [
                            -0.34896746277809143,
                            0.6163782477378845,
                            -0.43852850794792175,
                            0.11359750479459763
                        ],
                        [
                            -1.0959111452102661,
                            0.6042026281356812,
                            -0.5595550537109375,
                            0.6590521335601807
                        ],
                        [
                            -0.8734942078590393,
                            -0.3326789438724518,
                            1.059332013130188,
                            -0.021287254989147186
                        ],
                        [
                            0.600934624671936,
                            0.6478344202041626,
                            0.8713754415512085,
                            0.5629190802574158
                        ]
                    ],
                    [
                        -0.33234015107154846,
                        -0.164165198802948,
                        -0.2890089154243469,
                        0.07420102506875992
                    ]
                ]
            },
            {
                "type": "dense",
                "activation": "",
                "shape": [
                    null,
                    1
                ],
                "weights": [
                    [
                        [
                            0.5690457820892334
                        ],
                        [
                            -0.7729882597923279
                        ],
                        [
                            -0.9281806945800781
                        ],
                        [
                            -0.7938118577003479
                        ]
                    ],
                    [
                        -0.07342401146888733
                    ]
                ]
            }
        ]
    },
    "drive_45_30": {
        "in_shape": [
            null,
            6
        ],
        "layers": [
            {
                "type": "dense",
                "activation": "tanh",
                "shape": [
                    null,
                    4
                ],
                "weights": [
                    [
                        [
                            0.4441216289997101,
                            0.03352280333638191,
                            -0.06683976203203201,
                            -1.9062448740005493
                        ],
                        [
                            -0.09984274953603745,
                            -0.061642494052648544,
                            -0.05346137657761574,
                            0.007926654070615768
                        ],
                        [
                            -0.4396425783634186,
                            0.11914464086294174,
                            -0.13321563601493835,
                            -0.11649614572525024
                        ],
                        [
                            0.16450196504592896,
                            0.1342601627111435,
                            0.1108556017279625,
                            0.020938348025083542
                        ],
                        [
                            0.5509793758392334,
                            -0.34355929493904114,
                            -0.06071250140666962,
                            -0.007114855572581291
                        ],
                        [
                            -0.14170941710472107,
                            0.34886184334754944,
                            -0.42387306690216064,
                            0.0027363125700503588
                        ]
                    ],
                    [
                        -0.031924717128276825,
                        0.16342373192310333,
                        0.08572576940059662,
                        0.03360411897301674
                    ]
                ]
            },
            {
                "type": "dense",
                "activation": "tanh",
                "shape": [
                    null,
                    4
                ],
                "weights": [
                    [
                        [
                            -0.22743436694145203,
                            -0.3018025755882263,
                            -0.25170189142227173,
                            0.46697238087654114
                        ],
                        [
                            -0.4445379674434662,
                            -0.5983538627624512,
                            -0.29464608430862427,
                            0.8956008553504944
                        ],
                        [
                            -0.8926655054092407,
                            0.8306443691253662,
                            -0.26779505610466003,
                            -0.1591511070728302
                        ],
                        [
                            0.1601904034614563,
                            -0.5247927308082581,
                            -0.10782039165496826,
                            0.7871436476707458
                        ]
                    ],
                    [
                        -0.0327959880232811,
                        -0.012263557873666286,
                        0.015562486834824085,
                        -0.08799266815185547
                    ]
                ]
            },
            {
                "type": "dense",
                "activation": "",
                "shape": [
                    null,
                    1
                ],
                "weights": [
                    [
                        [
                            -0.6379550695419312
                        ],
                        [
                            0.9210436344146729
                        ],
                        [
                            -0.5841699242591858
                        ],
                        [
                            -0.7517324686050415
                        ]
                    ],
                    [
                        -0.050756633281707764
                    ]
                ]
            }
        ]
    },
    "drive_50_30": {
        "in_shape": [
            null,
            6
        ],
        "layers": [
            {
                "type": "dense",
                "activation": "tanh",
                "shape": [
                    null,
                    4
                ],
                "weights": [
                    [
                        [
                            0.6345916390419006,
                            1.3985811471939087,
                            -0.057733338326215744,
                            0.7675570249557495
                        ],
                        [
                            -0.18873091042041779,
                            0.1296711415052414,
                            0.037423595786094666,
                            0.041211772710084915
                        ],
                        [
                            -0.18172042071819305,
                            0.6802626848220825,
                            0.3057591915130615,
                            -0.377016544342041
                        ],
                        [
                            -0.3937501311302185,
                            -0.07720814645290375,
                            -0.1006363183259964,
                            0.16122427582740784
                        ],
                        [
                            -0.4232160151004791,
                            -0.3921675384044647,
                            -0.15702907741069794,
                            0.4337431490421295
                        ],
                        [
                            -0.7045309543609619,
                            -0.21605029702186584,
                            0.44636911153793335,
                            0.36744293570518494
                        ]
                    ],
                    [
                        0.04916170984506607,
                        0.10140755027532578,
                        0.07717833667993546,
                        -0.05083862319588661
                    ]
                ]
            },
            {
                "type": "dense",
                "activation": "tanh",
                "shape": [
                    null,
                    4
                ],
                "weights": [
                    [
                        [
                            0.16173237562179565,
                            -0.4445880651473999,
                            -0.44042545557022095,
                            -0.3769323229789734
                        ],
                        [
                            0.44823893904685974,
                            0.45110514760017395,
                            -0.33556267619132996,
                            0.8816657066345215
                        ],
                        [
                            -0.5569357872009277,
                            0.667943000793457,
                            0.9143683910369873,
                            -0.03126615285873413
                        ],
                        [
                            0.298194944858551,
                            -0.43066322803497314,
                            0.11528658866882324,
                            0.8381714224815369
                        ]
                    ],
                    [
                        0.03239615261554718,
                        -0.11475131660699844,
                        -0.02527596801519394,
                        -0.07706277072429657
                    ]
                ]
            },
            {
                "type": "dense",
                "activation": "",
                "shape": [
                    null,
                    1
                ],
                "weights": [
                    [
                        [
                            0.5359001755714417
                        ],
                        [
                            -0.40628859400749207
                        ],
                        [
                            -0.8237544298171997
                        ],
                        [
                            0.4744419455528259
                        ]
                    ],
                    [
                        -0.010579254478216171
                    ]
                ]
            }
        ]
    },
    "drive_55_30": {
        "in_shape": [
            null,
            6
        ],
        "layers": [
            {
                "type": "dense",
                "activation": "tanh",
                "shape": [
                    null,
                    4
                ],
                "weights": [
                    [
                        [
                            -0.3104080557823181,
                            -0.21250797808170319,
                            -1.2136523723602295,
                            -1.1309072971343994
                        ],
                        [
                            0.13772521913051605,
                            0.0005009622545912862,
                            0.35981398820877075,
                            -0.23603013157844543
                        ],
                        [
                            0.5731057524681091,
                            0.22577467560768127,
                            0.23201359808444977,
                            -0.6523016095161438
                        ],
                        [
                            -0.03509180247783661,
                            -0.022239139303565025,
                            0.48420044779777527,
                            -0.21996155381202698
                        ],
                        [
                            0.4688225984573364,
                            -0.05299733579158783,
                            -0.5140643119812012,
                            0.27579864859580994
                        ],
                        [
                            0.13240759074687958,
                            0.5837529301643372,
                            -0.07751594483852386,
                            -0.17000114917755127
                        ]
                    ],
                    [
                        -0.24480688571929932,
                        0.10029536485671997,
                        -0.03061717376112938,
                        -0.05561963468790054
                    ]
                ]
            },
            {
                "type": "dense",
                "activation": "tanh",
                "shape": [
                    null,
                    4
                ],
                "weights": [
                    [
                        [
                            0.055762458592653275,
                            -0.30042019486427307,
                            0.5632054209709167,
                            0.16434703767299652
                        ],
                        [
                            -0.8270006775856018,
                            -0.062349509447813034,
                            -0.7382352948188782,
                            0.5967352390289307
                        ],
                        [
                            -0.08448456227779388,
                            0.7359923124313354,
                            -0.5570327639579773,
                            0.5932109355926514
                        ],
                        [
                            0.17451278865337372,
                            -0.14966261386871338,
                            0.7989331483840942,
                            0.8093182444572449
                        ]
                    ],
                    [
                        -0.01642187312245369,
                        0.01075487770140171,
                        -0.030701378360390663,
                        -0.056954625993967056
                    ]
                ]
            },
            {
                "type": "dense",
                "activation": "",
                "shape": [
                    null,
                    1
                ],
                "weights": [
                    [
                        [
                            0.9608442783355713
                        ],
                        [
                            0.6226598620414734
                        ],
                        [
                            0.19029797613620758
                        ],
                        [
                            -1.210242748260498
                        ]
                    ],
                    [
                        0.004820322152227163
                    ]
                ]
            }
        ]
    },
    "drive_60_30": {
        "in_shape": [
            null,
            6
        ],
        "layers": [
            {
                "type": "dense",
                "activation": "tanh",
                "shape": [
                    null,
                    4
                ],
                "weights": [
                    [
                        [
                            -0.15666735172271729,
                            -0.4689074158668518,
                            -0.2920229136943817,
                            -0.9498822689056396
                        ],
                        [
                            0.1072266548871994,
                            0.09232810139656067,
                            0.10180656611919403,
                            -0.29864388704299927
                        ],
                        [
                            -0.26086869835853577,
                            0.7292051315307617,
                            0.21319562196731567,
                            -0.7513163089752197
                        ],
                        [
                            0.35331258177757263,
                            -0.06607940793037415,
                            0.017142431810498238,
                            -0.22788077592849731
                        ],
                        [
                            0.3139592111110687,
                            -0.3493056893348694,
                            0.30883318185806274,
                            -0.07037453353404999
                        ],
                        [
                            0.5032718777656555,
                            0.1690930426120758,
                            0.6942359805107117,
                            -0.354131817817688
                        ]
                    ],
                    [
                        -0.0535796619951725,
                        0.24100756645202637,
                        -0.2803308665752411,
                        0.016129979863762856
                    ]
                ]
            },
            {
                "type": "dense",
                "activation": "tanh",
                "shape": [
                    null,
                    4
                ],
                "weights": [
                    [
                        [
                            -0.5147177577018738,
                            0.528852641582489,
                            -0.5450310707092285,
                            -0.010615376755595207
                        ],
                        [
                            -0.9196182489395142,
                            -0.7504197955131531,
                            -0.17231935262680054,
                            0.6750084161758423
                        ],
                        [
                            -0.4760599732398987,
                            0.2998086214065552,
                            -0.5524598956108093,
                            0.37985116243362427
                        ],
                        [
                            0.02349173091351986,
                            -0.1848745495080948,
                            -0.861316978931427,
                            -0.49906957149505615
                        ]
                    ],
                    [
                        -0.023153185844421387,
                        0.09132690727710724,
                        -0.03524350747466087,
                        0.15425080060958862
                    ]
                ]
            },
            {
                "type": "dense",
                "activation": "",
                "shape": [
                    null,
                    1
                ],
                "weights": [
                    [
                        [
                            0.6936546564102173
                        ],
                        [
                            0.38887959718704224
                        ],
                        [
                            1.0160179138183594
                        ],
                        [
                            -0.11081582307815552
                        ]
                    ],
                    [
                        0.06459485739469528
                    ]
                ]
            }
        ]
    },
    "drive_65_30": {
        "in_shape": [
            null,
            6
        ],
        "layers": [
            {
                "type": "dense",
                "activation": "tanh",
                "shape": [
                    null,
                    4
                ],
                "weights": [
                    [
                        [
                            0.02455691061913967,
                            -0.18467725813388824,
                            1.1305736303329468,
                            -0.15818554162979126
                        ],
                        [
                            -0.11369718611240387,
                            -0.026465000584721565,
                            0.060611557215452194,
                            0.0523984469473362
                        ],
                        [
                            0.07739941030740738,
                            -0.394380122423172,
                            -0.04374966770410538,
                            0.3863603472709656
                        ],
                        [
                            -0.014111812226474285,
                            -0.14888685941696167,
                            0.008362495340406895,
                            -0.06095144897699356
                        ],
                        [
                            -0.014322933740913868,
                            0.26996979117393494,
                            0.0701034665107727,
                            0.3643951416015625
                        ],
                        [
                            -0.7165499329566956,
                            0.02555367350578308,
                            -0.10766594111919403,
                            0.5057006478309631
                        ]
                    ],
                    [
                        -0.01444202195852995,
                        -0.26706090569496155,
                        -0.06792913377285004,
                        -0.36978256702423096
                    ]
                ]
            },
            {
                "type": "dense",
                "activation": "tanh",
                "shape": [
                    null,
                    4
                ],
                "weights": [
                    [
                        [
                            -0.4332808256149292,
                            0.5695282816886902,
                            0.5907148122787476,
                            0.6539288759231567
                        ],
                        [
                            -0.9535486102104187,
                            0.08716607093811035,
                            0.5694954991340637,
                            0.1135769784450531
                        ],
                        [
                            1.5157362222671509,
                            0.011825844645500183,
                            0.5406895875930786,
                            0.4043506979942322
                        ],
                        [
                            0.4846336841583252,
                            -0.41239219903945923,
                            -0.562736988067627,
                            0.25031614303588867
                        ]
                    ],
                    [
                        -0.00036383423139341176,
                        -0.039781324565410614,
                        0.010311142541468143,
                        0.04997448995709419
                    ]
                ]
            },
            {
                "type": "dense",
                "activation": "",
                "shape": [
                    null,
                    1
                ],
                "weights": [
                    [
                        [
                            0.5558176636695862
                        ],
                        [
                            0.27215221524238586
                        ],
                        [
                            0.9887519478797913
                        ],
                        [
                            0.25174254179000854
                        ]
                    ],
                    [
                        0.0007979112560860813
                    ]
                ]
            }
        ]
    },
    "drive_70_30": {
        "in_shape": [
            null,
            6
        ],
        "layers": [
            {
                "type": "dense",
                "activation": "tanh",
                "shape": [
                    null,
                    4
                ],
                "weights": [
                    [
                        [
                            1.5442370176315308,
                            -0.26694223284721375,
                            -0.40008747577667236,
                            -0.14647206664085388
                        ],
                        [
                            0.12034393101930618,
                            0.11369983106851578,
                            0.049989841878414154,
                            0.04594893380999565
                        ],
                        [
                            0.24230091273784637,
                            -0.0335395410656929,
                            1.0695360898971558,
                            0.008854707702994347
                        ],
                        [
                            0.10320338606834412,
                            -0.14772725105285645,
                            0.041192129254341125,
                            0.0842270702123642
                        ],
                        [
                            0.016835952177643776,
                            -0.4015631079673767,
                            0.16005034744739532,
                            0.05767489969730377
                        ],
                        [
                            0.426773339509964,
                            0.4666886329650879,
                            0.13596582412719727,
                            0.782108724117279
                        ]
                    ],
                    [
                        -0.01045595295727253,
                        0.34567034244537354,
                        -0.16400527954101562,
                        -0.04904773086309433
                    ]
                ]
            },
            {
                "type": "dense",
                "activation": "tanh",
                "shape": [
                    null,
                    4
                ],
                "weights": [
                    [
                        [
                            -0.030683552846312523,
                            0.18830013275146484,
                            0.4434472918510437,
                            0.9690893292427063
                        ],
                        [
                            -0.2871569097042084,
                            0.7782928347587585,
                            0.7496258020401001,
                            -0.03099760413169861
                        ],
                        [
                            -0.3177270293235779,
                            0.10804527252912521,
                            0.46989768743515015,
                            0.0015574346762150526
                        ],
                        [
                            -0.5216144919395447,
                            -0.28383997082710266,
                            -0.1785372644662857,
                            -0.7667792439460754
                        ]
                    ],
                    [
                        0.03873935341835022,
                        -0.04215087369084358,
                        0.19186407327651978,
                        0.0023854610044509172
                    ]
                ]
            },
            {
                "type": "dense",
                "activation": "",
                "shape": [
                    null,
                    1
                ],
                "weights": [
                    [
                        [
                            0.9308624267578125
                        ],
                        [
                            0.1838860660791397
                        ],
                        [
                            -0.2030208557844162
                        ],
                        [
                            0.9567819833755493
                        ]
                    ],
                    [
                        -0.003798028454184532
                    ]
                ]
            }
        ]
    },
    "drive_75_30": {
        "in_shape": [
            null,
            6
        ],
        "layers": [
            {
                "type": "dense",
                "activation": "tanh",
                "shape": [
                    null,
                    4
                ],
                "weights": [
                    [
                        [
                            -0.07318104803562164,
                            -0.05158446729183197,
                            -1.3090605735778809,
                            1.082092523574829
                        ],
                        [
                            0.05588985234498978,
                            0.010600386187434196,
                            -0.15834003686904907,
                            -0.14296700060367584
                        ],
                        [
                            0.5334734916687012,
                            0.6591479778289795,
                            -0.4084736704826355,
                            -0.1568363755941391
                        ],
                        [
                            0.06128694862127304,
                            0.18436142802238464,
                            -0.18809132277965546,
                            -0.3853401839733124
                        ],
                        [
                            -0.09055671840906143,
                            -0.3288425803184509,
                            0.1739824414253235,
                            0.4666181802749634
                        ],
                        [
                            0.5852543711662292,
                            -0.4211840331554413,
                            -0.45502322912216187,
                            -0.057535652071237564
                        ]
                    ],
                    [
                        0.11199194192886353,
                        0.04220125451683998,
                        -0.08974999189376831,
                        0.06674365699291229
                    ]
                ]
            },
            {
                "type": "dense",
                "activation": "tanh",
                "shape": [
                    null,
                    4
                ],
                "weights": [
                    [
                        [
                            0.8595767617225647,
                            0.9598562121391296,
                            -0.6516425013542175,
                            0.5316952466964722
                        ],
                        [
                            -0.10110984742641449,
                            0.6602081656455994,
                            0.6841993927955627,
                            -0.48984935879707336
                        ],
                        [
                            0.2553640305995941,
                            -0.31219974160194397,
                            -0.17546887695789337,
                            0.916403591632843
                        ],
                        [
                            -0.07289470732212067,
                            -0.2906684875488281,
                            -0.5785753130912781,
                            -0.756001889705658
                        ]
                    ],
                    [
                        -0.03180139884352684,
                        -0.06289440393447876,
                        0.10500337928533554,
                        0.05419474467635155
                    ]
                ]
            },
            {
                "type": "dense",
                "activation": "",
                "shape": [
                    null,
                    1
                ],
                "weights": [
                    [
                        [
                            -1.1826645135879517
                        ],
                        [
                            -0.08035192638635635
                        ],
                        [
                            0.2597914934158325
                        ],
                        [
                            -0.6165165305137634
                        ]
                    ],
                    [
                        0.010007821023464203
                    ]
                ]
            }
        ]
    },
    "drive_80_30": {
        "in_shape": [
            null,
            6
        ],
        "layers": [
            {
                "type": "dense",
                "activation": "tanh",
                "shape": [
                    null,
                    4
                ],
                "weights": [
                    [
                        [
                            -1.1990028619766235,
                            0.37915024161338806,
                            -0.6907767057418823,
                            0.348367303609848
                        ],
                        [
                            -0.3390893340110779,
                            -0.12138352543115616,
                            -0.2494276612997055,
                            0.38447532057762146
                        ],
                        [
                            -0.17039628326892853,
                            -0.5261377096176147,
                            0.3509443402290344,
                            -0.015469379723072052
                        ],
                        [
                            -0.177475243806839,
                            -0.02542414888739586,
                            0.07326775044202805,
                            0.16392382979393005
                        ],
                        [
                            -0.03527659922838211,
                            -0.13515281677246094,
                            -0.18902209401130676,
                            -0.016843950375914574
                        ],
                        [
                            -0.8321762681007385,
                            -0.7744500637054443,
                            0.1851634532213211,
                            1.00381600856781
                        ]
                    ],
                    [
                        0.031042905524373055,
                        0.09708195179700851,
                        -0.025564484298229218,
                        0.04808351397514343
                    ]
                ]
            },
            {
                "type": "dense",
                "activation": "tanh",
                "shape": [
                    null,
                    4
                ],
                "weights": [
                    [
                        [
                            0.6793201565742493,
                            -0.2939034104347229,
                            0.540688157081604,
                            -0.7978960871696472
                        ],
                        [
                            0.6319279670715332,
                            -0.7398442625999451,
                            0.16637277603149414,
                            0.46348851919174194
                        ],
                        [
                            0.20111092925071716,
                            0.06513432413339615,
                            -0.3772847652435303,
                            -0.3219429850578308
                        ],
                        [
                            0.08507810533046722,
                            0.26098254323005676,
                            -0.16876819729804993,
                            -0.7487466335296631
                        ]
                    ],
                    [
                        -0.12957029044628143,
                        -0.013767903670668602,
                        0.01576818898320198,
                        -0.029277309775352478
                    ]
                ]
            },
            {
                "type": "dense",
                "activation": "",
                "shape": [
                    null,
                    1
                ],
                "weights": [
                    [
                        [
                            -0.37383466958999634
                        ],
                        [
                            -0.8607456088066101
                        ],
                        [
                            -0.6056921482086182
                        ],
                        [
                            1.202382206916809
                        ]
                    ],
                    [
                        -0.015179918147623539
                    ]
                ]
            }
        ]
    },
    "drive_85_30": {
        "in_shape": [
            null,
            6
        ],
        "layers": [
            {
                "type": "dense",
                "activation": "tanh",
                "shape": [
                    null,
                    4
                ],
                "weights": [
                    [
                        [
                            -0.39570799469947815,
                            0.3957151770591736,
                            0.47767069935798645,
                            -1.340903878211975
                        ],
                        [
                            0.06388959288597107,
                            -0.17307525873184204,
                            -0.12529057264328003,
                            -0.2306033819913864
                        ],
                        [
                            -0.482666939496994,
                            -0.5692035555839539,
                            0.6557948589324951,
                            -0.46717098355293274
                        ],
                        [
                            0.09464254975318909,
                            -0.03348192945122719,
                            -0.057764966040849686,
                            -0.13613568246364594
                        ],
                        [
                            -0.10323185473680496,
                            -0.2970261871814728,
                            -0.2241056114435196,
                            -0.1319274604320526
                        ],
                        [
                            0.8177108764648438,
                            -0.434050977230072,
                            -0.13387036323547363,
                            -0.5436365008354187
                        ]
                    ],
                    [
                        0.0590779073536396,
                        0.28329288959503174,
                        0.1863662600517273,
                        0.10210846364498138
                    ]
                ]
            },
            {
                "type": "dense",
                "activation": "tanh",
                "shape": [
                    null,
                    4
                ],
                "weights": [
                    [
                        [
                            -0.62370765209198,
                            0.0026027143467217684,
                            0.2423141896724701,
                            -0.2124185711145401
                        ],
                        [
                            0.7490459680557251,
                            0.48213452100753784,
                            -0.7151617407798767,
                            -0.5726965069770813
                        ],
                        [
                            0.4308546185493469,
                            -0.23855067789554596,
                            0.5710738897323608,
                            -0.2048589438199997
                        ],
                        [
                            -0.9427310228347778,
                            -0.312418133020401,
                            -0.07635187357664108,
                            0.2075207233428955
                        ]
                    ],
                    [
                        -0.07121670246124268,
                        0.002694292925298214,
                        0.01863778755068779,
                        -0.013157363049685955
                    ]
                ]
            },
            {
                "type": "dense",
                "activation": "",
                "shape": [
                    null,
                    1
                ],
                "weights": [
                    [
                        [
                            0.8525453805923462
                        ],
                        [
                            0.851331353187561
                        ],
                        [
                            -0.9057204723358154
                        ],
                        [
                            1.0065453052520752
                        ]
                    ],
                    [
                        0.01683281920850277
                    ]
                ]
            }
        ]
    },
    "drive_90_30": {
        "in_shape": [
            null,
            6
        ],
        "layers": [
            {
                "type": "dense",
                "activation": "tanh",
                "shape": [
                    null,
                    4
                ],
                "weights": [
                    [
                        [
                            0.28745970129966736,
                            0.6263377666473389,
                            0.44095560908317566,
                            -1.7479944229125977
                        ],
                        [
                            0.04589937999844551,
                            -0.323238343000412,
                            -0.09581157565116882,
                            -0.1736781895160675
                        ],
                        [
                            -0.36766886711120605,
                            0.15404483675956726,
                            -0.14280787110328674,
                            0.16337279975414276
                        ],
                        [
                            -0.08947876840829849,
                            0.09720206260681152,
                            -0.012864047661423683,
                            -0.0009759239619597793
                        ],
                        [
                            -0.2138465940952301,
                            -0.04652431979775429,
                            -0.1806809902191162,
                            -0.14446018636226654
                        ],
                        [
                            -0.6023388504981995,
                            -0.8240844011306763,
                            0.42325401306152344,
                            -0.23753386735916138
                        ]
                    ],
                    [
                        0.2009361982345581,
                        0.014263514429330826,
                        0.1430349051952362,
                        0.06757581233978271
                    ]
                ]
            },
            {
                "type": "dense",
                "activation": "tanh",
                "shape": [
                    null,
                    4
                ],
                "weights": [
                    [
                        [
                            0.4816042482852936,
                            -1.0397520065307617,
                            0.18549682199954987,
                            -0.2833661139011383
                        ],
                        [
                            -0.1042618453502655,
                            -0.5275422930717468,
                            -0.4334281086921692,
                            0.1716570407152176
                        ],
                        [
                            0.6682302355766296,
                            0.16028781235218048,
                            -0.9805587530136108,
                            0.506432056427002
                        ],
                        [
                            -0.33978575468063354,
                            -0.1523885875940323,
                            1.3995165824890137,
                            0.6191961169242859
                        ]
                    ],
                    [
                        0.05040352791547775,
                        -0.013518044725060463,
                        0.07219885289669037,
                        -0.03148333355784416
                    ]
                ]
            },
            {
                "type": "dense",
                "activation": "",
                "shape": [
                    null,
                    1
                ],
                "weights": [
                    [
                        [
                            -0.5365368127822876
                        ],
                        [
                            -0.7651842832565308
                        ],
                        [
                            -0.4909985661506653
                        ],
                        [
                            -0.539884626865387
                        ]
                    ],
                    [
                        -0.00375926005654037
                    ]
                ]
            }
        ]
    },
    "drive_95_30": {
        "in_shape": [
            null,
            6
        ],
        "layers": [
            {
                "type": "dense",
                "activation": "tanh",
                "shape": [
                    null,
                    4
                ],
                "weights": [
                    [
                        [
                            -0.8465719819068909,
                            -0.5214592814445496,
                            0.9726524949073792,
                            0.7003049254417419
                        ],
                        [
                            -0.03808232769370079,
                            -0.37429651618003845,
                            0.19673427939414978,
                            -0.38109394907951355
                        ],
                        [
                            0.09766334295272827,
                            -0.5138906836509705,
                            -0.21693335473537445,
                            0.4250911474227905
                        ],
                        [
                            -0.05421167612075806,
                            -0.3708724081516266,
                            0.22771815955638885,
                            -0.47349146008491516
                        ],
                        [
                            -0.011725161224603653,
                            -0.2221139669418335,
                            -0.3091527819633484,
                            -0.1153390035033226
                        ],
                        [
                            0.6025792956352234,
                            -0.3196870684623718,
                            0.2029077708721161,
                            1.042182445526123
                        ]
                    ],
                    [
                        -0.011175275780260563,
                        0.21205388009548187,
                        0.344046026468277,
                        0.10696250945329666
                    ]
                ]
            },
            {
                "type": "dense",
                "activation": "tanh",
                "shape": [
                    null,
                    4
                ],
                "weights": [
                    [
                        [
                            1.211448073387146,
                            0.13764750957489014,
                            0.7303019165992737,
                            -0.3626696467399597
                        ],
                        [
                            0.8148592114448547,
                            0.011245304718613625,
                            -0.30093225836753845,
                            0.728387713432312
                        ],
                        [
                            -0.40023836493492126,
                            0.4849429130554199,
                            0.6834003925323486,
                            0.37421929836273193
                        ],
                        [
                            -0.8982095122337341,
                            -0.607995331287384,
                            0.5184529423713684,
                            -0.4866117238998413
                        ]
                    ],
                    [
                        0.04013758897781372,
                        0.13084660470485687,
                        0.027062589302659035,
                        0.04846397042274475
                    ]
                ]
            },
            {
                "type": "dense",
                "activation": "",
                "shape": [
                    null,
                    1
                ],
                "weights": [
                    [
                        [
                            -0.7730523943901062
                        ],
                        [
                            -0.2024548500776291
                        ],
                        [
                            -0.6463733315467834
                        ],
                        [
                            0.5985450744628906
                        ]
                    ],
                    [
                        0.010098393075168133
                    ]
                ]
            }
        ]
    },
    "drive_100_30": {
        "in_shape": [
            null,
            6
        ],
        "layers": [
            {
                "type": "dense",
                "activation": "tanh",
                "shape": [
                    null,
                    4
                ],
                "weights": [
                    [
                        [
                            0.8612751960754395,
                            0.12054826319217682,
                            -1.1148062944412231,
                            0.11517050862312317
                        ],
                        [
                            -0.0503697507083416,
                            0.23334820568561554,
                            -0.16766121983528137,
                            0.10116969794034958
                        ],
                        [
                            0.3477436602115631,
                            0.020994747057557106,
                            -0.3714619576931,
                            1.1424121856689453
                        ],
                        [
                            -0.10084465146064758,
                            0.22333568334579468,
                            -0.14927227795124054,
                            0.015520866960287094
                        ],
                        [
                            -0.3126985728740692,
                            -0.043042752891778946,
                            -0.19115792214870453,
                            0.02388220652937889
                        ],
                        [
                            -0.04780759662389755,
                            1.130487084388733,
                            -0.07357868552207947,
                            0.7170128226280212
                        ]
                    ],
                    [
                        -0.05748983100056648,
                        0.06258146464824677,
                        0.023740844801068306,
                        -0.046959199011325836
                    ]
                ]
            },
            {
                "type": "dense",
                "activation": "tanh",
                "shape": [
                    null,
                    4
                ],
                "weights": [
                    [
                        [
                            -0.005409709643572569,
                            -0.5979183912277222,
                            0.9707649350166321,
                            0.12411537021398544
                        ],
                        [
                            -0.45935946702957153,
                            -0.10638827085494995,
                            0.17546258866786957,
                            0.229692280292511
                        ],
                        [
                            0.23557431995868683,
                            0.6341814398765564,
                            -1.2809228897094727,
                            0.1734878271818161
                        ],
                        [
                            -0.0851886197924614,
                            0.5113856196403503,
                            0.6008634567260742,
                            0.5465654730796814
                        ]
                    ],
                    [
                        -0.009682388976216316,
                        0.023122422397136688,
                        0.09627459943294525,
                        -0.004220289643853903
                    ]
                ]
            },
            {
                "type": "dense",
                "activation": "",
                "shape": [
                    null,
                    1
                ],
                "weights": [
                    [
                        [
                            0.4205646514892578
                        ],
                        [
                            -0.5572320222854614
                        ],
                        [
                            0.4512156844139099
                        ],
                        [
                            -1.0577343702316284
                        ]
                    ],
                    [
                        0.019743718206882477
                    ]
                ]
            }
        ]
    }
}