{
    "drive_0_40": {
        "in_shape": [
            null,
            6
        ],
        "layers": [
            {
                "type": "dense",
                "activation": "tanh",
                "shape": [
                    null,
                    4
                ],
                "weights": [
                    [
                        [
                            -0.22851336002349854,
                            -0.8301133513450623,
                            0.10490429401397705,
                            -0.6879164576530457
                        ],
                        [
                            -0.11351682245731354,
                            0.3759057819843292,
                            0.8343725204467773,
                            -0.3022274971008301
                        ],
                        [
                            0.28658053278923035,
                            -0.15873724222183228,
                            0.6590643525123596,
                            -0.6336666345596313
                        ],
                        [
                            0.10117461532354355,
                            0.3471784293651581,
                            0.6299542784690857,
                            -0.3483547866344452
                        ],
                        [
                            0.2204340100288391,
                            0.1413467526435852,
                            -0.05972981080412865,
                            -0.1206291988492012
                        ],
                        [
                            0.31711703538894653,
                            0.11733385175466537,
                            0.1727367490530014,
                            0.20045241713523865
                        ]
                    ],
                    [
                        -0.21700090169906616,
                        -0.10121951997280121,
                        0.08265724033117294,
                        0.13246510922908783
                    ]
                ]
            },
            {
                "type": "dense",
                "activation": "tanh",
                "shape": [
                    null,
                    4
                ],
                "weights": [
                    [
                        [
                            -0.21084600687026978,
                            -0.38288119435310364,
                            0.4773760437965393,
                            0.5823236107826233
                        ],
                        [
                            0.6503797173500061,
                            -1.919364094734192,
                            -0.5402354001998901,
                            1.636013150215149
                        ],
                        [
                            -0.3386600911617279,
                            0.8817251920700073,
                            0.9858353734016418,
                            -0.8943305611610413
                        ],
                        [
                            0.13617181777954102,
                            -2.586625337600708,
                            0.13399513065814972,
                            2.1812710762023926
                        ]
                    ],
                    [
                        -0.05698072910308838,
                        -0.8560167551040649,
                        -0.04273674637079239,
                        -0.6015585660934448
                    ]
                ]
            },
            {
                "type": "dense",
                "activation": "",
                "shape": [
                    null,
                    1
                ],
                "weights": [
                    [
                        [
                            1.138608455657959
                        ],
                        [
                            0.6446408629417419
                        ],
                        [
                            -1.6886920928955078
                        ],
                        [
                            -0.9593444466590881
                        ]
                    ],
                    [
                        -0.008595124818384647
                    ]
                ]
            }
        ]
    },
    "drive_5_40": {
        "in_shape": [
            null,
            6
        ],
        "layers": [
            {
                "type": "dense",
                "activation": "tanh",
                "shape": [
                    null,
                    4
                ],
                "weights": [
                    [
                        [
                            0.8697867393493652,
                            0.12341120839118958,
                            -0.5084800124168396,
                            -1.9031805992126465
                        ],
                        [
                            0.8160173892974854,
                            -0.07077929377555847,
                            0.19339580833911896,
                            -0.30508750677108765
                        ],
                        [
                            -0.3031669855117798,
                            0.43390026688575745,
                            0.7307472825050354,
                            -0.9688450694084167
                        ],
                        [
                            0.6731263399124146,
                            -0.014706289395689964,
                            -0.12333829700946808,
                            -0.2979038655757904
                        ],
                        [
                            -0.3192566931247711,
                            0.09964156895875931,
                            -0.5252425670623779,
                            0.050348326563835144
                        ],
                        [
                            -0.3640437126159668,
                            0.3246205747127533,
                            -1.3656644821166992,
                            0.41733601689338684
                        ]
                    ],
                    [
                        0.28324997425079346,
                        -0.09318440407514572,
                        0.44554442167282104,
                        -0.033703308552503586
                    ]
                ]
            },
            {
                "type": "dense",
                "activation": "tanh",
                "shape": [
                    null,
                    4
                ],
                "weights": [
                    [
                        [
                            -1.0482416152954102,
                            -0.4645443260669708,
                            0.5074903964996338,
                            -0.4427163302898407
                        ],
                        [
                            -1.0879682302474976,
                            1.0136160850524902,
                            -0.8879737257957458,
                            1.0703743696212769
                        ],
                        [
                            -0.3396831154823303,
                            -0.25909802317619324,
                            -0.8733388781547546,
                            -0.6463019847869873
                        ],
                        [
                            -0.6281244158744812,
                            0.540035605430603,
                            0.6453286409378052,
                            0.9088140726089478
                        ]
                    ],
                    [
                        -0.036901604384183884,
                        -0.061575476080179214,
                        0.05022075027227402,
                        0.013208426535129547
                    ]
                ]
            },
            {
                "type": "dense",
                "activation": "",
                "shape": [
                    null,
                    1
                ],
                "weights": [
                    [
                        [
                            2.1065597534179688
                        ],
                        [
                            -0.8440582752227783
                        ],
                        [
                            0.41222861409187317
                        ],
                        [
                            -0.8579105138778687
                        ]
                    ],
                    [
                        0.014554536901414394
                    ]
                ]
            }
        ]
    },
    "drive_10_40": {
        "in_shape": [
            null,
            6
        ],
        "layers": [
            {
                "type": "dense",
                "activation": "tanh",
                "shape": [
                    null,
                    4
                ],
                "weights": [
                    [
                        [
                            -0.4097073972225189,
                            1.3357192277908325,
                            -0.3179228603839874,
                            1.4679168462753296
                        ],
                        [
                            0.2321927845478058,
                            -0.02730567567050457,
                            -0.7739661335945129,
                            -0.5124073624610901
                        ],
                        [
                            0.056451037526130676,
                            0.44328129291534424,
                            -0.1143050268292427,
                            0.833955705165863
                        ],
                        [
                            0.18089379370212555,
                            -0.018568696454167366,
                            -0.6607811450958252,
                            -0.38109272718429565
                        ],
                        [
                            -0.12086313962936401,
                            -0.010545182973146439,
                            0.4181240499019623,
                            0.6883010864257812
                        ],
                        [
                            -0.5782193541526794,
                            -0.47474002838134766,
                            0.040266960859298706,
                            -0.13929201662540436
                        ]
                    ],
                    [
                        0.16765879094600677,
                        -0.5871376991271973,
                        -0.4783380925655365,
                        0.5390064120292664
                    ]
                ]
            },
            {
                "type": "dense",
                "activation": "tanh",
                "shape": [
                    null,
                    4
                ],
                "weights": [
                    [
                        [
                            -1.0238111019134521,
                            0.29312923550605774,
                            -0.2371726930141449,
                            -0.6487525105476379
                        ],
                        [
                            1.6375890970230103,
                            1.6600884199142456,
                            0.30486544966697693,
                            -0.44060570001602173
                        ],
                        [
                            -0.21942704916000366,
                            -0.6569994688034058,
                            1.3369672298431396,
                            -0.6157499551773071
                        ],
                        [
                            -0.8189343214035034,
                            0.8443230390548706,
                            -0.9987342953681946,
                            0.6081454753875732
                        ]
                    ],
                    [
                        -0.34046471118927,
                        0.5093913078308105,
                        -0.14664983749389648,
                        0.09806383401155472
                    ]
                ]
            },
            {
                "type": "dense",
                "activation": "",
                "shape": [
                    null,
                    1
                ],
                "weights": [
                    [
                        [
                            -1.1988272666931152
                        ],
                        [
                            1.3097010850906372
                        ],
                        [
                            0.5688939690589905
                        ],
                        [
                            -1.6716265678405762
                        ]
                    ],
                    [
                        0.005391290877014399
                    ]
                ]
            }
        ]
    },
    "drive_15_40": {
        "in_shape": [
            null,
            6
        ],
        "layers": [
            {
                "type": "dense",
                "activation": "tanh",
                "shape": [
                    null,
                    4
                ],
                "weights": [
                    [
                        [
                            -1.0020357370376587,
                            0.3407955467700958,
                            -1.3511332273483276,
                            -1.3875641822814941
                        ],
                        [
                            -0.5508416295051575,
                            0.01276520173996687,
                            0.779013454914093,
                            0.0706220418214798
                        ],
                        [
                            0.4365236461162567,
                            -0.6392812728881836,
                            -0.39044058322906494,
                            -1.1064399480819702
                        ],
                        [
                            -0.5408629775047302,
                            0.037655945867300034,
                            0.6847795248031616,
                            0.070465087890625
                        ],
                        [
                            0.15553978085517883,
                            -0.09242820739746094,
                            -0.09086824208498001,
                            -0.08852087706327438
                        ],
                        [
                            0.23411618173122406,
                            -0.5041701197624207,
                            0.8582673072814941,
                            0.35516223311424255
                        ]
                    ],
                    [
                        -0.14799833297729492,
                        0.08947738260030746,
                        0.0876397043466568,
                        0.0926019474864006
                    ]
                ]
            },
            {
                "type": "dense",
                "activation": "tanh",
                "shape": [
                    null,
                    4
                ],
                "weights": [
                    [
                        [
                            -1.795098066329956,
                            -0.6309374570846558,
                            -0.23332399129867554,
                            0.8471387028694153
                        ],
                        [
                            0.1446898877620697,
                            -0.184753879904747,
                            -0.7060588002204895,
                            0.8582280874252319
                        ],
                        [
                            -0.8444857001304626,
                            -0.5124614238739014,
                            -0.2260892242193222,
                            0.4604446589946747
                        ],
                        [
                            -0.6709941625595093,
                            0.11567619442939758,
                            0.15416766703128815,
                            -0.6087229251861572
                        ]
                    ],
                    [
                        0.014411690644919872,
                        -0.012019705958664417,
                        -0.013244192115962505,
                        -0.011096456088125706
                    ]
                ]
            },
            {
                "type": "dense",
                "activation": "",
                "shape": [
                    null,
                    1
                ],
                "weights": [
                    [
                        [
                            0.986884355545044
                        ],
                        [
                            -0.7535132765769958
                        ],
                        [
                            -0.9346893429756165
                        ],
                        [
                            2.393183946609497
                        ]
                    ],
                    [
                        0.004911853466182947
                    ]
                ]
            }
        ]
    },
    "drive_20_40": {
        "in_shape": [
            null,
            6
        ],
        "layers": [
            {
                "type": "dense",
                "activation": "tanh",
                "shape": [
                    null,
                    4
                ],
                "weights": [
                    [
                        [
                            -0.5269927382469177,
                            0.03522476553916931,
                            0.040332768112421036,
                            -1.8657207489013672
                        ],
                        [
                            -0.6471156477928162,
                            0.07665941119194031,
                            -0.8351930379867554,
                            -0.11670371890068054
                        ],
                        [
                            -0.034704018384218216,
                            -0.1399664431810379,
                            0.8673385977745056,
                            -1.3857450485229492
                        ],
                        [
                            -0.5931469202041626,
                            0.04198574274778366,
                            -0.7697910666465759,
                            -0.13396063446998596
                        ],
                        [
                            -0.15776322782039642,
                            -0.07699500024318695,
                            -0.25429242849349976,
                            -0.08848236501216888
                        ],
                        [
                            0.08492669463157654,
                            -0.8218708038330078,
                            -0.625928521156311,
                            0.5554255247116089
                        ]
                    ],
                    [
                        0.1559077799320221,
                        0.080661341547966,
                        0.23756177723407745,
                        0.07654963433742523
                    ]
                ]
            },
            {
                "type": "dense",
                "activation": "tanh",
                "shape": [
                    null,
                    4
                ],
                "weights": [
                    [
                        [
                            0.18700413405895233,
                            -1.3969447612762451,
                            0.5288642644882202,
                            0.20086130499839783
                        ],
                        [
                            0.7131612300872803,
                            0.31419163942337036,
                            0.9257861971855164,
                            0.8669142723083496
                        ],
                        [
                            -0.42678573727607727,
                            0.22279363870620728,
                            -0.9084462523460388,
                            -0.3491232991218567
                        ],
                        [
                            -0.6291713118553162,
                            0.5325161814689636,
                            0.03184214234352112,
                            -0.34907689690589905
                        ]
                    ],
                    [
                        -0.07550827413797379,
                        -0.039413634687662125,
                        -0.13251127302646637,
                        0.01664624735713005
                    ]
                ]
            },
            {
                "type": "dense",
                "activation": "",
                "shape": [
                    null,
                    1
                ],
                "weights": [
                    [
                        [
                            0.989252507686615
                        ],
                        [
                            -1.521675705909729
                        ],
                        [
                            0.5690619945526123
                        ],
                        [
                            1.3666210174560547
                        ]
                    ],
                    [
                        0.017073269933462143
                    ]
                ]
            }
        ]
    },
    "drive_25_40": {
        "in_shape": [
            null,
            6
        ],
        "layers": [
            {
                "type": "dense",
                "activation": "tanh",
                "shape": [
                    null,
                    4
                ],
                "weights": [
                    [
                        [
                            0.5145575404167175,
                            0.8734281063079834,
                            -1.215482234954834,
                            -1.21575129032135
                        ],
                        [
                            -0.503296434879303,
                            -0.6877124905586243,
                            -1.4319149255752563,
                            -0.2919427156448364
                        ],
                        [
                            0.18586982786655426,
                            0.25149497389793396,
                            -0.5701428055763245,
                            -0.4361836612224579
                        ],
                        [
                            -0.5404995679855347,
                            -0.5981563329696655,
                            -1.4000493288040161,
                            -0.2602616548538208
                        ],
                        [
                            -0.22848328948020935,
                            0.3351808190345764,
                            -0.24780789017677307,
                            0.09266050159931183
                        ],
                        [
                            0.7634265422821045,
                            -0.11948422342538834,
                            -0.546594500541687,
                            0.9342846870422363
                        ]
                    ],
                    [
                        0.2399146854877472,
                        -0.34292569756507874,
                        0.24075902998447418,
                        -0.11347214877605438
                    ]
                ]
            },
            {
                "type": "dense",
                "activation": "tanh",
                "shape": [
                    null,
                    4
                ],
                "weights": [
                    [
                        [
                            -1.2108806371688843,
                            0.3513547480106354,
                            0.7410101294517517,
                            -0.029643448069691658
                        ],
                        [
                            -1.3055098056793213,
                            1.416161298751831,
                            0.35045984387397766,
                            0.7582701444625854
                        ],
                        [
                            0.9361141920089722,
                            -0.42115846276283264,
                            -1.082910418510437,
                            0.6148849725723267
                        ],
                        [
                            1.115431785583496,
                            -1.5306886434555054,
                            0.7299898266792297,
                            -1.4255157709121704
                        ]
                    ],
                    [
                        0.06192522123456001,
                        0.005116225685924292,
                        -0.008930718526244164,
                        -0.014889352954924107
                    ]
                ]
            },
            {
                "type": "dense",
                "activation": "",
                "shape": [
                    null,
                    1
                ],
                "weights": [
                    [
                        [
                            -0.8454655408859253
                        ],
                        [
                            0.5639218091964722
                        ],
                        [
                            -1.6357206106185913
                        ],
                        [
                            -0.9764784574508667
                        ]
                    ],
                    [
                        -0.006586238741874695
                    ]
                ]
            }
        ]
    },
    "drive_30_40": {
        "in_shape": [
            null,
            6
        ],
        "layers": [
            {
                "type": "dense",
                "activation": "tanh",
                "shape": [
                    null,
                    4
                ],
                "weights": [
                    [
                        [
                            2.0974748134613037,
                            0.7105715274810791,
                            -0.1963852047920227,
                            -0.6315805912017822
                        ],
                        [
                            0.15056630969047546,
                            -0.06735541671514511,
                            -0.24814754724502563,
                            -0.7565973401069641
                        ],
                        [
                            0.7263773679733276,
                            -0.33245760202407837,
                            0.8937067985534668,
                            0.09619208425283432
                        ],
                        [
                            0.16842803359031677,
                            0.028617054224014282,
                            -0.23836489021778107,
                            -0.6454405784606934
                        ],
                        [
                            0.19217543303966522,
                            -0.12929214537143707,
                            0.15696176886558533,
                            -0.23254849016666412
                        ],
                        [
                            -0.40336352586746216,
                            0.4752211272716522,
                            0.22444301843643188,
                            0.28533127903938293
                        ]
                    ],
                    [
                        -0.1667003184556961,
                        0.14551560580730438,
                        -0.163273423910141,
                        0.3011629283428192
                    ]
                ]
            },
            {
                "type": "dense",
                "activation": "tanh",
                "shape": [
                    null,
                    4
                ],
                "weights": [
                    [
                        [
                            -0.23592591285705566,
                            0.245290145277977,
                            -0.03625880554318428,
                            -0.9498214721679688
                        ],
                        [
                            0.3621269762516022,
                            -0.5122249126434326,
                            0.7126427292823792,
                            0.8154554963111877
                        ],
                        [
                            -0.5372297763824463,
                            -0.015941603109240532,
                            -1.1454699039459229,
                            0.7052879929542542
                        ],
                        [
                            -1.2737579345703125,
                            1.138000249862671,
                            0.018109820783138275,
                            0.5565428137779236
                        ]
                    ],
                    [
                        0.09355919808149338,
                        0.08170758932828903,
                        0.03781323879957199,
                        0.04585162177681923
                    ]
                ]
            },
            {
                "type": "dense",
                "activation": "",
                "shape": [
                    null,
                    1
                ],
                "weights": [
                    [
                        [
                            -0.8431745767593384
                        ],
                        [
                            0.7219029664993286
                        ],
                        [
                            0.8463342189788818
                        ],
                        [
                            -1.481469750404358
                        ]
                    ],
                    [
                        -0.052677784115076065
                    ]
                ]
            }
        ]
    },
    "drive_35_40": {
        "in_shape": [
            null,
            6
        ],
        "layers": [
            {
                "type": "dense",
                "activation": "tanh",
                "shape": [
                    null,
                    4
                ],
                "weights": [
                    [
                        [
                            -0.8470321297645569,
                            0.0956602394580841,
                            0.2630208134651184,
                            -1.7194656133651733
                        ],
                        [
                            1.1112401485443115,
                            1.0145431756973267,
                            -0.23103730380535126,
                            -0.23599617183208466
                        ],
                        [
                            -1.0172853469848633,
                            0.04717817157506943,
                            -0.7309049367904663,
                            -1.2476459741592407
                        ],
                        [
                            0.9490302205085754,
                            0.8263071179389954,
                            -0.24019551277160645,
                            -0.23907135426998138
                        ],
                        [
                            -0.3182205855846405,
                            -0.25904718041419983,
                            -0.0011191004887223244,
                            -0.017597753554582596
                        ],
                        [
                            0.9096243381500244,
                            -0.3243691623210907,
                            -0.6094161868095398,
                            0.6313135027885437
                        ]
                    ],
                    [
                        0.30857279896736145,
                        0.24880017340183258,
                        0.009070614352822304,
                        0.018102820962667465
                    ]
                ]
            },
            {
                "type": "dense",
                "activation": "tanh",
                "shape": [
                    null,
                    4
                ],
                "weights": [
                    [
                        [
                            -0.15031756460666656,
                            -0.49252036213874817,
                            0.7728198170661926,
                            -0.01233676914125681
                        ],
                        [
                            1.3443243503570557,
                            0.5599158406257629,
                            0.3149825632572174,
                            0.6147727370262146
                        ],
                        [
                            -0.8639510273933411,
                            -0.29137322306632996,
                            0.5672227740287781,
                            0.8587574362754822
                        ],
                        [
                            0.17411169409751892,
                            0.4159071147441864,
                            -0.5089734196662903,
                            -0.7084433436393738
                        ]
                    ],
                    [
                        0.016851989552378654,
                        -0.0007817316800355911,
                        -0.035328421741724014,
                        0.008176228031516075
                    ]
                ]
            },
            {
                "type": "dense",
                "activation": "",
                "shape": [
                    null,
                    1
                ],
                "weights": [
                    [
                        [
                            -0.6297146081924438
                        ],
                        [
                            -1.6893014907836914
                        ],
                        [
                            0.1070430800318718
                        ],
                        [
                            0.9997954964637756
                        ]
                    ],
                    [
                        -0.010854522697627544
                    ]
                ]
            }
        ]
    },
    "drive_40_40": {
        "in_shape": [
            null,
            6
        ],
        "layers": [
            {
                "type": "dense",
                "activation": "tanh",
                "shape": [
                    null,
                    4
                ],
                "weights": [
                    [
                        [
                            0.6915532946586609,
                            -0.5744217038154602,
                            1.3175281286239624,
                            0.5614326000213623
                        ],
                        [
                            -0.028023736551404,
                            0.2244323194026947,
                            -0.092041015625,
                            0.8090119361877441
                        ],
                        [
                            -0.3144119679927826,
                            -0.40978768467903137,
                            0.6455785036087036,
                            0.7785227298736572
                        ],
                        [
                            -0.15958067774772644,
                            0.24936331808567047,
                            -0.02308826893568039,
                            0.611052930355072
                        ],
                        [
                            0.3004603087902069,
                            -0.030275603756308556,
                            -0.17355674505233765,
                            0.106453076004982
                        ],
                        [
                            -0.7150387167930603,
                            0.3390098214149475,
                            -0.570062518119812,
                            0.878799557685852
                        ]
                    ],
                    [
                        -0.25604376196861267,
                        0.09195674955844879,
                        0.16911374032497406,
                        -0.1275545358657837
                    ]
                ]
            },
            {
                "type": "dense",
                "activation": "tanh",
                "shape": [
                    null,
                    4
                ],
                "weights": [
                    [
                        [
                            0.0405404157936573,
                            -0.040536366403102875,
                            0.4714219868183136,
                            0.5320303440093994
                        ],
                        [
                            -0.9472377896308899,
                            0.5366089940071106,
                            0.24717257916927338,
                            -0.7980430722236633
                        ],
                        [
                            0.3865083158016205,
                            0.5309280157089233,
                            0.19654029607772827,
                            1.2652435302734375
                        ],
                        [
                            -0.47488367557525635,
                            -0.23260481655597687,
                            -0.9230256080627441,
                            0.7830729484558105
                        ]
                    ],
                    [
                        0.0544414296746254,
                        0.001778329722583294,
                        0.00020287165534682572,
                        -0.001109147211536765
                    ]
                ]
            },
            {
                "type": "dense",
                "activation": "",
                "shape": [
                    null,
                    1
                ],
                "weights": [
                    [
                        [
                            -0.7459765672683716
                        ],
                        [
                            0.6547202467918396
                        ],
                        [
                            0.9684950709342957
                        ],
                        [
                            0.8291863203048706
                        ]
                    ],
                    [
                        -0.030341608449816704
                    ]
                ]
            }
        ]
    },
    "drive_45_40": {
        "in_shape": [
            null,
            6
        ],
        "layers": [
            {
                "type": "dense",
                "activation": "tanh",
                "shape": [
                    null,
                    4
                ],
                "weights": [
                    [
                        [
                            -0.5355474948883057,
                            1.1353092193603516,
                            -0.15886959433555603,
                            -0.23280708491802216
                        ],
                        [
                            0.16680289804935455,
                            0.19246602058410645,
                            -0.008362861350178719,
                            0.04112702235579491
                        ],
                        [
                            0.637371301651001,
                            0.9752544164657593,
                            -0.24050801992416382,
                            0.2969039976596832
                        ],
                        [
                            0.16046729683876038,
                            0.12143402546644211,
                            0.10042193531990051,
                            -0.010377615690231323
                        ],
                        [
                            0.21255123615264893,
                            0.06956109404563904,
                            0.3600001335144043,
                            0.038743626326322556
                        ],
                        [
                            0.516135573387146,
                            -0.022972237318754196,
                            -0.2183908075094223,
                            0.5554757118225098
                        ]
                    ],
                    [
                        -0.16000065207481384,
                        -0.02053091488778591,
                        -0.3422388732433319,
                        0.07855494320392609
                    ]
                ]
            },
            {
                "type": "dense",
                "activation": "tanh",
                "shape": [
                    null,
                    4
                ],
                "weights": [
                    [
                        [
                            -0.9446885585784912,
                            -0.32026517391204834,
                            -0.012274965643882751,
                            0.02331646904349327
                        ],
                        [
                            0.4825815260410309,
                            -0.29823392629623413,
                            -0.6108195185661316,
                            -0.47221505641937256
                        ],
                        [
                            0.7488853931427002,
                            -0.010210047475993633,
                            0.6736214756965637,
                            0.2359548658132553
                        ],
                        [
                            0.5236631631851196,
                            0.9977822303771973,
                            0.6119864583015442,
                            -0.31519660353660583
                        ]
                    ],
                    [
                        0.061355769634246826,
                        -0.005564442835748196,
                        0.05046091228723526,
                        0.056787509471178055
                    ]
                ]
            },
            {
                "type": "dense",
                "activation": "",
                "shape": [
                    null,
                    1
                ],
                "weights": [
                    [
                        [
                            1.2593382596969604
                        ],
                        [
                            -0.3451066315174103
                        ],
                        [
                            -0.8739133477210999
                        ],
                        [
                            0.5579604506492615
                        ]
                    ],
                    [
                        -0.02071952447295189
                    ]
                ]
            }
        ]
    },
    "drive_50_40": {
        "in_shape": [
            null,
            6
        ],
        "layers": [
            {
                "type": "dense",
                "activation": "tanh",
                "shape": [
                    null,
                    4
                ],
                "weights": [
                    [
                        [
                            0.42879700660705566,
                            0.12366947531700134,
                            0.4508926272392273,
                            -1.1188654899597168
                        ],
                        [
                            -0.07780371606349945,
                            0.03048422373831272,
                            -0.12404949963092804,
                            -0.20102699100971222
                        ],
                        [
                            -0.1496865451335907,
                            -0.17792096734046936,
                            -0.7464801669120789,
                            -0.21658025681972504
                        ],
                        [
                            -0.23925352096557617,
                            -0.11819572001695633,
                            -0.05265451967716217,
                            -0.13256767392158508
                        ],
                        [
                            0.35725560784339905,
                            0.2186814397573471,
                            -0.15333835780620575,
                            -0.07227228581905365
                        ],
                        [
                            -0.3881012499332428,
                            0.5326218008995056,
                            -0.39949849247932434,
                            -0.5629323124885559
                        ]
                    ],
                    [
                        -0.05938908830285072,
                        -0.18413759768009186,
                        0.1118224561214447,
                        0.05480543151497841
                    ]
                ]
            },
            {
                "type": "dense",
                "activation": "tanh",
                "shape": [
                    null,
                    4
                ],
                "weights": [
                    [
                        [
                            0.899415135383606,
                            0.613673746585846,
                            -0.37751948833465576,
                            -0.45866724848747253
                        ],
                        [
                            -0.7077710032463074,
                            -0.3084734082221985,
                            -0.45608702301979065,
                            0.34628206491470337
                        ],
                        [
                            -0.10167111456394196,
                            0.5689029693603516,
                            0.2244138866662979,
                            -0.7198662757873535
                        ],
                        [
                            -0.7414023280143738,
                            -0.5032510161399841,
                            -0.6603307127952576,
                            -0.6031683087348938
                        ]
                    ],
                    [
                        -0.0014710662653669715,
                        -0.07409842312335968,
                        -0.08536773175001144,
                        0.09660052508115768
                    ]
                ]
            },
            {
                "type": "dense",
                "activation": "",
                "shape": [
                    null,
                    1
                ],
                "weights": [
                    [
                        [
                            0.5351033806800842
                        ],
                        [
                            0.7010530233383179
                        ],
                        [
                            0.7357349991798401
                        ],
                        [
                            -0.4494468867778778
                        ]
                    ],
                    [
                        -0.029737461358308792
                    ]
                ]
            }
        ]
    },
    "drive_55_40": {
        "in_shape": [
            null,
            6
        ],
        "layers": [
            {
                "type": "dense",
                "activation": "tanh",
                "shape": [
                    null,
                    4
                ],
                "weights": [
                    [
                        [
                            0.7955259680747986,
                            0.6553401350975037,
                            0.7148205041885376,
                            -1.0763193368911743
                        ],
                        [
                            -0.19518694281578064,
                            -0.023017222061753273,
                            0.17920124530792236,
                            -0.23767730593681335
                        ],
                        [
                            -0.548386812210083,
                            0.7467023730278015,
                            0.4651619493961334,
                            -0.8230258226394653
                        ],
                        [
                            -0.18626607954502106,
                            -0.33139434456825256,
                            -0.06456712633371353,
                            -0.13522140681743622
                        ],
                        [
                            0.027178369462490082,
                            0.09101755172014236,
                            -0.6051655411720276,
                            -0.16773882508277893
                        ],
                        [
                            -0.8262102603912354,
                            -0.28122788667678833,
                            0.6811107993125916,
                            0.0007172280456870794
                        ]
                    ],
                    [
                        -0.010992240160703659,
                        -0.12798793613910675,
                        0.14116515219211578,
                        0.08503730595111847
                    ]
                ]
            },
            {
                "type": "dense",
                "activation": "tanh",
                "shape": [
                    null,
                    4
                ],
                "weights": [
                    [
                        [
                            0.5528401136398315,
                            -0.5596128702163696,
                            -0.7890610694885254,
                            -0.05397878587245941
                        ],
                        [
                            -0.2724437713623047,
                            0.3495302200317383,
                            -0.17234398424625397,
                            0.35546809434890747
                        ],
                        [
                            -0.5264086723327637,
                            -0.5685384273529053,
                            -0.14731356501579285,
                            -0.44058874249458313
                        ],
                        [
                            -0.3052818775177002,
                            0.48058009147644043,
                            -0.0009578366298228502,
                            0.8636301755905151
                        ]
                    ],
                    [
                        -0.07341416925191879,
                        -0.021265117451548576,
                        0.05044448375701904,
                        -0.12800638377666473
                    ]
                ]
            },
            {
                "type": "dense",
                "activation": "",
                "shape": [
                    null,
                    1
                ],
                "weights": [
                    [
                        [
                            0.7038133144378662
                        ],
                        [
                            -0.6662098169326782
                        ],
                        [
                            -0.533170223236084
                        ],
                        [
                            -0.28689250349998474
                        ]
                    ],
                    [
                        0.022708658128976822
                    ]
                ]
            }
        ]
    },
    "drive_60_40": {
        "in_shape": [
            null,
            6
        ],
        "layers": [
            {
                "type": "dense",
                "activation": "tanh",
                "shape": [
                    null,
                    4
                ],
                "weights": [
                    [
                        [
                            -0.12410265952348709,
                            0.4963436424732208,
                            1.313382625579834,
                            0.3467017710208893
                        ],
                        [
                            -0.1757693886756897,
                            -0.16433997452259064,
                            0.22893884778022766,
                            -0.18625515699386597
                        ],
                        [
                            0.37687453627586365,
                            -0.18430060148239136,
                            0.4348961114883423,
                            -0.4848596155643463
                        ],
                        [
                            0.11694863438606262,
                            -0.023634858429431915,
                            0.13244885206222534,
                            -0.053863681852817535
                        ],
                        [
                            0.12101034820079803,
                            -0.07543806731700897,
                            -0.06365737318992615,
                            0.1584494262933731
                        ],
                        [
                            0.09371999651193619,
                            -0.5074295401573181,
                            0.42464858293533325,
                            -0.8970399498939514
                        ]
                    ],
                    [
                        -0.005334852263331413,
                        -0.007097932044416666,
                        0.0746886283159256,
                        -0.13522736728191376
                    ]
                ]
            },
            {
                "type": "dense",
                "activation": "tanh",
                "shape": [
                    null,
                    4
                ],
                "weights": [
                    [
                        [
                            -0.16157664358615875,
                            -0.12903495132923126,
                            0.38819554448127747,
                            0.12200392037630081
                        ],
                        [
                            0.3281177580356598,
                            0.3052087128162384,
                            -0.7973719239234924,
                            -0.15105992555618286
                        ],
                        [
                            -0.024992359802126884,
                            -0.2856379747390747,
                            -0.6565431356430054,
                            -0.6152492165565491
                        ],
                        [
                            0.45763346552848816,
                            -0.45868629217147827,
                            0.19328510761260986,
                            -0.4552248418331146
                        ]
                    ],
                    [
                        0.030285276472568512,
                        -0.03033766709268093,
                        0.076158806681633,
                        -0.03692907094955444
                    ]
                ]
            },
            {
                "type": "dense",
                "activation": "",
                "shape": [
                    null,
                    1
                ],
                "weights": [
                    [
                        [
                            0.7805468440055847
                        ],
                        [
                            -0.25299638509750366
                        ],
                        [
                            -0.2948119044303894
                        ],
                        [
                            -0.8935135006904602
                        ]
                    ],
                    [
                        0.011530584655702114
                    ]
                ]
            }
        ]
    },
    "drive_65_40": {
        "in_shape": [
            null,
            6
        ],
        "layers": [
            {
                "type": "dense",
                "activation": "tanh",
                "shape": [
                    null,
                    4
                ],
                "weights": [
                    [
                        [
                            0.31635582447052,
                            0.39831745624542236,
                            0.40284982323646545,
                            0.9524330496788025
                        ],
                        [
                            -0.20107020437717438,
                            -0.24649633467197418,
                            -0.2194385677576065,
                            0.24902530014514923
                        ],
                        [
                            0.07781494408845901,
                            -0.36463600397109985,
                            -0.7425596714019775,
                            0.45869287848472595
                        ],
                        [
                            -0.11361163854598999,
                            -0.13574445247650146,
                            -0.13318493962287903,
                            0.1682543158531189
                        ],
                        [
                            -0.16006527841091156,
                            -0.29758158326148987,
                            -0.16370370984077454,
                            0.12085891515016556
                        ],
                        [
                            -0.8792915344238281,
                            -0.47692763805389404,
                            -0.7318353056907654,
                            0.5900551676750183
                        ]
                    ],
                    [
                        0.03701496869325638,
                        0.12078015506267548,
                        0.14463044703006744,
                        -0.11917326599359512
                    ]
                ]
            },
            {
                "type": "dense",
                "activation": "tanh",
                "shape": [
                    null,
                    4
                ],
                "weights": [
                    [
                        [
                            0.5622700452804565,
                            0.5017594695091248,
                            0.38523054122924805,
                            0.1937054842710495
                        ],
                        [
                            0.42450278997421265,
                            -0.39397144317626953,
                            0.484649658203125,
                            0.564140796661377
                        ],
                        [
                            0.9235205054283142,
                            0.6109948754310608,
                            0.16206759214401245,
                            -0.6501290202140808
                        ],
                        [
                            -0.06331222504377365,
                            0.6405875086784363,
                            -0.12676234543323517,
                            -0.40567880868911743
                        ]
                    ],
                    [
                        -0.05649779364466667,
                        -0.041051458567380905,
                        0.10481137037277222,
                        0.0021215544547885656
                    ]
                ]
            },
            {
                "type": "dense",
                "activation": "",
                "shape": [
                    null,
                    1
                ],
                "weights": [
                    [
                        [
                            -0.06771786510944366
                        ],
                        [
                            1.2339462041854858
                        ],
                        [
                            0.7793738842010498
                        ],
                        [
                            -1.045479416847229
                        ]
                    ],
                    [
                        -0.05017554759979248
                    ]
                ]
            }
        ]
    },
    "drive_70_40": {
        "in_shape": [
            null,
            6
        ],
        "layers": [
            {
                "type": "dense",
                "activation": "tanh",
                "shape": [
                    null,
                    4
                ],
                "weights": [
                    [
                        [
                            0.4517398476600647,
                            0.7737916111946106,
                            0.720051109790802,
                            -1.0546326637268066
                        ],
                        [
                            -0.0608234629034996,
                            -0.17996951937675476,
                            0.48271554708480835,
                            -0.21123860776424408
                        ],
                        [
                            -0.4081985056400299,
                            0.3905546963214874,
                            0.2729579508304596,
                            -0.03137172758579254
                        ],
                        [
                            -0.003350028768181801,
                            -0.3192784786224365,
                            0.5225890874862671,
                            -0.21910148859024048
                        ],
                        [
                            0.006441331468522549,
                            -0.47671061754226685,
                            0.19578449428081512,
                            -0.17664560675621033
                        ],
                        [
                            -0.8552447557449341,
                            -0.05220125988125801,
                            -0.09384246170520782,
                            -0.19659176468849182
                        ]
                    ],
                    [
                        0.04139485955238342,
                        0.03363713249564171,
                        -0.06974104791879654,
                        0.05088893696665764
                    ]
                ]
            },
            {
                "type": "dense",
                "activation": "tanh",
                "shape": [
                    null,
                    4
                ],
                "weights": [
                    [
                        [
                            1.0035829544067383,
                            0.5555636882781982,
                            -0.362627238035202,
                            0.49363523721694946
                        ],
                        [
                            0.15117259323596954,
                            0.3554156720638275,
                            0.6498613357543945,
                            -0.12202348560094833
                        ],
                        [
                            -0.3569864332675934,
                            0.1557726114988327,
                            0.42704060673713684,
                            -0.22140571475028992
                        ],
                        [
                            -0.08017493784427643,
                            -0.042596448212862015,
                            -0.9381043314933777,
                            -0.4293742775917053
                        ]
                    ],
                    [
                        0.04277897998690605,
                        -0.05252864956855774,
                        0.039250582456588745,
                        -0.020638855174183846
                    ]
                ]
            },
            {
                "type": "dense",
                "activation": "",
                "shape": [
                    null,
                    1
                ],
                "weights": [
                    [
                        [
                            0.5403130650520325
                        ],
                        [
                            0.15114563703536987
                        ],
                        [
                            0.4963011145591736
                        ],
                        [
                            1.1495157480239868
                        ]
                    ],
                    [
                        -0.025219453498721123
                    ]
                ]
            }
        ]
    },
    "drive_75_40": {
        "in_shape": [
            null,
            6
        ],
        "layers": [
            {
                "type": "dense",
                "activation": "tanh",
                "shape": [
                    null,
                    4
                ],
                "weights": [
                    [
                        [
                            -0.006930504459887743,
                            0.2622893452644348,
                            1.6563040018081665,
                            0.17581501603126526
                        ],
                        [
                            -0.05800595507025719,
                            -0.4843974709510803,
                            0.1356918215751648,
                            -0.1290389597415924
                        ],
                        [
                            -0.05645846202969551,
                            0.008904967457056046,
                            0.22823484241962433,
                            -0.8193575143814087
                        ],
                        [
                            -0.16726838052272797,
                            -0.8704617023468018,
                            0.16475778818130493,
                            -0.13885095715522766
                        ],
                        [
                            -0.13042204082012177,
                            -0.7189592123031616,
                            0.12533576786518097,
                            -0.09694191068410873
                        ],
                        [
                            1.0395525693893433,
                            0.33987194299697876,
                            0.24580608308315277,
                            -0.7595536708831787
                        ]
                    ],
                    [
                        -0.19826196134090424,
                        -0.21973413228988647,
                        0.005382388364523649,
                        0.060037802904844284
                    ]
                ]
            },
            {
                "type": "dense",
                "activation": "tanh",
                "shape": [
                    null,
                    4
                ],
                "weights": [
                    [
                        [
                            0.26788780093193054,
                            0.3065102994441986,
                            0.22413130104541779,
                            -0.19185388088226318
                        ],
                        [
                            -0.32291775941848755,
                            0.5074417591094971,
                            -0.6534034013748169,
                            -0.4170529544353485
                        ],
                        [
                            -0.3405502140522003,
                            -0.1338949352502823,
                            -1.0925002098083496,
                            -0.20931857824325562
                        ],
                        [
                            -0.6315291523933411,
                            0.11323711276054382,
                            0.09889927506446838,
                            0.20185428857803345
                        ]
                    ],
                    [
                        0.021725909784436226,
                        -0.06979357451200485,
                        0.07957672327756882,
                        -0.028499744832515717
                    ]
                ]
            },
            {
                "type": "dense",
                "activation": "",
                "shape": [
                    null,
                    1
                ],
                "weights": [
                    [
                        [
                            -1.0023576021194458
                        ],
                        [
                            -0.7180274724960327
                        ],
                        [
                            -0.44942307472229004
                        ],
                        [
                            0.12451984733343124
                        ]
                    ],
                    [
                        -0.0982443317770958
                    ]
                ]
            }
        ]
    },
    "drive_80_40": {
        "in_shape": [
            null,
            6
        ],
        "layers": [
            {
                "type": "dense",
                "activation": "tanh",
                "shape": [
                    null,
                    4
                ],
                "weights": [
                    [
                        [
                            -0.3824421763420105,
                            0.07492690533399582,
                            1.3744611740112305,
                            0.4299736022949219
                        ],
                        [
                            0.05216255411505699,
                            -0.002395481802523136,
                            0.19199077785015106,
                            -0.18858517706394196
                        ],
                        [
                            0.26361408829689026,
                            0.1311417520046234,
                            0.5440380573272705,
                            -0.9588801860809326
                        ],
                        [
                            0.010084524750709534,
                            -0.1620238721370697,
                            0.044934969395399094,
                            0.10956098884344101
                        ],
                        [
                            -0.22951416671276093,
                            -0.10995523631572723,
                            -0.0027680397033691406,
                            -0.15206167101860046
                        ],
                        [
                            0.9617934226989746,
                            -0.3975364863872528,
                            0.19965557754039764,
                            -0.042271096259355545
                        ]
                    ],
                    [
                        0.23275959491729736,
                        -0.02281848154962063,
                        0.01809818670153618,
                        0.1278400868177414
                    ]
                ]
            },
            {
                "type": "dense",
                "activation": "tanh",
                "shape": [
                    null,
                    4
                ],
                "weights": [
                    [
                        [
                            -0.0665835589170456,
                            0.426364541053772,
                            0.08720759302377701,
                            -0.6612757444381714
                        ],
                        [
                            0.32114896178245544,
                            -1.0658584833145142,
                            0.13989752531051636,
                            0.06860566139221191
                        ],
                        [
                            0.810529887676239,
                            -0.3466028869152069,
                            1.4189954996109009,
                            -0.27894678711891174
                        ],
                        [
                            0.11645467579364777,
                            -0.051057368516922,
                            0.6390224099159241,
                            0.2629207670688629
                        ]
                    ],
                    [
                        -0.020233703777194023,
                        -0.017479345202445984,
                        -0.009312925860285759,
                        0.050751831382513046
                    ]
                ]
            },
            {
                "type": "dense",
                "activation": "",
                "shape": [
                    null,
                    1
                ],
                "weights": [
                    [
                        [
                            0.16725602746009827
                        ],
                        [
                            -0.2968173027038574
                        ],
                        [
                            0.5384204387664795
                        ],
                        [
                            0.8563499450683594
                        ]
                    ],
                    [
                        0.03126605227589607
                    ]
                ]
            }
        ]
    },
    "drive_85_40": {
        "in_shape": [
            null,
            6
        ],
        "layers": [
            {
                "type": "dense",
                "activation": "tanh",
                "shape": [
                    null,
                    4
                ],
                "weights": [
                    [
                        [
                            -1.222373366355896,
                            -1.52847158908844,
                            -1.024649977684021,
                            0.3396429717540741
                        ],
                        [
                            -0.13983967900276184,
                            -0.07406551390886307,
                            -1.1189600229263306,
                            -0.08935925364494324
                        ],
                        [
                            0.04316352307796478,
                            -0.29166924953460693,
                            1.5401363372802734,
                            -0.3403799831867218
                        ],
                        [
                            -0.1806691735982895,
                            0.004516026936471462,
                            -1.38932466506958,
                            -0.05606343224644661
                        ],
                        [
                            -0.22564873099327087,
                            0.35800912976264954,
                            -0.04649351164698601,
                            0.0008929406176321208
                        ],
                        [
                            0.05468131601810455,
                            0.1245860680937767,
                            2.1034398078918457,
                            -0.9188845753669739
                        ]
                    ],
                    [
                        0.05554523691534996,
                        0.1083173155784607,
                        0.04828277975320816,
                        0.035487737506628036
                    ]
                ]
            },
            {
                "type": "dense",
                "activation": "tanh",
                "shape": [
                    null,
                    4
                ],
                "weights": [
                    [
                        [
                            -1.1766029596328735,
                            -0.042506907135248184,
                            -0.06853678077459335,
                            -0.3949529230594635
                        ],
                        [
                            -0.6767873764038086,
                            0.23765981197357178,
                            -0.19675572216510773,
                            -0.2101539969444275
                        ],
                        [
                            0.3291907012462616,
                            0.09148851782083511,
                            0.14524179697036743,
                            0.41216060519218445
                        ],
                        [
                            -0.21259203553199768,
                            0.19369009137153625,
                            0.7020835280418396,
                            -0.5221708416938782
                        ]
                    ],
                    [
                        0.14356592297554016,
                        -0.0076814633794128895,
                        -0.005906164180487394,
                        0.06592255085706711
                    ]
                ]
            },
            {
                "type": "dense",
                "activation": "",
                "shape": [
                    null,
                    1
                ],
                "weights": [
                    [
                        [
                            0.6847376227378845
                        ],
                        [
                            0.2703997492790222
                        ],
                        [
                            0.7100058197975159
                        ],
                        [
                            -0.740054190158844
                        ]
                    ],
                    [
                        0.0005961641436442733
                    ]
                ]
            }
        ]
    },
    "drive_90_40": {
        "in_shape": [
            null,
            6
        ],
        "layers": [
            {
                "type": "dense",
                "activation": "tanh",
                "shape": [
                    null,
                    4
                ],
                "weights": [
                    [
                        [
                            1.9512556791305542,
                            -0.08231236040592194,
                            0.15380388498306274,
                            0.20682074129581451
                        ],
                        [
                            0.14629891514778137,
                            0.13863155245780945,
                            -0.0016960944049060345,
                            0.14536677300930023
                        ],
                        [
                            0.388214111328125,
                            1.127846360206604,
                            0.3391440510749817,
                            0.0894303247332573
                        ],
                        [
                            0.1245628148317337,
                            0.11938764154911041,
                            -0.005729140248149633,
                            0.0160420760512352
                        ],
                        [
                            0.12742221355438232,
                            0.1857965588569641,
                            0.2918189465999603,
                            0.5608290433883667
                        ],
                        [
                            0.47675400972366333,
                            0.68951815366745,
                            -1.2576229572296143,
                            0.8907580375671387
                        ]
                    ],
                    [
                        -0.10090389102697372,
                        -0.14036226272583008,
                        -0.28247472643852234,
                        -0.47004392743110657
                    ]
                ]
            },
            {
                "type": "dense",
                "activation": "tanh",
                "shape": [
                    null,
                    4
                ],
                "weights": [
                    [
                        [
                            -0.3055291473865509,
                            0.307634562253952,
                            0.4336908161640167,
                            0.6000385880470276
                        ],
                        [
                            0.05563696473836899,
                            -0.03957938402891159,
                            -0.7110680937767029,
                            -0.4573573172092438
                        ],
                        [
                            -0.19448231160640717,
                            0.8975988626480103,
                            0.21004454791545868,
                            -0.33411648869514465
                        ],
                        [
                            0.40446075797080994,
                            0.13090145587921143,
                            -0.44274213910102844,
                            0.20153437554836273
                        ]
                    ],
                    [
                        -0.011009021662175655,
                        -0.03888881206512451,
                        0.08665253967046738,
                        -0.024179751053452492
                    ]
                ]
            },
            {
                "type": "dense",
                "activation": "",
                "shape": [
                    null,
                    1
                ],
                "weights": [
                    [
                        [
                            -0.2778497338294983
                        ],
                        [
                            0.4383617341518402
                        ],
                        [
                            0.46768105030059814
                        ],
                        [
                            0.5006884336471558
                        ]
                    ],
                    [
                        0.004710277076810598
                    ]
                ]
            }
        ]
    },
    "drive_95_40": {
        "in_shape": [
            null,
            6
        ],
        "layers": [
            {
                "type": "dense",
                "activation": "tanh",
                "shape": [
                    null,
                    4
                ],
                "weights": [
                    [
                        [
                            -0.5339764356613159,
                            -1.814692497253418,
                            0.7874847054481506,
                            0.5161499977111816
                        ],
                        [
                            -0.5250194072723389,
                            -0.20877040922641754,
                            -0.060666561126708984,
                            -0.14410841464996338
                        ],
                        [
                            -0.7670361995697021,
                            0.11134038865566254,
                            0.1063520759344101,
                            0.134346142411232
                        ],
                        [
                            -0.5198580026626587,
                            -0.20857089757919312,
                            -0.06884071975946426,
                            -0.18713219463825226
                        ],
                        [
                            0.0634714886546135,
                            0.21105094254016876,
                            0.23211370408535004,
                            0.22061267495155334
                        ],
                        [
                            0.1383775919675827,
                            -0.7344987392425537,
                            -0.9288185238838196,
                            0.8018501400947571
                        ]
                    ],
                    [
                        -0.04275015741586685,
                        0.0018744324333965778,
                        -0.1019599661231041,
                        -0.0935092568397522
                    ]
                ]
            },
            {
                "type": "dense",
                "activation": "tanh",
                "shape": [
                    null,
                    4
                ],
                "weights": [
                    [
                        [
                            0.7761574387550354,
                            -0.30003854632377625,
                            -0.3854576647281647,
                            -0.10467822849750519
                        ],
                        [
                            -0.023134464398026466,
                            -0.2857140004634857,
                            0.024951346218585968,
                            -0.8326762914657593
                        ],
                        [
                            0.10180717706680298,
                            -0.5638985633850098,
                            -0.818149209022522,
                            0.8584696650505066
                        ],
                        [
                            1.1193236112594604,
                            -0.5936422944068909,
                            0.4976944029331207,
                            0.759015679359436
                        ]
                    ],
                    [
                        -0.02796068601310253,
                        0.061603445559740067,
                        0.01643703319132328,
                        0.1775740534067154
                    ]
                ]
            },
            {
                "type": "dense",
                "activation": "",
                "shape": [
                    null,
                    1
                ],
                "weights": [
                    [
                        [
                            0.17979295551776886
                        ],
                        [
                            0.7331126928329468
                        ],
                        [
                            -1.0596905946731567
                        ],
                        [
                            0.4724579155445099
                        ]
                    ],
                    [
                        -0.041212182492017746
                    ]
                ]
            }
        ]
    },
    "drive_100_40": {
        "in_shape": [
            null,
            6
        ],
        "layers": [
            {
                "type": "dense",
                "activation": "tanh",
                "shape": [
                    null,
                    4
                ],
                "weights": [
                    [
                        [
                            0.2146870642900467,
                            -1.4289581775665283,
                            -1.4810503721237183,
                            -1.087410569190979
                        ],
                        [
                            0.00699504604563117,
                            0.4485401511192322,
                            -0.4935612976551056,
                            -0.06841990351676941
                        ],
                        [
                            -0.06827328354120255,
                            -0.1701754629611969,
                            -0.032324910163879395,
                            0.22965697944164276
                        ],
                        [
                            0.0056181009858846664,
                            0.5425955653190613,
                            -0.5276073813438416,
                            -0.08937664330005646
                        ],
                        [
                            0.13365180790424347,
                            0.22688350081443787,
                            0.005634392611682415,
                            -0.10657552629709244
                        ],
                        [
                            1.2196160554885864,
                            -0.7696275115013123,
                            -0.2950804829597473,
                            -0.025064177811145782
                        ]
                    ],
                    [
                        -0.19069185853004456,
                        -0.14430934190750122,
                        -0.06996804475784302,
                        0.03854626789689064
                    ]
                ]
            },
            {
                "type": "dense",
                "activation": "tanh",
                "shape": [
                    null,
                    4
                ],
                "weights": [
                    [
                        [
                            0.5600925087928772,
                            -0.043105777353048325,
                            -0.5789423584938049,
                            0.2989666759967804
                        ],
                        [
                            -0.46989133954048157,
                            0.7219911217689514,
                            -0.5149968862533569,
                            0.7521282434463501
                        ],
                        [
                            -0.551065981388092,
                            0.6618140339851379,
                            -0.0045774648897349834,
                            -0.25711289048194885
                        ],
                        [
                            0.8319326043128967,
                            0.9922284483909607,
                            0.22351807355880737,
                            0.30880358815193176
                        ]
                    ],
                    [
                        0.0900629460811615,
                        0.06070683151483536,
                        -0.06102187931537628,
                        -0.13913178443908691
                    ]
                ]
            },
            {
                "type": "dense",
                "activation": "",
                "shape": [
                    null,
                    1
                ],
                "weights": [
                    [
                        [
                            -0.8728247284889221
                        ],
                        [
                            -0.6459357738494873
                        ],
                        [
                            0.4681403338909149
                        ],
                        [
                            0.168213352560997
                        ]
                    ],
                    [
                        0.06321924924850464
                    ]
                ]
            }
        ]
    }
}