{
    "drive_0_10": {
        "in_shape": [
            null,
            6
        ],
        "layers": [
            {
                "type": "dense",
                "activation": "tanh",
                "shape": [
                    null,
                    4
                ],
                "weights": [
                    [
                        [
                            -0.014164972119033337,
                            0.7277705073356628,
                            -0.4441777765750885,
                            1.8167880773544312
                        ],
                        [
                            -0.5538052320480347,
                            -0.06619643419981003,
                            0.2700023651123047,
                            0.26765894889831543
                        ],
                        [
                            -0.6853868961334229,
                            0.5196882486343384,
                            0.4619567096233368,
                            0.575291097164154
                        ],
                        [
                            -0.4991254210472107,
                            -0.07168345898389816,
                            0.22612257301807404,
                            0.2585265636444092
                        ],
                        [
                            0.061807844787836075,
                            -0.326212614774704,
                            -0.2754618525505066,
                            0.035063184797763824
                        ],
                        [
                            0.28255409002304077,
                            -0.5615430474281311,
                            -0.4442777633666992,
                            -0.5064718127250671
                        ]
                    ],
                    [
                        -0.004896319005638361,
                        0.39861807227134705,
                        0.3192943334579468,
                        -0.04801371321082115
                    ]
                ]
            },
            {
                "type": "dense",
                "activation": "tanh",
                "shape": [
                    null,
                    4
                ],
                "weights": [
                    [
                        [
                            0.4700790047645569,
                            0.6176971197128296,
                            0.2228543758392334,
                            1.929591178894043
                        ],
                        [
                            -0.018536891788244247,
                            0.3188098073005676,
                            0.8561349511146545,
                            -1.0147068500518799
                        ],
                        [
                            0.5620241761207581,
                            1.5076004266738892,
                            -2.010512113571167,
                            0.45514577627182007
                        ],
                        [
                            -0.0096244215965271,
                            0.5491058230400085,
                            -0.703072190284729,
                            1.233776569366455
                        ]
                    ],
                    [
                        -0.1003819927573204,
                        0.2951115071773529,
                        0.15161816775798798,
                        -0.14256279170513153
                    ]
                ]
            },
            {
                "type": "dense",
                "activation": "",
                "shape": [
                    null,
                    1
                ],
                "weights": [
                    [
                        [
                            0.7285691499710083
                        ],
                        [
                            1.3697288036346436
                        ],
                        [
                            -1.4239027500152588
                        ],
                        [
                            2.6662681102752686
                        ]
                    ],
                    [
                        -0.022527992725372314
                    ]
                ]
            }
        ]
    },
    "drive_5_10": {
        "in_shape": [
            null,
            6
        ],
        "layers": [
            {
                "type": "dense",
                "activation": "tanh",
                "shape": [
                    null,
                    4
                ],
                "weights": [
                    [
                        [
                            0.6479032039642334,
                            -0.8540375232696533,
                            0.9641156196594238,
                            -0.6669855117797852
                        ],
                        [
                            0.6814599633216858,
                            0.3549230694770813,
                            -0.7914683818817139,
                            -1.3367750644683838
                        ],
                        [
                            0.8885976076126099,
                            0.03427841141819954,
                            -0.09640711545944214,
                            -0.0449543222784996
                        ],
                        [
                            0.6439452767372131,
                            0.3209162652492523,
                            -0.7379850149154663,
                            -1.3188011646270752
                        ],
                        [
                            0.19902800023555756,
                            0.3467426002025604,
                            -0.555540144443512,
                            -0.07285848259925842
                        ],
                        [
                            -0.7463325262069702,
                            -0.2664525806903839,
                            -0.30153292417526245,
                            0.38065409660339355
                        ]
                    ],
                    [
                        -0.06387340277433395,
                        -0.4152202308177948,
                        -0.36183103919029236,
                        -0.06738825142383575
                    ]
                ]
            },
            {
                "type": "dense",
                "activation": "tanh",
                "shape": [
                    null,
                    4
                ],
                "weights": [
                    [
                        [
                            0.45602700114250183,
                            -0.009089265950024128,
                            -1.5784375667572021,
                            0.573472261428833
                        ],
                        [
                            -0.7479218244552612,
                            0.05808340013027191,
                            1.9044698476791382,
                            1.1980817317962646
                        ],
                        [
                            0.4818201959133148,
                            -0.02774987369775772,
                            -0.8551734685897827,
                            0.5206010341644287
                        ],
                        [
                            0.6575024724006653,
                            -0.7597233057022095,
                            0.6758911609649658,
                            0.5365869998931885
                        ]
                    ],
                    [
                        -0.12269359081983566,
                        -0.18114492297172546,
                        -0.22565314173698425,
                        0.07415635883808136
                    ]
                ]
            },
            {
                "type": "dense",
                "activation": "",
                "shape": [
                    null,
                    1
                ],
                "weights": [
                    [
                        [
                            -0.7538323402404785
                        ],
                        [
                            -1.0508006811141968
                        ],
                        [
                            -0.9025957584381104
                        ],
                        [
                            1.321113109588623
                        ]
                    ],
                    [
                        0.06963581591844559
                    ]
                ]
            }
        ]
    },
    "drive_10_10": {
        "in_shape": [
            null,
            6
        ],
        "layers": [
            {
                "type": "dense",
                "activation": "tanh",
                "shape": [
                    null,
                    4
                ],
                "weights": [
                    [
                        [
                            -0.15935124456882477,
                            1.9146732091903687,
                            -0.5859736800193787,
                            -0.40702879428863525
                        ],
                        [
                            -0.14685755968093872,
                            0.23867422342300415,
                            0.4472428262233734,
                            -0.8093739748001099
                        ],
                        [
                            -0.7397961020469666,
                            0.7239329814910889,
                            0.510549008846283,
                            -0.14978249371051788
                        ],
                        [
                            -0.12044533342123032,
                            0.23759345710277557,
                            0.3640892505645752,
                            -0.7300673723220825
                        ],
                        [
                            0.032150860875844955,
                            -0.0231053214520216,
                            0.1029541939496994,
                            -0.19669638574123383
                        ],
                        [
                            0.18252503871917725,
                            -0.4692915678024292,
                            -0.6001955270767212,
                            0.4550023674964905
                        ]
                    ],
                    [
                        -0.008324681781232357,
                        0.013237298466265202,
                        -0.06081518530845642,
                        0.21210144460201263
                    ]
                ]
            },
            {
                "type": "dense",
                "activation": "tanh",
                "shape": [
                    null,
                    4
                ],
                "weights": [
                    [
                        [
                            -0.26672524213790894,
                            -1.2552247047424316,
                            0.23252934217453003,
                            -1.1303342580795288
                        ],
                        [
                            0.5689043998718262,
                            -1.1562609672546387,
                            -0.09086006134748459,
                            -0.7811828255653381
                        ],
                        [
                            -0.9169223308563232,
                            -0.24878089129924774,
                            0.6572195887565613,
                            -1.261553406715393
                        ],
                        [
                            0.29553312063217163,
                            -1.4202592372894287,
                            -0.07588571310043335,
                            0.5839036107063293
                        ]
                    ],
                    [
                        0.27501046657562256,
                        0.0652717798948288,
                        0.036512427031993866,
                        0.1044090986251831
                    ]
                ]
            },
            {
                "type": "dense",
                "activation": "",
                "shape": [
                    null,
                    1
                ],
                "weights": [
                    [
                        [
                            -0.10542712360620499
                        ],
                        [
                            -2.431438684463501
                        ],
                        [
                            1.0013283491134644
                        ],
                        [
                            -1.7795636653900146
                        ]
                    ],
                    [
                        0.05799458920955658
                    ]
                ]
            }
        ]
    },
    "drive_15_10": {
        "in_shape": [
            null,
            6
        ],
        "layers": [
            {
                "type": "dense",
                "activation": "tanh",
                "shape": [
                    null,
                    4
                ],
                "weights": [
                    [
                        [
                            1.0845307111740112,
                            -1.5084469318389893,
                            1.917643666267395,
                            -0.0584467351436615
                        ],
                        [
                            0.03708028793334961,
                            -0.9359143972396851,
                            0.11719336360692978,
                            -0.027846982702612877
                        ],
                        [
                            0.24405556917190552,
                            -1.1478097438812256,
                            0.4540140926837921,
                            -0.07336363941431046
                        ],
                        [
                            0.05549969896674156,
                            -0.8715126514434814,
                            0.13499686121940613,
                            -0.022540926933288574
                        ],
                        [
                            -0.0024327696301043034,
                            -0.0874955803155899,
                            0.024104289710521698,
                            -0.01878749020397663
                        ],
                        [
                            -0.5528916716575623,
                            -1.7184624671936035,
                            -0.3185206949710846,
                            -0.4093758463859558
                        ]
                    ],
                    [
                        0.0025360709987580776,
                        0.0711175724864006,
                        -0.029887961223721504,
                        0.034189339727163315
                    ]
                ]
            },
            {
                "type": "dense",
                "activation": "tanh",
                "shape": [
                    null,
                    4
                ],
                "weights": [
                    [
                        [
                            -2.102022409439087,
                            -0.6972019672393799,
                            -0.7926256656646729,
                            0.2218710035085678
                        ],
                        [
                            -1.5320165157318115,
                            1.5525879859924316,
                            0.32271263003349304,
                            0.5008713006973267
                        ],
                        [
                            0.2932034730911255,
                            0.49461302161216736,
                            1.14371657371521,
                            0.9481056332588196
                        ],
                        [
                            1.4290239810943604,
                            0.12056724727153778,
                            1.0136936902999878,
                            1.206849455833435
                        ]
                    ],
                    [
                        -0.03412219136953354,
                        0.0222922470420599,
                        -0.001126389717683196,
                        0.025353388860821724
                    ]
                ]
            },
            {
                "type": "dense",
                "activation": "",
                "shape": [
                    null,
                    1
                ],
                "weights": [
                    [
                        [
                            2.321536064147949
                        ],
                        [
                            1.4527533054351807
                        ],
                        [
                            3.2923941612243652
                        ],
                        [
                            0.7111857533454895
                        ]
                    ],
                    [
                        -0.04518495500087738
                    ]
                ]
            }
        ]
    },
    "drive_20_10": {
        "in_shape": [
            null,
            6
        ],
        "layers": [
            {
                "type": "dense",
                "activation": "tanh",
                "shape": [
                    null,
                    4
                ],
                "weights": [
                    [
                        [
                            2.202357769012451,
                            0.33080151677131653,
                            0.15117058157920837,
                            0.1251360923051834
                        ],
                        [
                            0.6066474318504333,
                            0.46004390716552734,
                            -0.16046065092086792,
                            1.0012421607971191
                        ],
                        [
                            1.0250624418258667,
                            -0.4595261216163635,
                            -0.830773115158081,
                            -0.14672860503196716
                        ],
                        [
                            0.5175259709358215,
                            0.4405547082424164,
                            -0.0969613716006279,
                            0.993245542049408
                        ],
                        [
                            -0.043190959841012955,
                            -0.8986713290214539,
                            0.44487959146499634,
                            0.909767210483551
                        ],
                        [
                            -0.4183058440685272,
                            -0.2520587742328644,
                            -0.3069131672382355,
                            -0.4383535087108612
                        ]
                    ],
                    [
                        0.02509928308427334,
                        0.2958498001098633,
                        -0.2835928201675415,
                        -0.4969819486141205
                    ]
                ]
            },
            {
                "type": "dense",
                "activation": "tanh",
                "shape": [
                    null,
                    4
                ],
                "weights": [
                    [
                        [
                            -1.2107256650924683,
                            -0.49145743250846863,
                            -0.090008445084095,
                            0.056105442345142365
                        ],
                        [
                            -0.6878652572631836,
                            0.7618919014930725,
                            -1.473498821258545,
                            -0.16159263253211975
                        ],
                        [
                            -1.524193286895752,
                            -0.696231484413147,
                            0.7903229594230652,
                            0.863284707069397
                        ],
                        [
                            -0.07589750736951828,
                            -1.3215947151184082,
                            0.7420888543128967,
                            -0.8077579140663147
                        ]
                    ],
                    [
                        0.02859855629503727,
                        -0.1446027308702469,
                        0.050663843750953674,
                        0.10390322655439377
                    ]
                ]
            },
            {
                "type": "dense",
                "activation": "",
                "shape": [
                    null,
                    1
                ],
                "weights": [
                    [
                        [
                            -0.9029868245124817
                        ],
                        [
                            -0.8487634658813477
                        ],
                        [
                            -0.6632429957389832
                        ],
                        [
                            1.8822617530822754
                        ]
                    ],
                    [
                        -0.02423500083386898
                    ]
                ]
            }
        ]
    },
    "drive_25_10": {
        "in_shape": [
            null,
            6
        ],
        "layers": [
            {
                "type": "dense",
                "activation": "tanh",
                "shape": [
                    null,
                    4
                ],
                "weights": [
                    [
                        [
                            -0.6805403232574463,
                            1.488237738609314,
                            -0.28386086225509644,
                            0.1481386423110962
                        ],
                        [
                            -0.08034204691648483,
                            0.3248485028743744,
                            -0.17009146511554718,
                            -0.8418727517127991
                        ],
                        [
                            0.11564715951681137,
                            1.3975145816802979,
                            -0.5456154346466064,
                            0.2540399730205536
                        ],
                        [
                            -0.2416655421257019,
                            0.2787887752056122,
                            -0.1331259161233902,
                            -0.8345648646354675
                        ],
                        [
                            -0.3570381700992584,
                            0.0574466735124588,
                            -0.015857074409723282,
                            0.6234919428825378
                        ],
                        [
                            0.5241797566413879,
                            -0.47352755069732666,
                            -0.14456166326999664,
                            0.061949267983436584
                        ]
                    ],
                    [
                        0.016721054911613464,
                        -0.029323264956474304,
                        -0.004644730594009161,
                        -0.13292495906352997
                    ]
                ]
            },
            {
                "type": "dense",
                "activation": "tanh",
                "shape": [
                    null,
                    4
                ],
                "weights": [
                    [
                        [
                            0.03038187325000763,
                            0.6107088327407837,
                            0.31380265951156616,
                            -0.10750377923250198
                        ],
                        [
                            0.4804863929748535,
                            0.47942686080932617,
                            -0.5601279735565186,
                            0.7486202120780945
                        ],
                        [
                            0.37978890538215637,
                            0.9106249809265137,
                            -1.0016610622406006,
                            1.253434658050537
                        ],
                        [
                            -0.6057886481285095,
                            0.6212875843048096,
                            0.19142696261405945,
                            -0.29400667548179626
                        ]
                    ],
                    [
                        -0.004046326968818903,
                        -0.002548852236941457,
                        0.033336590975522995,
                        0.08095747232437134
                    ]
                ]
            },
            {
                "type": "dense",
                "activation": "",
                "shape": [
                    null,
                    1
                ],
                "weights": [
                    [
                        [
                            0.273640513420105
                        ],
                        [
                            1.7913419008255005
                        ],
                        [
                            -1.4127190113067627
                        ],
                        [
                            1.9280215501785278
                        ]
                    ],
                    [
                        0.020159708335995674
                    ]
                ]
            }
        ]
    },
    "drive_30_10": {
        "in_shape": [
            null,
            6
        ],
        "layers": [
            {
                "type": "dense",
                "activation": "tanh",
                "shape": [
                    null,
                    4
                ],
                "weights": [
                    [
                        [
                            0.17821715772151947,
                            0.8075008392333984,
                            0.496785044670105,
                            -0.1185985580086708
                        ],
                        [
                            0.36032021045684814,
                            0.19127832353115082,
                            1.0141881704330444,
                            -0.7982591390609741
                        ],
                        [
                            0.07123351842164993,
                            0.11436694115400314,
                            -0.31180304288864136,
                            -0.007060730364173651
                        ],
                        [
                            0.3223475515842438,
                            0.25976046919822693,
                            1.0030086040496826,
                            -0.767702043056488
                        ],
                        [
                            0.2892768681049347,
                            -1.2975902557373047,
                            0.3828679621219635,
                            0.09881709516048431
                        ],
                        [
                            -0.7804439663887024,
                            0.8758543729782104,
                            1.0140923261642456,
                            -1.0531152486801147
                        ]
                    ],
                    [
                        -0.4266873002052307,
                        0.3807552754878998,
                        0.8146555423736572,
                        1.0265600681304932
                    ]
                ]
            },
            {
                "type": "dense",
                "activation": "tanh",
                "shape": [
                    null,
                    4
                ],
                "weights": [
                    [
                        [
                            -1.3096938133239746,
                            -1.025359869003296,
                            0.3602513372898102,
                            -0.40036430954933167
                        ],
                        [
                            -0.9595375061035156,
                            -0.1929815411567688,
                            0.6760857105255127,
                            -0.28289076685905457
                        ],
                        [
                            1.9989628791809082,
                            -0.9123879075050354,
                            -0.8455283641815186,
                            -0.6317168474197388
                        ],
                        [
                            0.13517062366008759,
                            -1.8092108964920044,
                            2.6082935333251953,
                            -0.14925424754619598
                        ]
                    ],
                    [
                        0.25988584756851196,
                        -0.15872442722320557,
                        0.21841496229171753,
                        -0.04698771983385086
                    ]
                ]
            },
            {
                "type": "dense",
                "activation": "",
                "shape": [
                    null,
                    1
                ],
                "weights": [
                    [
                        [
                            -1.3557509183883667
                        ],
                        [
                            -1.546462893486023
                        ],
                        [
                            -0.38714098930358887
                        ],
                        [
                            -0.33621707558631897
                        ]
                    ],
                    [
                        0.036322712898254395
                    ]
                ]
            }
        ]
    },
    "drive_35_10": {
        "in_shape": [
            null,
            6
        ],
        "layers": [
            {
                "type": "dense",
                "activation": "tanh",
                "shape": [
                    null,
                    4
                ],
                "weights": [
                    [
                        [
                            0.8787044882774353,
                            0.0770551785826683,
                            0.4044954776763916,
                            -0.37616926431655884
                        ],
                        [
                            0.465563029050827,
                            0.4505437910556793,
                            -0.26085472106933594,
                            0.5195449590682983
                        ],
                        [
                            -0.8009070754051208,
                            0.1993938386440277,
                            -0.3066778779029846,
                            1.0509799718856812
                        ],
                        [
                            0.4882068634033203,
                            0.4021742641925812,
                            -0.2692417502403259,
                            0.41685521602630615
                        ],
                        [
                            -0.01868230290710926,
                            -0.07275979965925217,
                            -0.016123156994581223,
                            -0.1129181906580925
                        ],
                        [
                            1.0420228242874146,
                            0.11987360566854477,
                            -0.6939356923103333,
                            -0.6139419674873352
                        ]
                    ],
                    [
                        0.019706666469573975,
                        0.07089932262897491,
                        0.027770593762397766,
                        0.10833995789289474
                    ]
                ]
            },
            {
                "type": "dense",
                "activation": "tanh",
                "shape": [
                    null,
                    4
                ],
                "weights": [
                    [
                        [
                            0.8491780757904053,
                            -1.3922371864318848,
                            -0.49820676445961,
                            -0.603477954864502
                        ],
                        [
                            -1.1138297319412231,
                            -0.8998093605041504,
                            -0.04261559247970581,
                            0.991088330745697
                        ],
                        [
                            0.35430458188056946,
                            0.8624328970909119,
                            -0.643034040927887,
                            -0.05210373178124428
                        ],
                        [
                            0.594811737537384,
                            0.39733460545539856,
                            0.7304614782333374,
                            -0.5794663429260254
                        ]
                    ],
                    [
                        0.013673068955540657,
                        -0.018775485455989838,
                        0.005002297926694155,
                        0.01537351030856371
                    ]
                ]
            },
            {
                "type": "dense",
                "activation": "",
                "shape": [
                    null,
                    1
                ],
                "weights": [
                    [
                        [
                            3.2930409908294678
                        ],
                        [
                            0.6898475289344788
                        ],
                        [
                            -0.32789960503578186
                        ],
                        [
                            -3.141543388366699
                        ]
                    ],
                    [
                        -0.006066815461963415
                    ]
                ]
            }
        ]
    },
    "drive_40_10": {
        "in_shape": [
            null,
            6
        ],
        "layers": [
            {
                "type": "dense",
                "activation": "tanh",
                "shape": [
                    null,
                    4
                ],
                "weights": [
                    [
                        [
                            -0.5456295609474182,
                            0.08352325111627579,
                            -0.5451585054397583,
                            -1.7511589527130127
                        ],
                        [
                            -0.07835643738508224,
                            -0.14324906468391418,
                            0.1740388125181198,
                            -0.21807625889778137
                        ],
                        [
                            -0.043827805668115616,
                            -0.752217710018158,
                            0.7740560173988342,
                            -0.86005038022995
                        ],
                        [
                            -0.09031704068183899,
                            0.11386237293481827,
                            0.41481053829193115,
                            -0.17106927931308746
                        ],
                        [
                            0.02997586503624916,
                            0.22583778202533722,
                            0.5107970237731934,
                            0.04364177584648132
                        ],
                        [
                            -0.060358092188835144,
                            -0.4082236588001251,
                            -0.5023112297058105,
                            0.4958608150482178
                        ]
                    ],
                    [
                        -0.04774540290236473,
                        -0.19213657081127167,
                        -0.1873302161693573,
                        -0.054504577070474625
                    ]
                ]
            },
            {
                "type": "dense",
                "activation": "tanh",
                "shape": [
                    null,
                    4
                ],
                "weights": [
                    [
                        [
                            0.8753893375396729,
                            -0.7982308268547058,
                            -0.6420861482620239,
                            -0.5650619864463806
                        ],
                        [
                            0.7473918199539185,
                            0.21994006633758545,
                            0.21853803098201752,
                            -0.15441735088825226
                        ],
                        [
                            -0.27847766876220703,
                            -0.3162311911582947,
                            -0.17493464052677155,
                            0.5180489420890808
                        ],
                        [
                            -0.86040860414505,
                            0.2014608383178711,
                            -0.4046941101551056,
                            0.6518296003341675
                        ]
                    ],
                    [
                        0.15060852468013763,
                        0.08538252115249634,
                        -0.07109452784061432,
                        -0.0035236175172030926
                    ]
                ]
            },
            {
                "type": "dense",
                "activation": "",
                "shape": [
                    null,
                    1
                ],
                "weights": [
                    [
                        [
                            1.995033621788025
                        ],
                        [
                            -1.5200483798980713
                        ],
                        [
                            -0.482212096452713
                        ],
                        [
                            -1.0924471616744995
                        ]
                    ],
                    [
                        -0.03209888935089111
                    ]
                ]
            }
        ]
    },
    "drive_45_10": {
        "in_shape": [
            null,
            6
        ],
        "layers": [
            {
                "type": "dense",
                "activation": "tanh",
                "shape": [
                    null,
                    4
                ],
                "weights": [
                    [
                        [
                            -1.186569333076477,
                            -0.5506260395050049,
                            -0.1873447299003601,
                            0.023288147523999214
                        ],
                        [
                            -0.07033416628837585,
                            -0.02242494374513626,
                            0.1749037653207779,
                            -0.07316818088293076
                        ],
                        [
                            -0.30604636669158936,
                            0.31320154666900635,
                            0.49590960144996643,
                            0.40457525849342346
                        ],
                        [
                            -0.08026376366615295,
                            -0.033967502415180206,
                            0.09720100462436676,
                            -0.02889409288764
                        ],
                        [
                            0.01051916554570198,
                            -0.18863190710544586,
                            -0.18515413999557495,
                            -0.18237532675266266
                        ],
                        [
                            0.1568557471036911,
                            -0.09634077548980713,
                            0.19043347239494324,
                            -0.09652583301067352
                        ]
                    ],
                    [
                        -0.008276787586510181,
                        0.18819871544837952,
                        0.17991873621940613,
                        0.18626102805137634
                    ]
                ]
            },
            {
                "type": "dense",
                "activation": "tanh",
                "shape": [
                    null,
                    4
                ],
                "weights": [
                    [
                        [
                            0.36185723543167114,
                            -0.6185279488563538,
                            -0.7402234673500061,
                            0.43747541308403015
                        ],
                        [
                            -1.071690320968628,
                            0.8181582689285278,
                            0.8513438701629639,
                            0.13789983093738556
                        ],
                        [
                            -0.5123516321182251,
                            -0.593994140625,
                            -0.7035079002380371,
                            0.851720929145813
                        ],
                        [
                            0.549710214138031,
                            -0.5549070239067078,
                            -0.6113429069519043,
                            -0.05626560002565384
                        ]
                    ],
                    [
                        -0.01982063427567482,
                        0.002331092255190015,
                        -0.01255541481077671,
                        0.02550211362540722
                    ]
                ]
            },
            {
                "type": "dense",
                "activation": "",
                "shape": [
                    null,
                    1
                ],
                "weights": [
                    [
                        [
                            -2.3514764308929443
                        ],
                        [
                            1.9068564176559448
                        ],
                        [
                            1.8357832431793213
                        ],
                        [
                            -1.4017564058303833
                        ]
                    ],
                    [
                        0.01860257238149643
                    ]
                ]
            }
        ]
    },
    "drive_50_10": {
        "in_shape": [
            null,
            6
        ],
        "layers": [
            {
                "type": "dense",
                "activation": "tanh",
                "shape": [
                    null,
                    4
                ],
                "weights": [
                    [
                        [
                            0.9497717022895813,
                            -0.7342759966850281,
                            -0.5425835251808167,
                            -0.3444538414478302
                        ],
                        [
                            0.22144418954849243,
                            -0.12555426359176636,
                            0.18400636315345764,
                            0.10984784364700317
                        ],
                        [
                            0.6108322739601135,
                            0.09391682595014572,
                            0.4777061343193054,
                            0.001535244402475655
                        ],
                        [
                            0.2169104665517807,
                            0.1546345055103302,
                            0.14046187698841095,
                            0.0467626191675663
                        ],
                        [
                            -0.1294366866350174,
                            -0.3801443874835968,
                            -0.06714964658021927,
                            -0.050151240080595016
                        ],
                        [
                            0.2075377106666565,
                            0.1399843394756317,
                            0.6785399317741394,
                            -0.4559245705604553
                        ]
                    ],
                    [
                        0.0675438940525055,
                        -0.11399790644645691,
                        0.1047748550772667,
                        0.2702798545360565
                    ]
                ]
            },
            {
                "type": "dense",
                "activation": "tanh",
                "shape": [
                    null,
                    4
                ],
                "weights": [
                    [
                        [
                            0.18372993171215057,
                            0.7650313973426819,
                            -0.6087663173675537,
                            0.22915883362293243
                        ],
                        [
                            -0.4740299582481384,
                            -0.8705341219902039,
                            -0.004638340789824724,
                            -0.304110586643219
                        ],
                        [
                            0.0001454834855394438,
                            -0.1302993893623352,
                            0.7776390314102173,
                            0.706395149230957
                        ],
                        [
                            -0.06626168638467789,
                            -0.683445155620575,
                            -0.28223875164985657,
                            -0.0024885088205337524
                        ]
                    ],
                    [
                        -0.028427600860595703,
                        -0.00011931405606446788,
                        -0.008442390710115433,
                        -0.024457043036818504
                    ]
                ]
            },
            {
                "type": "dense",
                "activation": "",
                "shape": [
                    null,
                    1
                ],
                "weights": [
                    [
                        [
                            -0.09182004630565643
                        ],
                        [
                            0.38714614510536194
                        ],
                        [
                            -1.6101224422454834
                        ],
                        [
                            -0.4561985433101654
                        ]
                    ],
                    [
                        -0.005215188954025507
                    ]
                ]
            }
        ]
    },
    "drive_55_10": {
        "in_shape": [
            null,
            6
        ],
        "layers": [
            {
                "type": "dense",
                "activation": "tanh",
                "shape": [
                    null,
                    4
                ],
                "weights": [
                    [
                        [
                            2.2980525493621826,
                            0.06658130139112473,
                            1.0156019926071167,
                            0.4058871567249298
                        ],
                        [
                            1.2791612148284912,
                            -0.6603415012359619,
                            -0.06615833193063736,
                            0.09828463941812515
                        ],
                        [
                            0.00877719558775425,
                            0.9851806163787842,
                            -0.1575460135936737,
                            0.6163077354431152
                        ],
                        [
                            1.2755991220474243,
                            -0.6852128505706787,
                            -0.04683845490217209,
                            0.07548744976520538
                        ],
                        [
                            1.0593986511230469,
                            0.22664278745651245,
                            -0.3347811996936798,
                            0.6111155152320862
                        ],
                        [
                            -2.5384089946746826,
                            -0.3525122106075287,
                            -0.7282330393791199,
                            -0.3241055905818939
                        ]
                    ],
                    [
                        0.5146361589431763,
                        0.13087837398052216,
                        0.09513478726148605,
                        0.02958340011537075
                    ]
                ]
            },
            {
                "type": "dense",
                "activation": "tanh",
                "shape": [
                    null,
                    4
                ],
                "weights": [
                    [
                        [
                            0.9917628765106201,
                            0.6972110867500305,
                            -1.0832680463790894,
                            0.041243214160203934
                        ],
                        [
                            0.21957997977733612,
                            1.5477412939071655,
                            -0.5786347389221191,
                            0.3585245609283447
                        ],
                        [
                            -0.09285671263933182,
                            -1.3462055921554565,
                            1.8824526071548462,
                            0.6275601983070374
                        ],
                        [
                            0.02761615812778473,
                            0.4301612079143524,
                            0.9742706418037415,
                            0.0605306476354599
                        ]
                    ],
                    [
                        0.2990711033344269,
                        0.5474225878715515,
                        -0.29327163100242615,
                        0.13128948211669922
                    ]
                ]
            },
            {
                "type": "dense",
                "activation": "",
                "shape": [
                    null,
                    1
                ],
                "weights": [
                    [
                        [
                            0.9498743414878845
                        ],
                        [
                            0.38043898344039917
                        ],
                        [
                            1.1042791604995728
                        ],
                        [
                            -0.4899248480796814
                        ]
                    ],
                    [
                        -0.13838881254196167
                    ]
                ]
            }
        ]
    },
    "drive_60_10": {
        "in_shape": [
            null,
            6
        ],
        "layers": [
            {
                "type": "dense",
                "activation": "tanh",
                "shape": [
                    null,
                    4
                ],
                "weights": [
                    [
                        [
                            1.4569400548934937,
                            0.5155379176139832,
                            -0.15378761291503906,
                            -0.4650306701660156
                        ],
                        [
                            0.21143780648708344,
                            -0.19041618704795837,
                            0.20272709429264069,
                            -0.7939766049385071
                        ],
                        [
                            0.3745810389518738,
                            -0.03167947381734848,
                            -0.6540505886077881,
                            0.4990633428096771
                        ],
                        [
                            0.16684088110923767,
                            -0.1004795953631401,
                            0.12308254092931747,
                            -1.0904203653335571
                        ],
                        [
                            -0.014437509700655937,
                            0.22884148359298706,
                            -0.40224459767341614,
                            -0.4148951768875122
                        ],
                        [
                            0.3207159638404846,
                            -0.9169076681137085,
                            0.3249676823616028,
                            -0.045777756720781326
                        ]
                    ],
                    [
                        0.060277096927165985,
                        -0.14630363881587982,
                        0.2496715784072876,
                        -0.46148765087127686
                    ]
                ]
            },
            {
                "type": "dense",
                "activation": "tanh",
                "shape": [
                    null,
                    4
                ],
                "weights": [
                    [
                        [
                            -0.14430436491966248,
                            0.09062287956476212,
                            0.9077780842781067,
                            -0.6761705279350281
                        ],
                        [
                            -0.4818187654018402,
                            -0.7215753793716431,
                            0.49177834391593933,
                            -1.0184917449951172
                        ],
                        [
                            -0.3496399521827698,
                            -0.4526061713695526,
                            0.804350733757019,
                            0.3057757616043091
                        ],
                        [
                            0.7284438014030457,
                            -0.042407725006341934,
                            0.42447254061698914,
                            0.0050801923498511314
                        ]
                    ],
                    [
                        -0.1925068348646164,
                        0.07836005091667175,
                        0.05557814985513687,
                        0.041870519518852234
                    ]
                ]
            },
            {
                "type": "dense",
                "activation": "",
                "shape": [
                    null,
                    1
                ],
                "weights": [
                    [
                        [
                            -0.3235580325126648
                        ],
                        [
                            -0.787780225276947
                        ],
                        [
                            0.6105797290802002
                        ],
                        [
                            -0.5370182991027832
                        ]
                    ],
                    [
                        0.0042293015867471695
                    ]
                ]
            }
        ]
    },
    "drive_65_10": {
        "in_shape": [
            null,
            6
        ],
        "layers": [
            {
                "type": "dense",
                "activation": "tanh",
                "shape": [
                    null,
                    4
                ],
                "weights": [
                    [
                        [
                            0.6145195960998535,
                            0.08668356388807297,
                            -1.5671956539154053,
                            -0.13073651492595673
                        ],
                        [
                            0.02749830111861229,
                            -0.03496574983000755,
                            -0.08008256554603577,
                            0.05746249482035637
                        ],
                        [
                            -0.28775253891944885,
                            -0.5091234445571899,
                            -0.2982303202152252,
                            0.06440606713294983
                        ],
                        [
                            -0.05042149871587753,
                            0.053172767162323,
                            -0.07364650070667267,
                            0.032364197075366974
                        ],
                        [
                            0.20113304257392883,
                            0.4009319841861725,
                            0.13886354863643646,
                            0.09825768321752548
                        ],
                        [
                            -0.07998029887676239,
                            -0.25210192799568176,
                            -0.254040390253067,
                            0.7231740951538086
                        ]
                    ],
                    [
                        -0.11193844676017761,
                        -0.2713446617126465,
                        -0.09022916108369827,
                        -0.1053522527217865
                    ]
                ]
            },
            {
                "type": "dense",
                "activation": "tanh",
                "shape": [
                    null,
                    4
                ],
                "weights": [
                    [
                        [
                            0.1623382270336151,
                            0.31140661239624023,
                            -0.17011627554893494,
                            1.1326760053634644
                        ],
                        [
                            0.5575553774833679,
                            -0.5213559865951538,
                            -0.2069808691740036,
                            0.14747002720832825
                        ],
                        [
                            0.15163876116275787,
                            -0.49431848526000977,
                            -0.4971834123134613,
                            -0.75620436668396
                        ],
                        [
                            -0.16882838308811188,
                            0.30623310804367065,
                            -1.0736472606658936,
                            0.22980205714702606
                        ]
                    ],
                    [
                        -0.08725029975175858,
                        -0.05062833055853844,
                        0.026162007823586464,
                        -0.0067720431834459305
                    ]
                ]
            },
            {
                "type": "dense",
                "activation": "",
                "shape": [
                    null,
                    1
                ],
                "weights": [
                    [
                        [
                            1.002078652381897
                        ],
                        [
                            0.0453806109726429
                        ],
                        [
                            1.227822184562683
                        ],
                        [
                            0.516485333442688
                        ]
                    ],
                    [
                        -0.0017443577526137233
                    ]
                ]
            }
        ]
    },
    "drive_70_10": {
        "in_shape": [
            null,
            6
        ],
        "layers": [
            {
                "type": "dense",
                "activation": "tanh",
                "shape": [
                    null,
                    4
                ],
                "weights": [
                    [
                        [
                            0.22776088118553162,
                            0.13818050920963287,
                            -1.6313037872314453,
                            0.6035353541374207
                        ],
                        [
                            -0.055995501577854156,
                            0.08866674453020096,
                            -0.07651660591363907,
                            0.14270497858524323
                        ],
                        [
                            -0.4965587258338928,
                            0.38165798783302307,
                            0.20964542031288147,
                            -0.1276264637708664
                        ],
                        [
                            0.02493477053940296,
                            -0.03128756210207939,
                            -0.048346199095249176,
                            0.046833377331495285
                        ],
                        [
                            -0.19540515542030334,
                            0.1197717934846878,
                            0.1168314591050148,
                            -0.19083602726459503
                        ],
                        [
                            -0.2648236155509949,
                            -0.8201799988746643,
                            -0.5796586871147156,
                            0.7102243304252625
                        ]
                    ],
                    [
                        0.21882399916648865,
                        -0.10583069175481796,
                        -0.10474993288516998,
                        0.1873122900724411
                    ]
                ]
            },
            {
                "type": "dense",
                "activation": "tanh",
                "shape": [
                    null,
                    4
                ],
                "weights": [
                    [
                        [
                            0.0007425624644383788,
                            -0.5909311175346375,
                            0.3264007270336151,
                            0.059395354241132736
                        ],
                        [
                            0.3760797381401062,
                            -0.20012807846069336,
                            -0.6253611445426941,
                            -0.437916100025177
                        ],
                        [
                            -0.44459158182144165,
                            0.6896260380744934,
                            0.6684612035751343,
                            0.06302903592586517
                        ],
                        [
                            0.16544674336910248,
                            0.4196989834308624,
                            -0.4512224793434143,
                            0.8089606165885925
                        ]
                    ],
                    [
                        -0.034228842705488205,
                        0.01468367874622345,
                        -0.015332371927797794,
                        -0.029386509209871292
                    ]
                ]
            },
            {
                "type": "dense",
                "activation": "",
                "shape": [
                    null,
                    1
                ],
                "weights": [
                    [
                        [
                            0.23287004232406616
                        ],
                        [
                            -1.496354579925537
                        ],
                        [
                            -0.2857441008090973
                        ],
                        [
                            -0.732695460319519
                        ]
                    ],
                    [
                        -0.013162093237042427
                    ]
                ]
            }
        ]
    },
    "drive_75_10": {
        "in_shape": [
            null,
            6
        ],
        "layers": [
            {
                "type": "dense",
                "activation": "tanh",
                "shape": [
                    null,
                    4
                ],
                "weights": [
                    [
                        [
                            -0.3676323890686035,
                            1.5624666213989258,
                            1.0700287818908691,
                            0.03948932886123657
                        ],
                        [
                            0.028318708762526512,
                            0.09461978822946548,
                            -0.08751232177019119,
                            -0.045259758830070496
                        ],
                        [
                            0.2014656811952591,
                            0.19123971462249756,
                            -0.5938400626182556,
                            -0.08159483224153519
                        ],
                        [
                            0.03300129622220993,
                            0.11598049104213715,
                            -0.22239108383655548,
                            -0.023351449519395828
                        ],
                        [
                            -0.12640956044197083,
                            -0.16337567567825317,
                            0.47346559166908264,
                            -0.046590741723775864
                        ],
                        [
                            0.6375694870948792,
                            0.33707791566848755,
                            0.16919328272342682,
                            -0.5711501240730286
                        ]
                    ],
                    [
                        0.0975167527794838,
                        0.050999727100133896,
                        -0.015982378274202347,
                        0.08720047026872635
                    ]
                ]
            },
            {
                "type": "dense",
                "activation": "tanh",
                "shape": [
                    null,
                    4
                ],
                "weights": [
                    [
                        [
                            -0.3464764654636383,
                            -0.617711067199707,
                            -0.7908556461334229,
                            0.009634846821427345
                        ],
                        [
                            1.009452223777771,
                            0.10649017989635468,
                            -0.27870485186576843,
                            -0.4015701115131378
                        ],
                        [
                            0.710483729839325,
                            -0.35561603307724,
                            0.22715894877910614,
                            0.2640122175216675
                        ],
                        [
                            0.1632383167743683,
                            0.35530543327331543,
                            -0.1693304479122162,
                            -1.1151175498962402
                        ]
                    ],
                    [
                        -0.0928591638803482,
                        0.04588606208562851,
                        -0.02734689973294735,
                        -0.05027390643954277
                    ]
                ]
            },
            {
                "type": "dense",
                "activation": "",
                "shape": [
                    null,
                    1
                ],
                "weights": [
                    [
                        [
                            0.6357936263084412
                        ],
                        [
                            0.524730384349823
                        ],
                        [
                            0.45808109641075134
                        ],
                        [
                            -0.75795578956604
                        ]
                    ],
                    [
                        -0.03569476306438446
                    ]
                ]
            }
        ]
    },
    "drive_80_10": {
        "in_shape": [
            null,
            6
        ],
        "layers": [
            {
                "type": "dense",
                "activation": "tanh",
                "shape": [
                    null,
                    4
                ],
                "weights": [
                    [
                        [
                            0.7724284529685974,
                            -0.26039400696754456,
                            0.168793722987175,
                            1.7999374866485596
                        ],
                        [
                            -0.27278226613998413,
                            0.03365198150277138,
                            0.006851482205092907,
                            0.11360045522451401
                        ],
                        [
                            -0.4527294635772705,
                            0.07021813839673996,
                            0.1282418817281723,
                            0.11296088248491287
                        ],
                        [
                            -0.4480271637439728,
                            0.009692514315247536,
                            -0.012018486857414246,
                            0.09939543157815933
                        ],
                        [
                            -0.1857299953699112,
                            0.2601526081562042,
                            -0.4057224690914154,
                            -0.04561857506632805
                        ],
                        [
                            -0.3116269111633301,
                            0.5408291220664978,
                            0.28137409687042236,
                            0.37962955236434937
                        ]
                    ],
                    [
                        0.004272391553968191,
                        -0.1313915252685547,
                        0.12542003393173218,
                        -7.439442561008036e-05
                    ]
                ]
            },
            {
                "type": "dense",
                "activation": "tanh",
                "shape": [
                    null,
                    4
                ],
                "weights": [
                    [
                        [
                            0.4515968859195709,
                            -0.4933336079120636,
                            0.5050555467605591,
                            0.514474093914032
                        ],
                        [
                            -0.6604440808296204,
                            -0.6492989659309387,
                            -0.6319962739944458,
                            -0.039436835795640945
                        ],
                        [
                            -0.8117604851722717,
                            -0.30325108766555786,
                            0.6799506545066833,
                            -0.8919429183006287
                        ],
                        [
                            0.3034835755825043,
                            -0.2828574776649475,
                            0.6784475445747375,
                            1.1707161664962769
                        ]
                    ],
                    [
                        0.0020166493486613035,
                        -0.07262036204338074,
                        -0.03887952119112015,
                        0.09168492257595062
                    ]
                ]
            },
            {
                "type": "dense",
                "activation": "",
                "shape": [
                    null,
                    1
                ],
                "weights": [
                    [
                        [
                            0.5557852983474731
                        ],
                        [
                            1.2945702075958252
                        ],
                        [
                            0.4410310983657837
                        ],
                        [
                            0.6783741116523743
                        ]
                    ],
                    [
                        -0.006487569306045771
                    ]
                ]
            }
        ]
    },
    "drive_85_10": {
        "in_shape": [
            null,
            6
        ],
        "layers": [
            {
                "type": "dense",
                "activation": "tanh",
                "shape": [
                    null,
                    4
                ],
                "weights": [
                    [
                        [
                            -0.1285831481218338,
                            -1.2862216234207153,
                            -0.4806182086467743,
                            0.4948786497116089
                        ],
                        [
                            0.0556001178920269,
                            -0.3650016486644745,
                            0.061170708388090134,
                            -0.3823705315589905
                        ],
                        [
                            0.3129563629627228,
                            -0.6816355586051941,
                            0.3273754119873047,
                            0.08278724551200867
                        ],
                        [
                            -0.015826039016246796,
                            -0.30479303002357483,
                            0.06145573407411575,
                            -0.4795324206352234
                        ],
                        [
                            -0.12935428321361542,
                            0.12863042950630188,
                            0.17077408730983734,
                            0.3840920627117157
                        ],
                        [
                            0.4853183925151825,
                            -0.7256736755371094,
                            0.5979945063591003,
                            -0.11853041499853134
                        ]
                    ],
                    [
                        0.16191908717155457,
                        -0.02364116907119751,
                        -0.14426098763942719,
                        -0.09607468545436859
                    ]
                ]
            },
            {
                "type": "dense",
                "activation": "tanh",
                "shape": [
                    null,
                    4
                ],
                "weights": [
                    [
                        [
                            0.9828397631645203,
                            -0.4678708016872406,
                            -0.5148380994796753,
                            -0.43334588408470154
                        ],
                        [
                            -0.43425220251083374,
                            -0.06662178784608841,
                            0.32813531160354614,
                            -0.9859172701835632
                        ],
                        [
                            0.7411311268806458,
                            -0.5672824382781982,
                            0.5271216034889221,
                            -0.5866806507110596
                        ],
                        [
                            -0.410133421421051,
                            -0.7517604231834412,
                            -0.5933818221092224,
                            0.47878018021583557
                        ]
                    ],
                    [
                        -0.013830137439072132,
                        0.07993257790803909,
                        -0.010344503447413445,
                        0.06587909162044525
                    ]
                ]
            },
            {
                "type": "dense",
                "activation": "",
                "shape": [
                    null,
                    1
                ],
                "weights": [
                    [
                        [
                            -0.5900363922119141
                        ],
                        [
                            0.3969199061393738
                        ],
                        [
                            0.1695641279220581
                        ],
                        [
                            1.0570063591003418
                        ]
                    ],
                    [
                        -0.0528905875980854
                    ]
                ]
            }
        ]
    },
    "drive_90_10": {
        "in_shape": [
            null,
            6
        ],
        "layers": [
            {
                "type": "dense",
                "activation": "tanh",
                "shape": [
                    null,
                    4
                ],
                "weights": [
                    [
                        [
                            1.2887734174728394,
                            -0.2062545269727707,
                            1.3037681579589844,
                            0.06225290894508362
                        ],
                        [
                            0.027889704331755638,
                            0.15183331072330475,
                            0.11274132132530212,
                            -0.08582928031682968
                        ],
                        [
                            0.5040221810340881,
                            -0.09435799717903137,
                            0.06520943343639374,
                            -0.43799102306365967
                        ],
                        [
                            0.17899282276630402,
                            0.4151267409324646,
                            0.09399457275867462,
                            -0.02959337830543518
                        ],
                        [
                            -0.36711788177490234,
                            -0.11689199507236481,
                            0.11900900304317474,
                            -0.03844243288040161
                        ],
                        [
                            -0.3884764015674591,
                            -0.3596700429916382,
                            0.004592522978782654,
                            -0.8813780546188354
                        ]
                    ],
                    [
                        0.25365838408470154,
                        0.0413142628967762,
                        -0.06483288109302521,
                        0.0813458040356636
                    ]
                ]
            },
            {
                "type": "dense",
                "activation": "tanh",
                "shape": [
                    null,
                    4
                ],
                "weights": [
                    [
                        [
                            -0.7824366688728333,
                            -0.48806682229042053,
                            0.7296664118766785,
                            -0.907575786113739
                        ],
                        [
                            0.516229510307312,
                            0.3294198513031006,
                            -0.5966626405715942,
                            0.6882264614105225
                        ],
                        [
                            0.35260146856307983,
                            -0.054998479783535004,
                            0.2629154324531555,
                            -1.290464162826538
                        ],
                        [
                            0.39569705724716187,
                            -0.8029669523239136,
                            -0.49878206849098206,
                            0.3634920120239258
                        ]
                    ],
                    [
                        -0.0679301917552948,
                        -0.004567020572721958,
                        0.0014605098403990269,
                        0.043169401586055756
                    ]
                ]
            },
            {
                "type": "dense",
                "activation": "",
                "shape": [
                    null,
                    1
                ],
                "weights": [
                    [
                        [
                            0.8909391164779663
                        ],
                        [
                            -1.0298246145248413
                        ],
                        [
                            0.11041887104511261
                        ],
                        [
                            -0.4664823114871979
                        ]
                    ],
                    [
                        -0.004431664478033781
                    ]
                ]
            }
        ]
    },
    "drive_95_10": {
        "in_shape": [
            null,
            6
        ],
        "layers": [
            {
                "type": "dense",
                "activation": "tanh",
                "shape": [
                    null,
                    4
                ],
                "weights": [
                    [
                        [
                            0.31257399916648865,
                            2.168290853500366,
                            -0.5912798643112183,
                            -0.685394823551178
                        ],
                        [
                            -0.01780560426414013,
                            0.19684730470180511,
                            0.0632241740822792,
                            0.44235488772392273
                        ],
                        [
                            0.3832535445690155,
                            0.3471159338951111,
                            -0.22898191213607788,
                            0.6276377439498901
                        ],
                        [
                            -0.09596232324838638,
                            0.20151107013225555,
                            0.13047048449516296,
                            0.6536679267883301
                        ],
                        [
                            0.32529449462890625,
                            0.19112518429756165,
                            -0.38264620304107666,
                            0.7698027491569519
                        ],
                        [
                            0.3503866195678711,
                            0.5115535855293274,
                            0.4492126405239105,
                            -0.43044421076774597
                        ]
                    ],
                    [
                        -0.19870813190937042,
                        -0.010912788100540638,
                        0.030997317284345627,
                        0.4380565881729126
                    ]
                ]
            },
            {
                "type": "dense",
                "activation": "tanh",
                "shape": [
                    null,
                    4
                ],
                "weights": [
                    [
                        [
                            0.25422099232673645,
                            0.5205946564674377,
                            0.7852904200553894,
                            -0.4746178388595581
                        ],
                        [
                            0.37039342522621155,
                            -0.8164640069007874,
                            0.08893609046936035,
                            0.36338645219802856
                        ],
                        [
                            0.3274706304073334,
                            0.6527383327484131,
                            0.39725181460380554,
                            0.2567354738712311
                        ],
                        [
                            0.09656082838773727,
                            0.5593206286430359,
                            -0.5082597732543945,
                            0.5208794474601746
                        ]
                    ],
                    [
                        0.032364726066589355,
                        -0.03209022060036659,
                        0.16571269929409027,
                        0.07365382462739944
                    ]
                ]
            },
            {
                "type": "dense",
                "activation": "",
                "shape": [
                    null,
                    1
                ],
                "weights": [
                    [
                        [
                            -0.9810529947280884
                        ],
                        [
                            -1.164886474609375
                        ],
                        [
                            -0.8052851557731628
                        ],
                        [
                            0.3475897014141083
                        ]
                    ],
                    [
                        -0.10272844135761261
                    ]
                ]
            }
        ]
    },
    "drive_100_10": {
        "in_shape": [
            null,
            6
        ],
        "layers": [
            {
                "type": "dense",
                "activation": "tanh",
                "shape": [
                    null,
                    4
                ],
                "weights": [
                    [
                        [
                            -2.6645607948303223,
                            -0.7152150273323059,
                            -0.17145396769046783,
                            0.6662794947624207
                        ],
                        [
                            -0.2421645224094391,
                            0.12145216017961502,
                            -0.041619669646024704,
                            -0.27545133233070374
                        ],
                        [
                            -0.2607903480529785,
                            0.7387493848800659,
                            0.46984341740608215,
                            0.38694676756858826
                        ],
                        [
                            -0.13667142391204834,
                            0.021208172664046288,
                            -0.1079467236995697,
                            -0.2554347515106201
                        ],
                        [
                            -0.37549617886543274,
                            0.4252846837043762,
                            0.39932891726493835,
                            -0.42656582593917847
                        ],
                        [
                            -0.3093753457069397,
                            0.4227725565433502,
                            -0.725041925907135,
                            0.879624605178833
                        ]
                    ],
                    [
                        0.09938178211450577,
                        -0.18630723655223846,
                        -0.13876375555992126,
                        0.10522053390741348
                    ]
                ]
            },
            {
                "type": "dense",
                "activation": "tanh",
                "shape": [
                    null,
                    4
                ],
                "weights": [
                    [
                        [
                            -0.7073928713798523,
                            -0.1484428197145462,
                            -0.082438163459301,
                            -0.18105658888816833
                        ],
                        [
                            -0.7408370971679688,
                            -0.5130522847175598,
                            0.6486144661903381,
                            0.04761110618710518
                        ],
                        [
                            -0.06648426502943039,
                            -0.4268054664134979,
                            -0.31374841928482056,
                            0.2193291038274765
                        ],
                        [
                            0.5271153450012207,
                            0.20131921768188477,
                            0.3880678117275238,
                            -0.1321418285369873
                        ]
                    ],
                    [
                        -0.06909149140119553,
                        0.005012325942516327,
                        -0.0034814728423953056,
                        -0.010078943334519863
                    ]
                ]
            },
            {
                "type": "dense",
                "activation": "",
                "shape": [
                    null,
                    1
                ],
                "weights": [
                    [
                        [
                            0.828206479549408
                        ],
                        [
                            -0.4862443804740906
                        ],
                        [
                            -1.0140596628189087
                        ],
                        [
                            0.271426796913147
                        ]
                    ],
                    [
                        0.002085958607494831
                    ]
                ]
            }
        ]
    }
}