{
    "drive_0_20": {
        "in_shape": [
            null,
            5
        ],
        "layers": [
            {
                "type": "dense",
                "activation": "tanh",
                "shape": [
                    null,
                    4
                ],
                "weights": [
                    [
                        [
                            -0.5397058725357056,
                            0.9991356730461121,
                            0.41797518730163574,
                            0.2497902363538742
                        ],
                        [
                            0.34048911929130554,
                            0.11627732217311859,
                            0.2002173513174057,
                            -0.12407517433166504
                        ],
                        [
                            0.2137797623872757,
                            0.16584399342536926,
                            0.39735832810401917,
                            -0.18986469507217407
                        ],
                        [
                            0.1319243609905243,
                            0.3392561972141266,
                            0.1393660604953766,
                            -0.21806758642196655
                        ],
                        [
                            -0.2921530604362488,
                            0.16053073108196259,
                            0.17827823758125305,
                            1.0246741771697998
                        ]
                    ],
                    [
                        -0.048342786729335785,
                        0.02415110543370247,
                        0.0012277349596843123,
                        -0.024571094661951065
                    ]
                ]
            },
            {
                "type": "dense",
                "activation": "tanh",
                "shape": [
                    null,
                    4
                ],
                "weights": [
                    [
                        [
                            0.4003153145313263,
                            -0.4029783308506012,
                            -0.6044710874557495,
                            0.38683831691741943
                        ],
                        [
                            -0.11350401490926743,
                            0.07480268180370331,
                            -0.12668560445308685,
                            -0.10049165785312653
                        ],
                        [
                            -0.17493242025375366,
                            0.15115384757518768,
                            -0.5928894877433777,
                            -0.3493984341621399
                        ],
                        [
                            -0.6045310497283936,
                            -0.9675244688987732,
                            -0.30274444818496704,
                            0.1457359790802002
                        ]
                    ],
                    [
                        -0.00830638688057661,
                        0.009019432589411736,
                        0.014419561251997948,
                        -0.05442797392606735
                    ]
                ]
            },
            {
                "type": "dense",
                "activation": "",
                "shape": [
                    null,
                    1
                ],
                "weights": [
                    [
                        [
                            0.44399937987327576
                        ],
                        [
                            0.31506606936454773
                        ],
                        [
                            -0.5456700325012207
                        ],
                        [
                            -0.27920061349868774
                        ]
                    ],
                    [
                        -0.00661470415070653
                    ]
                ]
            }
        ]
    },
    "drive_5_20": {
        "in_shape": [
            null,
            5
        ],
        "layers": [
            {
                "type": "dense",
                "activation": "tanh",
                "shape": [
                    null,
                    4
                ],
                "weights": [
                    [
                        [
                            -0.9875205755233765,
                            0.2929876744747162,
                            -0.7003797888755798,
                            0.14752110838890076
                        ],
                        [
                            -0.18477663397789001,
                            0.04855106770992279,
                            0.35623395442962646,
                            0.5883580446243286
                        ],
                        [
                            -0.06964754313230515,
                            -0.5093439221382141,
                            0.11544162034988403,
                            -0.33975768089294434
                        ],
                        [
                            -0.07145225256681442,
                            -0.03781279921531677,
                            -0.31905490159988403,
                            0.6105687022209167
                        ],
                        [
                            0.4468103349208832,
                            -0.7975667119026184,
                            -0.2230561226606369,
                            -0.8682735562324524
                        ]
                    ],
                    [
                        0.0010011221747845411,
                        0.0008327395189553499,
                        0.0007154658087529242,
                        -0.0006082862382754683
                    ]
                ]
            },
            {
                "type": "dense",
                "activation": "tanh",
                "shape": [
                    null,
                    4
                ],
                "weights": [
                    [
                        [
                            0.19859163463115692,
                            0.15452857315540314,
                            0.5502797365188599,
                            -0.26073157787323
                        ],
                        [
                            0.4813523590564728,
                            -1.0841221809387207,
                            -0.29232683777809143,
                            -0.18343813717365265
                        ],
                        [
                            -0.16655802726745605,
                            -0.5799205303192139,
                            0.4478587508201599,
                            0.72081458568573
                        ],
                        [
                            0.5682627558708191,
                            0.597355842590332,
                            0.3446071743965149,
                            -0.7599031329154968
                        ]
                    ],
                    [
                        0.0004851188277825713,
                        -0.0004034930607303977,
                        0.0008286033989861608,
                        -0.0013757130363956094
                    ]
                ]
            },
            {
                "type": "dense",
                "activation": "",
                "shape": [
                    null,
                    1
                ],
                "weights": [
                    [
                        [
                            0.48230409622192383
                        ],
                        [
                            -0.3288591206073761
                        ],
                        [
                            -0.740929126739502
                        ],
                        [
                            -0.03166764974594116
                        ]
                    ],
                    [
                        -0.00012143686035415158
                    ]
                ]
            }
        ]
    },
    "drive_10_20": {
        "in_shape": [
            null,
            5
        ],
        "layers": [
            {
                "type": "dense",
                "activation": "tanh",
                "shape": [
                    null,
                    4
                ],
                "weights": [
                    [
                        [
                            -0.8240235447883606,
                            -0.6401906609535217,
                            -0.18761347234249115,
                            -0.3594666123390198
                        ],
                        [
                            -0.12793724238872528,
                            0.1906917691230774,
                            0.18461212515830994,
                            0.4035111665725708
                        ],
                        [
                            -0.2944260835647583,
                            0.9566311836242676,
                            -0.4157557189464569,
                            -0.0626194104552269
                        ],
                        [
                            -0.029611049219965935,
                            0.1472553163766861,
                            -0.27291497588157654,
                            -0.371338814496994
                        ],
                        [
                            0.26014846563339233,
                            0.6290141940116882,
                            0.44273555278778076,
                            -0.09918712824583054
                        ]
                    ],
                    [
                        0.0005518673569895327,
                        -0.0009939699666574597,
                        0.0017666153144091368,
                        0.003188044298440218
                    ]
                ]
            },
            {
                "type": "dense",
                "activation": "tanh",
                "shape": [
                    null,
                    4
                ],
                "weights": [
                    [
                        [
                            0.25505074858665466,
                            0.5510621070861816,
                            0.3172124922275543,
                            -0.27657052874565125
                        ],
                        [
                            0.4068129062652588,
                            -0.08670338243246078,
                            0.6292898654937744,
                            -0.4010532796382904
                        ],
                        [
                            0.5494271516799927,
                            0.11813323199748993,
                            0.24272222816944122,
                            -0.45964229106903076
                        ],
                        [
                            -0.6251521706581116,
                            0.32255837321281433,
                            0.15861660242080688,
                            0.025305289775133133
                        ]
                    ],
                    [
                        0.00024463419686071575,
                        0.001236568670719862,
                        -0.00043398234993219376,
                        0.00036621783510781825
                    ]
                ]
            },
            {
                "type": "dense",
                "activation": "",
                "shape": [
                    null,
                    1
                ],
                "weights": [
                    [
                        [
                            -0.6761091947555542
                        ],
                        [
                            -0.18599337339401245
                        ],
                        [
                            -1.111053228378296
                        ],
                        [
                            -0.6177431344985962
                        ]
                    ],
                    [
                        -0.0002693539427127689
                    ]
                ]
            }
        ]
    },
    "drive_15_20": {
        "in_shape": [
            null,
            5
        ],
        "layers": [
            {
                "type": "dense",
                "activation": "tanh",
                "shape": [
                    null,
                    4
                ],
                "weights": [
                    [
                        [
                            -0.45288729667663574,
                            -0.14844053983688354,
                            0.5896116495132446,
                            0.07122479379177094
                        ],
                        [
                            -0.050802964717149734,
                            -0.018200909718871117,
                            -0.011156393215060234,
                            -0.06875957548618317
                        ],
                        [
                            -0.32292690873146057,
                            0.6731787919998169,
                            -0.47877392172813416,
                            -0.24179531633853912
                        ],
                        [
                            -0.2359049916267395,
                            0.14307467639446259,
                            0.4277505874633789,
                            -0.24252696335315704
                        ],
                        [
                            0.13391321897506714,
                            -0.038031138479709625,
                            0.2938936650753021,
                            0.8040475249290466
                        ]
                    ],
                    [
                        0.0014570137718692422,
                        -0.0008409430738538504,
                        -0.0025893780402839184,
                        -7.935611210996285e-05
                    ]
                ]
            },
            {
                "type": "dense",
                "activation": "tanh",
                "shape": [
                    null,
                    4
                ],
                "weights": [
                    [
                        [
                            -0.29980260133743286,
                            1.0297194719314575,
                            0.18806502223014832,
                            0.6451323628425598
                        ],
                        [
                            0.3515760004520416,
                            0.4652244448661804,
                            0.48051875829696655,
                            0.05388013273477554
                        ],
                        [
                            -0.07637125998735428,
                            0.3605523705482483,
                            0.20139829814434052,
                            0.027073683217167854
                        ],
                        [
                            -0.10305456072092056,
                            0.051527202129364014,
                            0.8297874927520752,
                            0.1816999763250351
                        ]
                    ],
                    [
                        -0.004383287858217955,
                        0.0026929946616292,
                        -0.0012887759367004037,
                        0.0012553377309814095
                    ]
                ]
            },
            {
                "type": "dense",
                "activation": "",
                "shape": [
                    null,
                    1
                ],
                "weights": [
                    [
                        [
                            -0.48731982707977295
                        ],
                        [
                            -0.4235296845436096
                        ],
                        [
                            -0.46523815393447876
                        ],
                        [
                            -0.518717348575592
                        ]
                    ],
                    [
                        -0.001128699048422277
                    ]
                ]
            }
        ]
    },
    "drive_20_20": {
        "in_shape": [
            null,
            5
        ],
        "layers": [
            {
                "type": "dense",
                "activation": "tanh",
                "shape": [
                    null,
                    4
                ],
                "weights": [
                    [
                        [
                            -0.6172538995742798,
                            -0.07709816098213196,
                            0.38189128041267395,
                            -0.38466450572013855
                        ],
                        [
                            0.2606292963027954,
                            0.4288006126880646,
                            -0.5843843221664429,
                            0.1810426414012909
                        ],
                        [
                            -0.28491032123565674,
                            0.9393291473388672,
                            0.4387461543083191,
                            0.5132625102996826
                        ],
                        [
                            0.18369869887828827,
                            0.1764867603778839,
                            -0.1925264298915863,
                            0.27526426315307617
                        ],
                        [
                            -0.2603725492954254,
                            -0.7034755945205688,
                            -0.26839950680732727,
                            -0.8974413275718689
                        ]
                    ],
                    [
                        0.0005647001089528203,
                        -0.0011816282058134675,
                        0.0013009717222303152,
                        0.0012666869442909956
                    ]
                ]
            },
            {
                "type": "dense",
                "activation": "tanh",
                "shape": [
                    null,
                    4
                ],
                "weights": [
                    [
                        [
                            0.3720903694629669,
                            -0.12333185225725174,
                            0.49591243267059326,
                            0.7230594158172607
                        ],
                        [
                            -0.9096484780311584,
                            -0.32101407647132874,
                            0.22453610599040985,
                            0.5064710378646851
                        ],
                        [
                            -0.5334341526031494,
                            -0.07211155444383621,
                            -0.08922094106674194,
                            6.112293340265751e-05
                        ],
                        [
                            -0.5748375654220581,
                            0.3194109797477722,
                            -0.0331072062253952,
                            -0.7644646167755127
                        ]
                    ],
                    [
                        0.000317201716825366,
                        4.234443258610554e-05,
                        -0.0002205526252510026,
                        0.0013283098815008998
                    ]
                ]
            },
            {
                "type": "dense",
                "activation": "",
                "shape": [
                    null,
                    1
                ],
                "weights": [
                    [
                        [
                            -0.6394363045692444
                        ],
                        [
                            0.9118406176567078
                        ],
                        [
                            0.8470199108123779
                        ],
                        [
                            0.23269744217395782
                        ]
                    ],
                    [
                        -0.0003046308411285281
                    ]
                ]
            }
        ]
    },
    "drive_25_20": {
        "in_shape": [
            null,
            5
        ],
        "layers": [
            {
                "type": "dense",
                "activation": "tanh",
                "shape": [
                    null,
                    4
                ],
                "weights": [
                    [
                        [
                            0.10489892959594727,
                            0.4232844114303589,
                            -0.06439806520938873,
                            0.24981455504894257
                        ],
                        [
                            0.306305855512619,
                            -0.459929883480072,
                            0.0021002728026360273,
                            -0.37596067786216736
                        ],
                        [
                            0.7616714239120483,
                            -0.1555577963590622,
                            -0.3268537223339081,
                            0.36869925260543823
                        ],
                        [
                            0.15962201356887817,
                            0.22374451160430908,
                            0.11421677470207214,
                            0.29571232199668884
                        ],
                        [
                            -0.6881383657455444,
                            0.4510157108306885,
                            -0.29969459772109985,
                            0.003425559727475047
                        ]
                    ],
                    [
                        -0.0007385432836599648,
                        -0.001379001303575933,
                        0.0008685908396728337,
                        -0.0010414174757897854
                    ]
                ]
            },
            {
                "type": "dense",
                "activation": "tanh",
                "shape": [
                    null,
                    4
                ],
                "weights": [
                    [
                        [
                            0.6277006268501282,
                            -0.1964816302061081,
                            -0.5739471316337585,
                            0.2111320048570633
                        ],
                        [
                            -0.5552971959114075,
                            -0.45212939381599426,
                            -0.7353692650794983,
                            0.3097429573535919
                        ],
                        [
                            -0.5011621713638306,
                            0.8355390429496765,
                            -0.21519000828266144,
                            -0.622381329536438
                        ],
                        [
                            0.8216707110404968,
                            0.16952119767665863,
                            0.48601531982421875,
                            0.4184953570365906
                        ]
                    ],
                    [
                        0.0001407986128469929,
                        -0.0006195971509441733,
                        -0.0007192744524218142,
                        -2.4365868739550933e-05
                    ]
                ]
            },
            {
                "type": "dense",
                "activation": "",
                "shape": [
                    null,
                    1
                ],
                "weights": [
                    [
                        [
                            0.732446551322937
                        ],
                        [
                            1.010758638381958
                        ],
                        [
                            -0.4103713035583496
                        ],
                        [
                            -0.03561475872993469
                        ]
                    ],
                    [
                        -9.432007936993614e-05
                    ]
                ]
            }
        ]
    },
    "drive_30_20": {
        "in_shape": [
            null,
            5
        ],
        "layers": [
            {
                "type": "dense",
                "activation": "tanh",
                "shape": [
                    null,
                    4
                ],
                "weights": [
                    [
                        [
                            -0.015116564929485321,
                            -0.1185770034790039,
                            -0.29983383417129517,
                            -0.5248289704322815
                        ],
                        [
                            -0.0702696293592453,
                            -0.015879353508353233,
                            0.39613205194473267,
                            0.32356497645378113
                        ],
                        [
                            0.20182397961616516,
                            -0.4634496569633484,
                            1.0237172842025757,
                            -0.3855159282684326
                        ],
                        [
                            0.20172417163848877,
                            0.10037122666835785,
                            0.1923452913761139,
                            0.17199791967868805
                        ],
                        [
                            -0.3271031677722931,
                            0.2202671319246292,
                            -0.9385963082313538,
                            -0.6409635543823242
                        ]
                    ],
                    [
                        0.0005385337863117456,
                        0.0012558489106595516,
                        -0.001184173859655857,
                        -0.0002464403514750302
                    ]
                ]
            },
            {
                "type": "dense",
                "activation": "tanh",
                "shape": [
                    null,
                    4
                ],
                "weights": [
                    [
                        [
                            0.059283122420310974,
                            -0.37240463495254517,
                            -0.5206180214881897,
                            0.5635022521018982
                        ],
                        [
                            -0.7083516120910645,
                            -0.031539395451545715,
                            -0.03998655080795288,
                            0.08089879900217056
                        ],
                        [
                            -0.19551077485084534,
                            -0.11822924762964249,
                            0.04793896526098251,
                            1.345800518989563
                        ],
                        [
                            0.06216615065932274,
                            -0.5973284244537354,
                            -0.06466610729694366,
                            -0.6548348665237427
                        ]
                    ],
                    [
                        -2.8895838113385253e-05,
                        -0.0005309272673912346,
                        0.00030503308516927063,
                        0.000619820726569742
                    ]
                ]
            },
            {
                "type": "dense",
                "activation": "",
                "shape": [
                    null,
                    1
                ],
                "weights": [
                    [
                        [
                            -0.4436495006084442
                        ],
                        [
                            -0.5455848574638367
                        ],
                        [
                            0.30308133363723755
                        ],
                        [
                            0.40473002195358276
                        ]
                    ],
                    [
                        -0.000442333344835788
                    ]
                ]
            }
        ]
    },
    "drive_35_20": {
        "in_shape": [
            null,
            5
        ],
        "layers": [
            {
                "type": "dense",
                "activation": "tanh",
                "shape": [
                    null,
                    4
                ],
                "weights": [
                    [
                        [
                            0.05959150567650795,
                            -0.584637463092804,
                            -0.9970407485961914,
                            -0.2528061866760254
                        ],
                        [
                            -0.3001782298088074,
                            -0.5592379570007324,
                            -0.5087772607803345,
                            0.12027782201766968
                        ],
                        [
                            -0.8108166456222534,
                            -0.3613865375518799,
                            -0.24491675198078156,
                            -0.25955450534820557
                        ],
                        [
                            -0.20997872948646545,
                            0.6791086792945862,
                            0.8209062814712524,
                            0.12589721381664276
                        ],
                        [
                            0.7392250299453735,
                            -0.19722943007946014,
                            0.06309059262275696,
                            -0.35774511098861694
                        ]
                    ],
                    [
                        0.0020482661202549934,
                        -5.272671114653349e-05,
                        -7.449070108123124e-05,
                        -1.136771243182011e-05
                    ]
                ]
            },
            {
                "type": "dense",
                "activation": "tanh",
                "shape": [
                    null,
                    4
                ],
                "weights": [
                    [
                        [
                            -0.7682774662971497,
                            -0.6104617118835449,
                            0.08212703466415405,
                            -0.04061343893408775
                        ],
                        [
                            0.7789611220359802,
                            0.0008109258487820625,
                            -0.4052164852619171,
                            -0.3285421133041382
                        ],
                        [
                            -0.6529970765113831,
                            0.3121679723262787,
                            0.6407439708709717,
                            0.2594473659992218
                        ],
                        [
                            -0.4568478465080261,
                            -0.5661942958831787,
                            0.693601131439209,
                            0.45845338702201843
                        ]
                    ],
                    [
                        0.0008773536537773907,
                        -0.0007300698198378086,
                        0.0012480431469157338,
                        -0.0005341625073924661
                    ]
                ]
            },
            {
                "type": "dense",
                "activation": "",
                "shape": [
                    null,
                    1
                ],
                "weights": [
                    [
                        [
                            1.1073912382125854
                        ],
                        [
                            -0.5205708146095276
                        ],
                        [
                            0.4364164173603058
                        ],
                        [
                            0.621101438999176
                        ]
                    ],
                    [
                        -0.0005480609252117574
                    ]
                ]
            }
        ]
    },
    "drive_40_20": {
        "in_shape": [
            null,
            5
        ],
        "layers": [
            {
                "type": "dense",
                "activation": "tanh",
                "shape": [
                    null,
                    4
                ],
                "weights": [
                    [
                        [
                            -0.36938029527664185,
                            -0.7220671772956848,
                            -0.002952307928353548,
                            0.2979815602302551
                        ],
                        [
                            -0.3146037757396698,
                            -0.10410428792238235,
                            -0.03521279990673065,
                            -0.24672836065292358
                        ],
                        [
                            0.03093845210969448,
                            -0.23723851144313812,
                            0.43189820647239685,
                            -0.5642141103744507
                        ],
                        [
                            0.46189776062965393,
                            -0.22068166732788086,
                            -0.141758993268013,
                            -0.07485294342041016
                        ],
                        [
                            -0.06653328984975815,
                            -0.23164281249046326,
                            0.21653850376605988,
                            1.1761757135391235
                        ]
                    ],
                    [
                        0.0029712228570133448,
                        0.001049687503837049,
                        -0.0012079317821189761,
                        0.00019564612011890858
                    ]
                ]
            },
            {
                "type": "dense",
                "activation": "tanh",
                "shape": [
                    null,
                    4
                ],
                "weights": [
                    [
                        [
                            0.16987325251102448,
                            -0.016374671831727028,
                            -0.31988224387168884,
                            -0.4501194357872009
                        ],
                        [
                            -0.47891637682914734,
                            -0.3221012055873871,
                            -0.8143659234046936,
                            -0.43975088000297546
                        ],
                        [
                            0.9109876155853271,
                            -0.19709369540214539,
                            0.460587739944458,
                            0.33683550357818604
                        ],
                        [
                            0.43013954162597656,
                            0.06950117647647858,
                            -0.5040084719657898,
                            0.8547219038009644
                        ]
                    ],
                    [
                        -0.0016351195517927408,
                        -0.0001435468002455309,
                        -0.0004795143904630095,
                        -6.876752013340592e-05
                    ]
                ]
            },
            {
                "type": "dense",
                "activation": "",
                "shape": [
                    null,
                    1
                ],
                "weights": [
                    [
                        [
                            -0.16410881280899048
                        ],
                        [
                            0.7086508870124817
                        ],
                        [
                            0.30665838718414307
                        ],
                        [
                            -0.34278926253318787
                        ]
                    ],
                    [
                        -2.1573992853518575e-05
                    ]
                ]
            }
        ]
    },
    "drive_45_20": {
        "in_shape": [
            null,
            5
        ],
        "layers": [
            {
                "type": "dense",
                "activation": "tanh",
                "shape": [
                    null,
                    4
                ],
                "weights": [
                    [
                        [
                            -0.8277975916862488,
                            0.05036621168255806,
                            0.37271997332572937,
                            0.48791664838790894
                        ],
                        [
                            -0.28083279728889465,
                            -0.17756667733192444,
                            0.450883686542511,
                            -0.9292939305305481
                        ],
                        [
                            0.11855702102184296,
                            0.8695196509361267,
                            -0.26621395349502563,
                            -0.4988160729408264
                        ],
                        [
                            -0.25663864612579346,
                            -0.2394387423992157,
                            0.394279807806015,
                            -0.7229627370834351
                        ],
                        [
                            -0.37089428305625916,
                            -0.32600969076156616,
                            -0.3119369447231293,
                            0.5464345812797546
                        ]
                    ],
                    [
                        0.0014553910586982965,
                        0.00012533189146779478,
                        1.7004025721689686e-05,
                        -8.418136712862179e-05
                    ]
                ]
            },
            {
                "type": "dense",
                "activation": "tanh",
                "shape": [
                    null,
                    4
                ],
                "weights": [
                    [
                        [
                            -0.8159458041191101,
                            0.5737261176109314,
                            -0.6962559223175049,
                            -0.6861785054206848
                        ],
                        [
                            0.5365479588508606,
                            0.6108787059783936,
                            -0.4843723177909851,
                            0.6516799926757812
                        ],
                        [
                            0.1944359540939331,
                            0.6040952205657959,
                            0.01164516806602478,
                            -0.650144100189209
                        ],
                        [
                            0.08000177890062332,
                            -0.6833034157752991,
                            -0.06630538403987885,
                            -0.1534852832555771
                        ]
                    ],
                    [
                        -0.0002641312312334776,
                        3.222948362235911e-05,
                        -0.00026131756021641195,
                        -0.00015996670117601752
                    ]
                ]
            },
            {
                "type": "dense",
                "activation": "",
                "shape": [
                    null,
                    1
                ],
                "weights": [
                    [
                        [
                            0.9671108722686768
                        ],
                        [
                            -0.06823594868183136
                        ],
                        [
                            -0.3955308496952057
                        ],
                        [
                            -0.9381685256958008
                        ]
                    ],
                    [
                        -0.0001153333141701296
                    ]
                ]
            }
        ]
    },
    "drive_50_20": {
        "in_shape": [
            null,
            5
        ],
        "layers": [
            {
                "type": "dense",
                "activation": "tanh",
                "shape": [
                    null,
                    4
                ],
                "weights": [
                    [
                        [
                            0.28352856636047363,
                            -0.07926285266876221,
                            -0.5681896209716797,
                            -0.6252727508544922
                        ],
                        [
                            0.29653307795524597,
                            -0.5717647671699524,
                            -0.1911247819662094,
                            0.23746809363365173
                        ],
                        [
                            0.47398337721824646,
                            -0.715979814529419,
                            -0.15676018595695496,
                            0.06583144515752792
                        ],
                        [
                            0.31744053959846497,
                            -0.5519426465034485,
                            -0.2685176134109497,
                            0.2278452068567276
                        ],
                        [
                            0.03456821292638779,
                            -0.3237215578556061,
                            -0.14619219303131104,
                            -0.26103541254997253
                        ]
                    ],
                    [
                        -0.00043493855628184974,
                        0.0006845146999694407,
                        -9.291450260207057e-05,
                        0.00202515278942883
                    ]
                ]
            },
            {
                "type": "dense",
                "activation": "tanh",
                "shape": [
                    null,
                    4
                ],
                "weights": [
                    [
                        [
                            0.33954179286956787,
                            -0.856833815574646,
                            -0.8995886445045471,
                            -0.4227684438228607
                        ],
                        [
                            -0.09375738352537155,
                            0.09856657683849335,
                            -0.7384940385818481,
                            0.05915151536464691
                        ],
                        [
                            0.18533246219158173,
                            -0.5372249484062195,
                            -0.4682168960571289,
                            -0.37373673915863037
                        ],
                        [
                            -0.3017822802066803,
                            -0.2734106183052063,
                            -0.032346609979867935,
                            -0.7844797372817993
                        ]
                    ],
                    [
                        -0.0017420549411326647,
                        -0.00019620078091975302,
                        -0.0007716644904576242,
                        0.0003655060427263379
                    ]
                ]
            },
            {
                "type": "dense",
                "activation": "",
                "shape": [
                    null,
                    1
                ],
                "weights": [
                    [
                        [
                            0.35897114872932434
                        ],
                        [
                            -0.9352886080741882
                        ],
                        [
                            -0.47381964325904846
                        ],
                        [
                            -0.29558447003364563
                        ]
                    ],
                    [
                        -6.9522893682005815e-06
                    ]
                ]
            }
        ]
    },
    "drive_55_20": {
        "in_shape": [
            null,
            5
        ],
        "layers": [
            {
                "type": "dense",
                "activation": "tanh",
                "shape": [
                    null,
                    4
                ],
                "weights": [
                    [
                        [
                            -0.028673822060227394,
                            -0.6579223871231079,
                            0.6431064009666443,
                            -0.16996526718139648
                        ],
                        [
                            0.11230368912220001,
                            -0.09477405250072479,
                            -0.08444973826408386,
                            0.05676836147904396
                        ],
                        [
                            -0.01620122790336609,
                            -0.7281650304794312,
                            -0.3364512324333191,
                            0.002405569888651371
                        ],
                        [
                            0.07216767966747284,
                            -0.25969627499580383,
                            -0.03960196673870087,
                            0.0279673021286726
                        ],
                        [
                            0.24227175116539001,
                            -0.07975240796804428,
                            0.2974179685115814,
                            -0.7829840779304504
                        ]
                    ],
                    [
                        0.0006578578613698483,
                        0.0034139184281229973,
                        0.00040606860420666635,
                        7.359107257798314e-05
                    ]
                ]
            },
            {
                "type": "dense",
                "activation": "tanh",
                "shape": [
                    null,
                    4
                ],
                "weights": [
                    [
                        [
                            -0.23560400307178497,
                            0.6134743690490723,
                            -0.23008930683135986,
                            0.3306163251399994
                        ],
                        [
                            -0.6673998236656189,
                            0.5613231658935547,
                            0.6439642906188965,
                            -0.10932078212499619
                        ],
                        [
                            -0.662770688533783,
                            -0.3502906560897827,
                            0.22724345326423645,
                            -0.23219341039657593
                        ],
                        [
                            -0.6670951843261719,
                            -0.8010373115539551,
                            0.7291373014450073,
                            -0.4084514081478119
                        ]
                    ],
                    [
                        -0.00029956005164422095,
                        9.519141894998029e-05,
                        0.0007927240221761167,
                        -0.00020894942281302065
                    ]
                ]
            },
            {
                "type": "dense",
                "activation": "",
                "shape": [
                    null,
                    1
                ],
                "weights": [
                    [
                        [
                            -0.8688393831253052
                        ],
                        [
                            -0.8483976721763611
                        ],
                        [
                            -0.2068127542734146
                        ],
                        [
                            0.4631086587905884
                        ]
                    ],
                    [
                        3.227216893719742e-06
                    ]
                ]
            }
        ]
    },
    "drive_60_20": {
        "in_shape": [
            null,
            5
        ],
        "layers": [
            {
                "type": "dense",
                "activation": "tanh",
                "shape": [
                    null,
                    4
                ],
                "weights": [
                    [
                        [
                            -0.19602295756340027,
                            -0.5212955474853516,
                            0.46039673686027527,
                            -0.8370072841644287
                        ],
                        [
                            0.3102160096168518,
                            0.08197156339883804,
                            -0.40446603298187256,
                            -0.31509020924568176
                        ],
                        [
                            -0.45403286814689636,
                            -0.9708622097969055,
                            -0.5902365446090698,
                            -0.0360068716108799
                        ],
                        [
                            0.16543808579444885,
                            0.6232969164848328,
                            -0.6069778800010681,
                            -0.02618156559765339
                        ],
                        [
                            -0.4065251648426056,
                            -0.5716375112533569,
                            -0.1113194152712822,
                            0.25049465894699097
                        ]
                    ],
                    [
                        -0.0007467070827260613,
                        -0.0007177013903856277,
                        -0.0012543745106086135,
                        0.002000915352255106
                    ]
                ]
            },
            {
                "type": "dense",
                "activation": "tanh",
                "shape": [
                    null,
                    4
                ],
                "weights": [
                    [
                        [
                            -0.6931845545768738,
                            -0.16110284626483917,
                            -0.09819544106721878,
                            0.2663393020629883
                        ],
                        [
                            -0.10097844898700714,
                            0.1640997678041458,
                            -0.29914209246635437,
                            0.3749113976955414
                        ],
                        [
                            0.32405397295951843,
                            0.7693899273872375,
                            -0.14251470565795898,
                            -0.47287482023239136
                        ],
                        [
                            -0.7317297458648682,
                            0.5972961187362671,
                            -0.7351716160774231,
                            0.735392689704895
                        ]
                    ],
                    [
                        -0.00035160238621756434,
                        -4.0174025343731046e-05,
                        -0.0006066804053261876,
                        0.00040855995030142367
                    ]
                ]
            },
            {
                "type": "dense",
                "activation": "",
                "shape": [
                    null,
                    1
                ],
                "weights": [
                    [
                        [
                            -0.2907642424106598
                        ],
                        [
                            0.1635446399450302
                        ],
                        [
                            0.7703074812889099
                        ],
                        [
                            0.32471784949302673
                        ]
                    ],
                    [
                        6.460802978836e-05
                    ]
                ]
            }
        ]
    },
    "drive_65_20": {
        "in_shape": [
            null,
            5
        ],
        "layers": [
            {
                "type": "dense",
                "activation": "tanh",
                "shape": [
                    null,
                    4
                ],
                "weights": [
                    [
                        [
                            0.06224196031689644,
                            -0.2779633104801178,
                            -0.19341988861560822,
                            0.302866667509079
                        ],
                        [
                            0.35569438338279724,
                            0.030780505388975143,
                            -0.04634351655840874,
                            0.19440975785255432
                        ],
                        [
                            0.6872957944869995,
                            -0.4936008155345917,
                            -0.8646199107170105,
                            0.763308584690094
                        ],
                        [
                            0.1829318404197693,
                            0.30784663558006287,
                            0.35173994302749634,
                            0.35065433382987976
                        ],
                        [
                            -0.04311250522732735,
                            -0.18100807070732117,
                            0.886160135269165,
                            1.001179575920105
                        ]
                    ],
                    [
                        -0.002077503828331828,
                        0.0010822092881426215,
                        0.0009060360607691109,
                        -0.0005170133663341403
                    ]
                ]
            },
            {
                "type": "dense",
                "activation": "tanh",
                "shape": [
                    null,
                    4
                ],
                "weights": [
                    [
                        [
                            -0.473292738199234,
                            -0.3995057940483093,
                            -0.5037910342216492,
                            -0.011646070517599583
                        ],
                        [
                            -0.42303887009620667,
                            0.8054437637329102,
                            -0.9001153707504272,
                            -0.07639613747596741
                        ],
                        [
                            -0.3550584018230438,
                            -0.05037489905953407,
                            0.4835447072982788,
                            -0.37685999274253845
                        ],
                        [
                            0.20161965489387512,
                            0.6390513777732849,
                            0.26214057207107544,
                            -0.5031776428222656
                        ]
                    ],
                    [
                        -0.00021941914747003466,
                        0.00032813206780701876,
                        0.00026620214339345694,
                        -0.0009310301393270493
                    ]
                ]
            },
            {
                "type": "dense",
                "activation": "",
                "shape": [
                    null,
                    1
                ],
                "weights": [
                    [
                        [
                            0.6020844578742981
                        ],
                        [
                            0.23317979276180267
                        ],
                        [
                            -1.1171634197235107
                        ],
                        [
                            -0.24546968936920166
                        ]
                    ],
                    [
                        4.004915535915643e-05
                    ]
                ]
            }
        ]
    },
    "drive_70_20": {
        "in_shape": [
            null,
            5
        ],
        "layers": [
            {
                "type": "dense",
                "activation": "tanh",
                "shape": [
                    null,
                    4
                ],
                "weights": [
                    [
                        [
                            0.27262386679649353,
                            0.26469355821609497,
                            -0.1222696378827095,
                            0.8326361179351807
                        ],
                        [
                            0.0885230153799057,
                            0.20377351343631744,
                            0.1095610186457634,
                            0.6805847883224487
                        ],
                        [
                            0.17497313022613525,
                            0.5141992568969727,
                            -0.5546915531158447,
                            -0.7383220195770264
                        ],
                        [
                            -0.5211575627326965,
                            0.1947125494480133,
                            0.049746181815862656,
                            0.6781176924705505
                        ],
                        [
                            0.18800325691699982,
                            -0.5720736980438232,
                            -0.16523873805999756,
                            -0.16420787572860718
                        ]
                    ],
                    [
                        -0.001633807667531073,
                        -0.0016219685785472393,
                        0.0013121298979967833,
                        -0.0012776453513652086
                    ]
                ]
            },
            {
                "type": "dense",
                "activation": "tanh",
                "shape": [
                    null,
                    4
                ],
                "weights": [
                    [
                        [
                            0.14313901960849762,
                            0.5958995819091797,
                            0.04220851510763168,
                            -0.4554135203361511
                        ],
                        [
                            0.3508590757846832,
                            -0.31408414244651794,
                            -0.9552438855171204,
                            -0.04758080095052719
                        ],
                        [
                            0.49672454595565796,
                            -0.10185199975967407,
                            0.6443229913711548,
                            0.7767115831375122
                        ],
                        [
                            0.07631725817918777,
                            0.3727157413959503,
                            0.6325608491897583,
                            0.11690676212310791
                        ]
                    ],
                    [
                        0.0001302107411902398,
                        -0.00024240778293460608,
                        -0.001008395804092288,
                        -0.0005292423302307725
                    ]
                ]
            },
            {
                "type": "dense",
                "activation": "",
                "shape": [
                    null,
                    1
                ],
                "weights": [
                    [
                        [
                            0.6015634536743164
                        ],
                        [
                            -0.0990973636507988
                        ],
                        [
                            -0.19188712537288666
                        ],
                        [
                            0.15727823972702026
                        ]
                    ],
                    [
                        -0.00011735180305549875
                    ]
                ]
            }
        ]
    },
    "drive_75_20": {
        "in_shape": [
            null,
            5
        ],
        "layers": [
            {
                "type": "dense",
                "activation": "tanh",
                "shape": [
                    null,
                    4
                ],
                "weights": [
                    [
                        [
                            0.3847571909427643,
                            0.31692004203796387,
                            0.12434221804141998,
                            0.13091076910495758
                        ],
                        [
                            0.3960757553577423,
                            0.1339828073978424,
                            -0.049209024757146835,
                            0.41272884607315063
                        ],
                        [
                            -0.3184845447540283,
                            0.3742372989654541,
                            -0.4797888994216919,
                            -0.05703768879175186
                        ],
                        [
                            -0.2599322497844696,
                            0.14303569495677948,
                            0.08334463834762573,
                            -0.18032607436180115
                        ],
                        [
                            -0.0039255619049072266,
                            -0.25137290358543396,
                            -0.48441484570503235,
                            -0.4044171869754791
                        ]
                    ],
                    [
                        -0.0005122291040606797,
                        -0.0029234252870082855,
                        5.865394996362738e-05,
                        0.000604626489803195
                    ]
                ]
            },
            {
                "type": "dense",
                "activation": "tanh",
                "shape": [
                    null,
                    4
                ],
                "weights": [
                    [
                        [
                            0.06487661600112915,
                            0.5600101351737976,
                            0.179080992937088,
                            -0.34621649980545044
                        ],
                        [
                            -0.43517985939979553,
                            -0.8273714780807495,
                            -0.4491504728794098,
                            0.2946150600910187
                        ],
                        [
                            -0.3750877380371094,
                            0.1505752056837082,
                            0.581233024597168,
                            -0.4718715250492096
                        ],
                        [
                            -0.8030993342399597,
                            -0.5499150156974792,
                            0.1457068920135498,
                            -0.46040764451026917
                        ]
                    ],
                    [
                        0.004225568845868111,
                        -0.0002985820756293833,
                        0.0012065096525475383,
                        -0.0019893243443220854
                    ]
                ]
            },
            {
                "type": "dense",
                "activation": "",
                "shape": [
                    null,
                    1
                ],
                "weights": [
                    [
                        [
                            -0.030461423099040985
                        ],
                        [
                            -0.6524917483329773
                        ],
                        [
                            0.8248633146286011
                        ],
                        [
                            0.24029280245304108
                        ]
                    ],
                    [
                        -0.0002892852353397757
                    ]
                ]
            }
        ]
    },
    "drive_80_20": {
        "in_shape": [
            null,
            5
        ],
        "layers": [
            {
                "type": "dense",
                "activation": "tanh",
                "shape": [
                    null,
                    4
                ],
                "weights": [
                    [
                        [
                            0.5247343182563782,
                            -1.1323894262313843,
                            0.1004377231001854,
                            0.6327878832817078
                        ],
                        [
                            -0.1747494339942932,
                            -0.02731884829699993,
                            -0.34827572107315063,
                            0.05806466564536095
                        ],
                        [
                            -0.5169508457183838,
                            0.2963016629219055,
                            0.816692590713501,
                            -0.6284878253936768
                        ],
                        [
                            -0.12224815785884857,
                            0.038699980825185776,
                            -0.011509033851325512,
                            0.5026817917823792
                        ],
                        [
                            -0.6085311770439148,
                            -0.4831068813800812,
                            -0.151639923453331,
                            -0.8545870184898376
                        ]
                    ],
                    [
                        3.226484477636404e-05,
                        0.0026719183661043644,
                        0.002116237999871373,
                        -0.002897219266742468
                    ]
                ]
            },
            {
                "type": "dense",
                "activation": "tanh",
                "shape": [
                    null,
                    4
                ],
                "weights": [
                    [
                        [
                            0.8842201828956604,
                            -0.10679256170988083,
                            -0.44201114773750305,
                            -0.7660137414932251
                        ],
                        [
                            -0.35669466853141785,
                            0.37917470932006836,
                            -0.2252410650253296,
                            0.436786025762558
                        ],
                        [
                            -0.19412630796432495,
                            -0.45795562863349915,
                            0.5959137678146362,
                            -0.5389599204063416
                        ],
                        [
                            0.5812932252883911,
                            0.008992991410195827,
                            -0.10884608328342438,
                            0.017811929807066917
                        ]
                    ],
                    [
                        0.0003394847153685987,
                        0.000724987534340471,
                        -0.0005641187308356166,
                        -0.0003899074508808553
                    ]
                ]
            },
            {
                "type": "dense",
                "activation": "",
                "shape": [
                    null,
                    1
                ],
                "weights": [
                    [
                        [
                            -0.08434686809778214
                        ],
                        [
                            0.22551240026950836
                        ],
                        [
                            -0.7882980108261108
                        ],
                        [
                            -1.0399904251098633
                        ]
                    ],
                    [
                        -0.0004896463360637426
                    ]
                ]
            }
        ]
    },
    "drive_85_20": {
        "in_shape": [
            null,
            5
        ],
        "layers": [
            {
                "type": "dense",
                "activation": "tanh",
                "shape": [
                    null,
                    4
                ],
                "weights": [
                    [
                        [
                            -0.19538530707359314,
                            -0.8495290279388428,
                            0.6208425760269165,
                            0.12610235810279846
                        ],
                        [
                            0.10472304373979568,
                            0.3279757499694824,
                            0.02559380605816841,
                            -0.27111440896987915
                        ],
                        [
                            0.6382152438163757,
                            0.12285169214010239,
                            0.352070689201355,
                            -0.7264565825462341
                        ],
                        [
                            0.0031027980148792267,
                            -0.6886649131774902,
                            0.26584914326667786,
                            -0.1246054545044899
                        ],
                        [
                            0.7391687631607056,
                            -0.6724005937576294,
                            -0.3560205101966858,
                            0.5974709391593933
                        ]
                    ],
                    [
                        -0.000245581817580387,
                        0.009292270988225937,
                        -0.0041028582490980625,
                        -0.0003189418639522046
                    ]
                ]
            },
            {
                "type": "dense",
                "activation": "tanh",
                "shape": [
                    null,
                    4
                ],
                "weights": [
                    [
                        [
                            0.8237218856811523,
                            -0.7742400169372559,
                            -0.15243852138519287,
                            -0.06323745101690292
                        ],
                        [
                            0.2542358636856079,
                            0.18221904337406158,
                            -0.0790482684969902,
                            -0.20288848876953125
                        ],
                        [
                            0.6003695726394653,
                            -0.12031582742929459,
                            -0.05036451295018196,
                            0.7757524847984314
                        ],
                        [
                            0.44107651710510254,
                            -0.5603751540184021,
                            -0.11581139266490936,
                            0.21833175420761108
                        ]
                    ],
                    [
                        0.0004387690278235823,
                        0.00039577914867550135,
                        -0.00016559638606850058,
                        -0.0005519918631762266
                    ]
                ]
            },
            {
                "type": "dense",
                "activation": "",
                "shape": [
                    null,
                    1
                ],
                "weights": [
                    [
                        [
                            0.23080992698669434
                        ],
                        [
                            0.43054455518722534
                        ],
                        [
                            1.0904916524887085
                        ],
                        [
                            0.10520018637180328
                        ]
                    ],
                    [
                        -8.871596946846694e-06
                    ]
                ]
            }
        ]
    },
    "drive_90_20": {
        "in_shape": [
            null,
            5
        ],
        "layers": [
            {
                "type": "dense",
                "activation": "tanh",
                "shape": [
                    null,
                    4
                ],
                "weights": [
                    [
                        [
                            0.18106481432914734,
                            -0.16888603568077087,
                            -0.5262423753738403,
                            0.3034469485282898
                        ],
                        [
                            -0.2860768735408783,
                            0.14747725427150726,
                            0.32628747820854187,
                            0.13598531484603882
                        ],
                        [
                            -0.619552731513977,
                            -0.3789238929748535,
                            -0.6564143300056458,
                            0.20759320259094238
                        ],
                        [
                            -0.2399577498435974,
                            0.16902513802051544,
                            0.35258203744888306,
                            0.12667441368103027
                        ],
                        [
                            -0.622530460357666,
                            -1.6234967708587646,
                            0.5378205180168152,
                            -0.27492180466651917
                        ]
                    ],
                    [
                        0.003651669714599848,
                        0.0014317551394924521,
                        -0.0014392961747944355,
                        -0.0032194412779062986
                    ]
                ]
            },
            {
                "type": "dense",
                "activation": "tanh",
                "shape": [
                    null,
                    4
                ],
                "weights": [
                    [
                        [
                            0.5753312110900879,
                            -0.6142154335975647,
                            0.06730295717716217,
                            -0.6733325123786926
                        ],
                        [
                            -0.4313461482524872,
                            -0.4275805950164795,
                            0.5473203659057617,
                            0.6180576086044312
                        ],
                        [
                            -0.6348398327827454,
                            -0.28793057799339294,
                            -0.3187948167324066,
                            -0.8082897067070007
                        ],
                        [
                            0.12674996256828308,
                            -0.7293673157691956,
                            0.8337457776069641,
                            0.17816367745399475
                        ]
                    ],
                    [
                        -0.0018970535602420568,
                        0.0009990844409912825,
                        -0.0011866312706843019,
                        -0.00016119649808388203
                    ]
                ]
            },
            {
                "type": "dense",
                "activation": "",
                "shape": [
                    null,
                    1
                ],
                "weights": [
                    [
                        [
                            0.26982930302619934
                        ],
                        [
                            -0.7778849601745605
                        ],
                        [
                            -0.22575365006923676
                        ],
                        [
                            0.48532235622406006
                        ]
                    ],
                    [
                        0.0007119991350919008
                    ]
                ]
            }
        ]
    },
    "drive_95_20": {
        "in_shape": [
            null,
            5
        ],
        "layers": [
            {
                "type": "dense",
                "activation": "tanh",
                "shape": [
                    null,
                    4
                ],
                "weights": [
                    [
                        [
                            -0.4064217209815979,
                            -0.44870230555534363,
                            -0.17246507108211517,
                            0.18610355257987976
                        ],
                        [
                            -0.09070602804422379,
                            0.2681461572647095,
                            0.0189219918102026,
                            0.08215165883302689
                        ],
                        [
                            -0.04605966806411743,
                            0.8596341013908386,
                            0.46240803599357605,
                            0.32396724820137024
                        ],
                        [
                            -0.08894946426153183,
                            0.2665311098098755,
                            -0.005326623097062111,
                            0.20945322513580322
                        ],
                        [
                            0.33547261357307434,
                            -0.2753680944442749,
                            1.4568017721176147,
                            1.0252735614776611
                        ]
                    ],
                    [
                        0.001281981123611331,
                        -0.0005386155098676682,
                        0.001022768090479076,
                        0.0029337473679333925
                    ]
                ]
            },
            {
                "type": "dense",
                "activation": "tanh",
                "shape": [
                    null,
                    4
                ],
                "weights": [
                    [
                        [
                            -0.8101212978363037,
                            0.10268773138523102,
                            0.3242364823818207,
                            0.4989928901195526
                        ],
                        [
                            0.8968983292579651,
                            -0.14578445255756378,
                            0.02563640847802162,
                            0.6565988063812256
                        ],
                        [
                            0.6826955080032349,
                            -0.9605047106742859,
                            0.3263936936855316,
                            0.8975883722305298
                        ],
                        [
                            -0.09684442728757858,
                            -0.32498717308044434,
                            0.14383994042873383,
                            0.3411628007888794
                        ]
                    ],
                    [
                        0.0009655109606683254,
                        0.0009562895866110921,
                        -0.00019123927631881088,
                        0.0009277137578465044
                    ]
                ]
            },
            {
                "type": "dense",
                "activation": "",
                "shape": [
                    null,
                    1
                ],
                "weights": [
                    [
                        [
                            0.29919710755348206
                        ],
                        [
                            0.570238471031189
                        ],
                        [
                            -0.28510206937789917
                        ],
                        [
                            0.30413922667503357
                        ]
                    ],
                    [
                        -0.00024179172760341316
                    ]
                ]
            }
        ]
    },
    "drive_100_20": {
        "in_shape": [
            null,
            5
        ],
        "layers": [
            {
                "type": "dense",
                "activation": "tanh",
                "shape": [
                    null,
                    4
                ],
                "weights": [
                    [
                        [
                            0.6813290119171143,
                            -0.27601155638694763,
                            1.1348813772201538,
                            0.5701578855514526
                        ],
                        [
                            -0.2899971604347229,
                            0.29203107953071594,
                            0.01237786840647459,
                            -0.03434021770954132
                        ],
                        [
                            -0.34345412254333496,
                            -0.31055164337158203,
                            -0.09066164493560791,
                            -0.15021546185016632
                        ],
                        [
                            -0.25598976016044617,
                            0.31166693568229675,
                            0.037990257143974304,
                            -0.015236052684485912
                        ],
                        [
                            1.805077075958252,
                            0.8249878287315369,
                            -0.4214382469654083,
                            -0.7193912267684937
                        ]
                    ],
                    [
                        0.00055282237008214,
                        -0.004295446909964085,
                        -6.387986650224775e-05,
                        -0.0031932571437209845
                    ]
                ]
            },
            {
                "type": "dense",
                "activation": "tanh",
                "shape": [
                    null,
                    4
                ],
                "weights": [
                    [
                        [
                            -0.29549887776374817,
                            -0.16094419360160828,
                            -0.08947990089654922,
                            0.2327539175748825
                        ],
                        [
                            -0.24023550748825073,
                            0.06235748156905174,
                            -0.04909546673297882,
                            -0.0967702865600586
                        ],
                        [
                            -0.4971085786819458,
                            0.027519913390278816,
                            0.8545144200325012,
                            -0.041507404297590256
                        ],
                        [
                            -0.5366347432136536,
                            -0.5310801267623901,
                            0.10764069110155106,
                            0.006183648481965065
                        ]
                    ],
                    [
                        -0.0002608886861708015,
                        -0.0015611553099006414,
                        -0.002849189331755042,
                        0.00019673517090268433
                    ]
                ]
            },
            {
                "type": "dense",
                "activation": "",
                "shape": [
                    null,
                    1
                ],
                "weights": [
                    [
                        [
                            0.8771897554397583
                        ],
                        [
                            -0.6907921433448792
                        ],
                        [
                            0.6957888603210449
                        ],
                        [
                            -0.8396005034446716
                        ]
                    ],
                    [
                        0.0004875378217548132
                    ]
                ]
            }
        ]
    }
}