{
    "drive_0_0": {
        "in_shape": [
            null,
            6
        ],
        "layers": [
            {
                "type": "dense",
                "activation": "tanh",
                "shape": [
                    null,
                    4
                ],
                "weights": [
                    [
                        [
                            -0.282523512840271,
                            0.4091126024723053,
                            -1.743581771850586,
                            -1.0311294794082642
                        ],
                        [
                            0.1132233664393425,
                            0.2551189363002777,
                            -0.23464564979076385,
                            0.22984053194522858
                        ],
                        [
                            0.06831882894039154,
                            0.1941354125738144,
                            -0.5394780039787292,
                            0.12889814376831055
                        ],
                        [
                            -0.2545865476131439,
                            -0.026194145902991295,
                            -0.15501455962657928,
                            0.11057896167039871
                        ],
                        [
                            -0.09422619640827179,
                            -0.008571731857955456,
                            -0.056347139179706573,
                            0.13145409524440765
                        ],
                        [
                            -0.11944635212421417,
                            0.06274893879890442,
                            0.49070465564727783,
                            0.19342471659183502
                        ]
                    ],
                    [
                        0.05764591693878174,
                        0.017294486984610558,
                        0.04234492406249046,
                        -0.12026596069335938
                    ]
                ]
            },
            {
                "type": "dense",
                "activation": "tanh",
                "shape": [
                    null,
                    4
                ],
                "weights": [
                    [
                        [
                            -0.5596901178359985,
                            0.6861186623573303,
                            0.32679322361946106,
                            -0.4787244200706482
                        ],
                        [
                            1.1567821502685547,
                            -0.7873805165290833,
                            -0.40574488043785095,
                            0.862890899181366
                        ],
                        [
                            0.7844451069831848,
                            -0.1355820596218109,
                            1.0325629711151123,
                            0.15037919580936432
                        ],
                        [
                            -1.1651098728179932,
                            -0.03384488448500633,
                            1.1029037237167358,
                            -0.044685155153274536
                        ]
                    ],
                    [
                        0.022184226661920547,
                        0.04513850808143616,
                        0.02248520217835903,
                        -0.022284233942627907
                    ]
                ]
            },
            {
                "type": "dense",
                "activation": "",
                "shape": [
                    null,
                    1
                ],
                "weights": [
                    [
                        [
                            -1.1695014238357544
                        ],
                        [
                            1.2403831481933594
                        ],
                        [
                            -1.2784059047698975
                        ],
                        [
                            -1.4752798080444336
                        ]
                    ],
                    [
                        0.022055957466363907
                    ]
                ]
            }
        ]
    },
    "drive_5_0": {
        "in_shape": [
            null,
            6
        ],
        "layers": [
            {
                "type": "dense",
                "activation": "tanh",
                "shape": [
                    null,
                    4
                ],
                "weights": [
                    [
                        [
                            -0.7810351252555847,
                            0.5275958776473999,
                            -0.08433970808982849,
                            0.46811655163764954
                        ],
                        [
                            -0.6302118301391602,
                            0.6327633261680603,
                            0.019292689859867096,
                            -0.2603524625301361
                        ],
                        [
                            1.008810043334961,
                            -0.03815925493836403,
                            -0.25009584426879883,
                            -0.29194512963294983
                        ],
                        [
                            -0.6528376340866089,
                            0.6342464089393616,
                            0.03866323083639145,
                            -0.11349409818649292
                        ],
                        [
                            -0.041809167712926865,
                            0.06910964101552963,
                            0.07846026122570038,
                            0.6907693147659302
                        ],
                        [
                            -1.1189489364624023,
                            0.05906463414430618,
                            0.5787064433097839,
                            0.20728085935115814
                        ]
                    ],
                    [
                        0.0406314842402935,
                        -0.060588736087083817,
                        -0.06641066819429398,
                        -0.07710215449333191
                    ]
                ]
            },
            {
                "type": "dense",
                "activation": "tanh",
                "shape": [
                    null,
                    4
                ],
                "weights": [
                    [
                        [
                            0.029183773323893547,
                            -0.7733402848243713,
                            -0.6629166603088379,
                            -0.6401705145835876
                        ],
                        [
                            0.5658209323883057,
                            -0.7357344627380371,
                            -0.865775465965271,
                            -0.4519791901111603
                        ],
                        [
                            0.07003233581781387,
                            -0.7824259996414185,
                            0.9581097364425659,
                            -1.1331690549850464
                        ],
                        [
                            -0.06941934674978256,
                            -0.3764048218727112,
                            -0.24348559975624084,
                            0.24930383265018463
                        ]
                    ],
                    [
                        0.059442050755023956,
                        0.22107838094234467,
                        0.08484205603599548,
                        -0.10722650587558746
                    ]
                ]
            },
            {
                "type": "dense",
                "activation": "",
                "shape": [
                    null,
                    1
                ],
                "weights": [
                    [
                        [
                            -0.30231261253356934
                        ],
                        [
                            0.7998392581939697
                        ],
                        [
                            -0.27328750491142273
                        ],
                        [
                            3.4367237091064453
                        ]
                    ],
                    [
                        -0.05695699155330658
                    ]
                ]
            }
        ]
    },
    "drive_10_0": {
        "in_shape": [
            null,
            6
        ],
        "layers": [
            {
                "type": "dense",
                "activation": "tanh",
                "shape": [
                    null,
                    4
                ],
                "weights": [
                    [
                        [
                            0.3697569966316223,
                            0.24553850293159485,
                            -1.9809577465057373,
                            0.28269249200820923
                        ],
                        [
                            0.904742956161499,
                            -0.053716085851192474,
                            -0.524292528629303,
                            -0.3379295766353607
                        ],
                        [
                            0.3563435673713684,
                            -1.1949793100357056,
                            -1.267150640487671,
                            0.061755552887916565
                        ],
                        [
                            0.8175898194313049,
                            0.24767951667308807,
                            -0.5314809679985046,
                            -0.11604845523834229
                        ],
                        [
                            -0.1719210296869278,
                            0.0960480198264122,
                            0.16236461699008942,
                            0.0505385659635067
                        ],
                        [
                            -0.34943491220474243,
                            0.2695732116699219,
                            0.4997240900993347,
                            0.6777941584587097
                        ]
                    ],
                    [
                        0.20586338639259338,
                        -0.13350386917591095,
                        -0.1586669683456421,
                        -0.0073762573301792145
                    ]
                ]
            },
            {
                "type": "dense",
                "activation": "tanh",
                "shape": [
                    null,
                    4
                ],
                "weights": [
                    [
                        [
                            -1.5331292152404785,
                            0.11470293253660202,
                            -0.42796802520751953,
                            0.567207396030426
                        ],
                        [
                            0.3637186288833618,
                            -0.004027153365314007,
                            0.5269508957862854,
                            -0.003972569014877081
                        ],
                        [
                            -0.8310311436653137,
                            -0.017950940877199173,
                            -0.24948719143867493,
                            -0.6832191348075867
                        ],
                        [
                            0.05805429071187973,
                            0.54192715883255,
                            -0.6185844540596008,
                            -1.2439696788787842
                        ]
                    ],
                    [
                        0.09031976759433746,
                        -0.03585163131356239,
                        -0.05380241200327873,
                        0.08144128322601318
                    ]
                ]
            },
            {
                "type": "dense",
                "activation": "",
                "shape": [
                    null,
                    1
                ],
                "weights": [
                    [
                        [
                            1.374123215675354
                        ],
                        [
                            -0.7006849646568298
                        ],
                        [
                            1.1224993467330933
                        ],
                        [
                            1.104551911354065
                        ]
                    ],
                    [
                        0.03736870735883713
                    ]
                ]
            }
        ]
    },
    "drive_15_0": {
        "in_shape": [
            null,
            6
        ],
        "layers": [
            {
                "type": "dense",
                "activation": "tanh",
                "shape": [
                    null,
                    4
                ],
                "weights": [
                    [
                        [
                            -0.7757217288017273,
                            0.25088900327682495,
                            0.4131930470466614,
                            1.1100611686706543
                        ],
                        [
                            0.01871819607913494,
                            -0.3058049976825714,
                            0.8935401439666748,
                            0.0380239263176918
                        ],
                        [
                            0.07088000327348709,
                            0.593102753162384,
                            0.13983669877052307,
                            0.07344646751880646
                        ],
                        [
                            -0.9034671783447266,
                            -0.255624383687973,
                            0.6636257171630859,
                            0.08024933934211731
                        ],
                        [
                            0.016651751473546028,
                            0.033501036465168,
                            -0.10180098563432693,
                            -0.005625855643302202
                        ],
                        [
                            -0.22075100243091583,
                            0.31813716888427734,
                            -0.1008153036236763,
                            -0.6748180389404297
                        ]
                    ],
                    [
                        0.011844329535961151,
                        0.021679094061255455,
                        0.16829325258731842,
                        -0.001834979746490717
                    ]
                ]
            },
            {
                "type": "dense",
                "activation": "tanh",
                "shape": [
                    null,
                    4
                ],
                "weights": [
                    [
                        [
                            0.3882564902305603,
                            0.17435549199581146,
                            -0.2216174453496933,
                            -0.10275118052959442
                        ],
                        [
                            0.36924174427986145,
                            -0.5306453704833984,
                            -0.8786047101020813,
                            1.6120686531066895
                        ],
                        [
                            -0.6179257035255432,
                            -0.6244364380836487,
                            -0.16913628578186035,
                            1.2458406686782837
                        ],
                        [
                            -0.2683655321598053,
                            0.31734758615493774,
                            -0.07749239355325699,
                            1.7948914766311646
                        ]
                    ],
                    [
                        0.04639572650194168,
                        -0.020347462967038155,
                        0.02939430996775627,
                        -0.12579160928726196
                    ]
                ]
            },
            {
                "type": "dense",
                "activation": "",
                "shape": [
                    null,
                    1
                ],
                "weights": [
                    [
                        [
                            0.8220868706703186
                        ],
                        [
                            1.4170756340026855
                        ],
                        [
                            1.3258546590805054
                        ],
                        [
                            1.3686683177947998
                        ]
                    ],
                    [
                        0.10254009068012238
                    ]
                ]
            }
        ]
    },
    "drive_20_0": {
        "in_shape": [
            null,
            6
        ],
        "layers": [
            {
                "type": "dense",
                "activation": "tanh",
                "shape": [
                    null,
                    4
                ],
                "weights": [
                    [
                        [
                            -0.178431436419487,
                            -1.8690357208251953,
                            0.3681284189224243,
                            -0.6177321672439575
                        ],
                        [
                            -0.4031839370727539,
                            -0.46837323904037476,
                            0.11384955793619156,
                            -0.12294889986515045
                        ],
                        [
                            0.0096770990639925,
                            -0.9874138832092285,
                            0.784874677658081,
                            -0.3694942891597748
                        ],
                        [
                            -0.504198431968689,
                            -0.4487376809120178,
                            0.09101404249668121,
                            -0.01885351352393627
                        ],
                        [
                            -0.1531308889389038,
                            -0.013489159755408764,
                            0.014324177987873554,
                            0.14213643968105316
                        ],
                        [
                            -0.25490063428878784,
                            0.18765538930892944,
                            -0.16111019253730774,
                            -0.30889561772346497
                        ]
                    ],
                    [
                        0.11718367040157318,
                        0.0016220215475186706,
                        0.022328011691570282,
                        -0.13083946704864502
                    ]
                ]
            },
            {
                "type": "dense",
                "activation": "tanh",
                "shape": [
                    null,
                    4
                ],
                "weights": [
                    [
                        [
                            0.11896920204162598,
                            -0.9280027747154236,
                            -0.35476231575012207,
                            1.9871989488601685
                        ],
                        [
                            0.7911830544471741,
                            0.5419294238090515,
                            0.7914753556251526,
                            0.7069998383522034
                        ],
                        [
                            0.9052689671516418,
                            -0.2736871540546417,
                            0.6345871090888977,
                            0.33133235573768616
                        ],
                        [
                            -0.6676130890846252,
                            0.3584725856781006,
                            -0.41628777980804443,
                            1.8530246019363403
                        ]
                    ],
                    [
                        -0.010181944817304611,
                        -0.05262603983283043,
                        -0.01453408133238554,
                        0.017562206834554672
                    ]
                ]
            },
            {
                "type": "dense",
                "activation": "",
                "shape": [
                    null,
                    1
                ],
                "weights": [
                    [
                        [
                            -1.9065251350402832
                        ],
                        [
                            -1.1062060594558716
                        ],
                        [
                            -1.7535561323165894
                        ],
                        [
                            0.5862035155296326
                        ]
                    ],
                    [
                        -0.003275094786658883
                    ]
                ]
            }
        ]
    },
    "drive_25_0": {
        "in_shape": [
            null,
            6
        ],
        "layers": [
            {
                "type": "dense",
                "activation": "tanh",
                "shape": [
                    null,
                    4
                ],
                "weights": [
                    [
                        [
                            0.35034817457199097,
                            0.37720009684562683,
                            1.3638969659805298,
                            0.4287453591823578
                        ],
                        [
                            0.08612485975027084,
                            -0.7780313491821289,
                            0.5923173427581787,
                            0.8833423256874084
                        ],
                        [
                            0.13456617295742035,
                            -0.5018891096115112,
                            0.8427268862724304,
                            -0.5955307483673096
                        ],
                        [
                            0.05866942182183266,
                            -0.701022207736969,
                            0.5915945768356323,
                            0.8546854257583618
                        ],
                        [
                            -0.022967755794525146,
                            -0.02458651177585125,
                            -0.30379024147987366,
                            0.15765884518623352
                        ],
                        [
                            -0.9104666113853455,
                            -0.16664958000183105,
                            1.1966058015823364,
                            1.1154597997665405
                        ]
                    ],
                    [
                        0.014859952963888645,
                        0.08935115486383438,
                        0.3468562960624695,
                        -0.2225876897573471
                    ]
                ]
            },
            {
                "type": "dense",
                "activation": "tanh",
                "shape": [
                    null,
                    4
                ],
                "weights": [
                    [
                        [
                            0.43286991119384766,
                            -0.23524688184261322,
                            -1.0020588636398315,
                            0.6172304153442383
                        ],
                        [
                            1.036360740661621,
                            1.1127501726150513,
                            -0.2368970364332199,
                            0.7943822145462036
                        ],
                        [
                            0.31160247325897217,
                            -0.3341633081436157,
                            -1.0748801231384277,
                            -0.42462867498397827
                        ],
                        [
                            -0.8155192732810974,
                            0.10362965613603592,
                            0.37621867656707764,
                            0.7019270658493042
                        ]
                    ],
                    [
                        -0.11816909909248352,
                        0.08994727581739426,
                        0.025520799681544304,
                        -0.03193625807762146
                    ]
                ]
            },
            {
                "type": "dense",
                "activation": "",
                "shape": [
                    null,
                    1
                ],
                "weights": [
                    [
                        [
                            -0.5656907558441162
                        ],
                        [
                            0.5350733399391174
                        ],
                        [
                            -1.415692687034607
                        ],
                        [
                            1.7962497472763062
                        ]
                    ],
                    [
                        -0.05146285146474838
                    ]
                ]
            }
        ]
    },
    "drive_30_0": {
        "in_shape": [
            null,
            6
        ],
        "layers": [
            {
                "type": "dense",
                "activation": "tanh",
                "shape": [
                    null,
                    4
                ],
                "weights": [
                    [
                        [
                            -1.8594008684158325,
                            -0.6564533710479736,
                            -0.0800461545586586,
                            0.726628839969635
                        ],
                        [
                            -0.365646630525589,
                            -0.2787940800189972,
                            -0.11407549679279327,
                            -0.6014509797096252
                        ],
                        [
                            0.08466122299432755,
                            0.2251252979040146,
                            0.4139069616794586,
                            0.15412266552448273
                        ],
                        [
                            -0.39101624488830566,
                            -0.2768709659576416,
                            0.007061122916638851,
                            -0.5944769978523254
                        ],
                        [
                            0.08299096673727036,
                            -0.021399974822998047,
                            -0.4730414152145386,
                            0.1486513912677765
                        ],
                        [
                            0.6825527548789978,
                            0.023262517526745796,
                            0.13190129399299622,
                            0.3698153495788574
                        ]
                    ],
                    [
                        -0.08551943302154541,
                        -0.011966677382588387,
                        0.24884755909442902,
                        -0.1367870271205902
                    ]
                ]
            },
            {
                "type": "dense",
                "activation": "tanh",
                "shape": [
                    null,
                    4
                ],
                "weights": [
                    [
                        [
                            -1.5565625429153442,
                            0.6543004512786865,
                            0.2339686155319214,
                            -0.03379247337579727
                        ],
                        [
                            -0.4164220690727234,
                            -1.3118544816970825,
                            1.2476774454116821,
                            -0.612799346446991
                        ],
                        [
                            0.14852139353752136,
                            0.48803821206092834,
                            0.04159765690565109,
                            -0.10476545989513397
                        ],
                        [
                            1.2633873224258423,
                            0.7720131874084473,
                            0.4830867052078247,
                            0.3321009874343872
                        ]
                    ],
                    [
                        0.005736652296036482,
                        0.07208037376403809,
                        0.04442470893263817,
                        -0.05598221719264984
                    ]
                ]
            },
            {
                "type": "dense",
                "activation": "",
                "shape": [
                    null,
                    1
                ],
                "weights": [
                    [
                        [
                            1.3240385055541992
                        ],
                        [
                            -1.7862597703933716
                        ],
                        [
                            0.8888105750083923
                        ],
                        [
                            -0.8370893001556396
                        ]
                    ],
                    [
                        0.014912559650838375
                    ]
                ]
            }
        ]
    },
    "drive_35_0": {
        "in_shape": [
            null,
            6
        ],
        "layers": [
            {
                "type": "dense",
                "activation": "tanh",
                "shape": [
                    null,
                    4
                ],
                "weights": [
                    [
                        [
                            0.9985412359237671,
                            -0.2854335308074951,
                            0.7690393328666687,
                            -0.39709073305130005
                        ],
                        [
                            0.10554482042789459,
                            0.42929500341415405,
                            -0.5580865740776062,
                            -0.755850076675415
                        ],
                        [
                            -0.6330412030220032,
                            0.840972363948822,
                            0.44262897968292236,
                            -1.0195672512054443
                        ],
                        [
                            0.16003021597862244,
                            0.31866979598999023,
                            -0.4534696638584137,
                            -0.5721952319145203
                        ],
                        [
                            -0.049445003271102905,
                            0.05452309921383858,
                            0.05356680229306221,
                            -0.046675052493810654
                        ],
                        [
                            -0.1466676890850067,
                            0.11744970083236694,
                            0.17769156396389008,
                            0.5874597430229187
                        ]
                    ],
                    [
                        0.06686234474182129,
                        -0.07764017581939697,
                        -0.06927327066659927,
                        0.0263186227530241
                    ]
                ]
            },
            {
                "type": "dense",
                "activation": "tanh",
                "shape": [
                    null,
                    4
                ],
                "weights": [
                    [
                        [
                            0.12131638079881668,
                            -2.0041866302490234,
                            0.9192425608634949,
                            -0.6561781167984009
                        ],
                        [
                            -0.9942084550857544,
                            -0.05447918921709061,
                            0.9518868923187256,
                            -0.3894215226173401
                        ],
                        [
                            -0.7730636596679688,
                            -1.3720144033432007,
                            -0.5404797792434692,
                            -0.653559148311615
                        ],
                        [
                            -0.6191195845603943,
                            0.85130774974823,
                            -0.013698934577405453,
                            -0.7029694318771362
                        ]
                    ],
                    [
                        0.0015657412586733699,
                        0.058719344437122345,
                        -0.011214036494493484,
                        -0.03208537399768829
                    ]
                ]
            },
            {
                "type": "dense",
                "activation": "",
                "shape": [
                    null,
                    1
                ],
                "weights": [
                    [
                        [
                            0.943572461605072
                        ],
                        [
                            -1.2764424085617065
                        ],
                        [
                            -1.6757467985153198
                        ],
                        [
                            1.1416293382644653
                        ]
                    ],
                    [
                        -0.01448895875364542
                    ]
                ]
            }
        ]
    },
    "drive_40_0": {
        "in_shape": [
            null,
            6
        ],
        "layers": [
            {
                "type": "dense",
                "activation": "tanh",
                "shape": [
                    null,
                    4
                ],
                "weights": [
                    [
                        [
                            0.2569766938686371,
                            1.648927927017212,
                            -0.15255239605903625,
                            -0.48615238070487976
                        ],
                        [
                            0.5913230180740356,
                            0.31870073080062866,
                            -0.259663462638855,
                            -0.10765694081783295
                        ],
                        [
                            0.11885886639356613,
                            0.9303947687149048,
                            -0.4889217019081116,
                            -0.07718008011579514
                        ],
                        [
                            0.11500589549541473,
                            0.28410860896110535,
                            -0.16530488431453705,
                            -0.11666473001241684
                        ],
                        [
                            -0.10290104895830154,
                            -0.0014986122259870172,
                            0.1502314656972885,
                            -0.26869824528694153
                        ],
                        [
                            -0.6213229298591614,
                            -0.5526623725891113,
                            0.03194091469049454,
                            -0.09372906386852264
                        ]
                    ],
                    [
                        0.1348458230495453,
                        -0.016235074028372765,
                        -0.1583247184753418,
                        0.3810945153236389
                    ]
                ]
            },
            {
                "type": "dense",
                "activation": "tanh",
                "shape": [
                    null,
                    4
                ],
                "weights": [
                    [
                        [
                            0.4106483459472656,
                            -0.6738011240959167,
                            -0.4345337748527527,
                            0.22738339006900787
                        ],
                        [
                            0.29118451476097107,
                            0.6594545245170593,
                            -0.6970850229263306,
                            -0.6695671081542969
                        ],
                        [
                            0.7978918552398682,
                            0.5243370532989502,
                            -1.0954043865203857,
                            -0.4613809883594513
                        ],
                        [
                            0.27270829677581787,
                            0.34416884183883667,
                            -0.6188141703605652,
                            -0.3454616963863373
                        ]
                    ],
                    [
                        -0.05722568929195404,
                        -0.04833032935857773,
                        0.00818021222949028,
                        0.017783639952540398
                    ]
                ]
            },
            {
                "type": "dense",
                "activation": "",
                "shape": [
                    null,
                    1
                ],
                "weights": [
                    [
                        [
                            1.3584924936294556
                        ],
                        [
                            0.8915356993675232
                        ],
                        [
                            -1.733748197555542
                        ],
                        [
                            -0.9399654269218445
                        ]
                    ],
                    [
                        -0.016769403591752052
                    ]
                ]
            }
        ]
    },
    "drive_45_0": {
        "in_shape": [
            null,
            6
        ],
        "layers": [
            {
                "type": "dense",
                "activation": "tanh",
                "shape": [
                    null,
                    4
                ],
                "weights": [
                    [
                        [
                            -0.22907353937625885,
                            -0.7790740728378296,
                            1.5909767150878906,
                            0.17040209472179413
                        ],
                        [
                            -0.37273073196411133,
                            0.27208006381988525,
                            0.29586854577064514,
                            -0.2287382334470749
                        ],
                        [
                            0.09589061886072159,
                            -0.6251402497291565,
                            0.526269257068634,
                            -0.317879855632782
                        ],
                        [
                            -0.35809946060180664,
                            0.32023197412490845,
                            0.31438013911247253,
                            -0.29340463876724243
                        ],
                        [
                            0.028341950848698616,
                            -0.01291892770677805,
                            -0.025635000318288803,
                            0.011495495215058327
                        ],
                        [
                            -0.12377315014600754,
                            0.5198439359664917,
                            -0.4103338122367859,
                            -0.31237486004829407
                        ]
                    ],
                    [
                        -0.022512201219797134,
                        0.010160556063055992,
                        0.02402539551258087,
                        -0.03570234403014183
                    ]
                ]
            },
            {
                "type": "dense",
                "activation": "tanh",
                "shape": [
                    null,
                    4
                ],
                "weights": [
                    [
                        [
                            0.3353883624076843,
                            0.46796169877052307,
                            -0.8970282673835754,
                            0.75469970703125
                        ],
                        [
                            0.4336619973182678,
                            0.533270537853241,
                            0.17653784155845642,
                            0.49785304069519043
                        ],
                        [
                            0.5678340196609497,
                            0.570612370967865,
                            1.4061228036880493,
                            0.8883627653121948
                        ],
                        [
                            0.538154661655426,
                            0.48097509145736694,
                            -1.150611400604248,
                            0.40887537598609924
                        ]
                    ],
                    [
                        0.018172582611441612,
                        -0.004132338799536228,
                        -0.04855271801352501,
                        0.01324128732085228
                    ]
                ]
            },
            {
                "type": "dense",
                "activation": "",
                "shape": [
                    null,
                    1
                ],
                "weights": [
                    [
                        [
                            1.4524732828140259
                        ],
                        [
                            1.7425384521484375
                        ],
                        [
                            -0.21042752265930176
                        ],
                        [
                            1.248094081878662
                        ]
                    ],
                    [
                        0.007459611631929874
                    ]
                ]
            }
        ]
    },
    "drive_50_0": {
        "in_shape": [
            null,
            6
        ],
        "layers": [
            {
                "type": "dense",
                "activation": "tanh",
                "shape": [
                    null,
                    4
                ],
                "weights": [
                    [
                        [
                            0.2753487229347229,
                            1.8172054290771484,
                            0.23837900161743164,
                            -0.5633072257041931
                        ],
                        [
                            -0.09858036786317825,
                            0.11429703235626221,
                            -0.6051343083381653,
                            0.15113793313503265
                        ],
                        [
                            -0.07515502721071243,
                            -0.033223092555999756,
                            -0.1693941354751587,
                            -0.03609943762421608
                        ],
                        [
                            -0.1486961990594864,
                            0.11226747184991837,
                            -0.6496952176094055,
                            0.20250295102596283
                        ],
                        [
                            0.2695150673389435,
                            0.02357134409248829,
                            0.1161685585975647,
                            -0.16808390617370605
                        ],
                        [
                            -0.531436026096344,
                            -0.13438494503498077,
                            0.27609875798225403,
                            -0.3080575168132782
                        ]
                    ],
                    [
                        -0.19959798455238342,
                        -0.024988142773509026,
                        -0.09124715626239777,
                        0.16907936334609985
                    ]
                ]
            },
            {
                "type": "dense",
                "activation": "tanh",
                "shape": [
                    null,
                    4
                ],
                "weights": [
                    [
                        [
                            0.5461209416389465,
                            0.1886303573846817,
                            0.45046836137771606,
                            0.005099792033433914
                        ],
                        [
                            0.8931036591529846,
                            -0.2016647607088089,
                            -0.6392467617988586,
                            -0.1871156543493271
                        ],
                        [
                            -0.09800238162279129,
                            0.5932581424713135,
                            -0.3178377151489258,
                            -0.9061621427536011
                        ],
                        [
                            1.2138606309890747,
                            0.030173663049936295,
                            1.4317575693130493,
                            -0.6276574730873108
                        ]
                    ],
                    [
                        -0.05407102778553963,
                        -0.016198880970478058,
                        0.0001505437248852104,
                        -0.036157913506031036
                    ]
                ]
            },
            {
                "type": "dense",
                "activation": "",
                "shape": [
                    null,
                    1
                ],
                "weights": [
                    [
                        [
                            1.7030177116394043
                        ],
                        [
                            0.19243784248828888
                        ],
                        [
                            -0.33304211497306824
                        ],
                        [
                            -0.9352895617485046
                        ]
                    ],
                    [
                        -0.018158141523599625
                    ]
                ]
            }
        ]
    },
    "drive_55_0": {
        "in_shape": [
            null,
            6
        ],
        "layers": [
            {
                "type": "dense",
                "activation": "tanh",
                "shape": [
                    null,
                    4
                ],
                "weights": [
                    [
                        [
                            -0.3596702814102173,
                            0.5241628885269165,
                            -1.2982944250106812,
                            0.6355161070823669
                        ],
                        [
                            0.06410776078701019,
                            -0.21724887192249298,
                            -0.21685151755809784,
                            -0.3946067690849304
                        ],
                        [
                            0.2815859913825989,
                            0.6466551423072815,
                            -0.4836173951625824,
                            -0.1654011309146881
                        ],
                        [
                            0.0047829365357756615,
                            -0.23578450083732605,
                            -0.1499250829219818,
                            -0.4221574068069458
                        ],
                        [
                            -0.19015519320964813,
                            0.19509975612163544,
                            0.10259542614221573,
                            -0.2313724011182785
                        ],
                        [
                            0.6061527132987976,
                            -0.18650899827480316,
                            -0.24229001998901367,
                            -0.36950939893722534
                        ]
                    ],
                    [
                        0.15612423419952393,
                        -0.19862966239452362,
                        -0.09520769119262695,
                        0.03032395988702774
                    ]
                ]
            },
            {
                "type": "dense",
                "activation": "tanh",
                "shape": [
                    null,
                    4
                ],
                "weights": [
                    [
                        [
                            -0.8866175413131714,
                            -1.0382767915725708,
                            0.5539885759353638,
                            -1.0073487758636475
                        ],
                        [
                            0.44719332456588745,
                            0.18267729878425598,
                            0.7172513604164124,
                            -0.6099734902381897
                        ],
                        [
                            0.3989213705062866,
                            -0.9530192613601685,
                            1.045796275138855,
                            -0.5327897071838379
                        ],
                        [
                            -0.12493444234132767,
                            0.15800340473651886,
                            -0.74012291431427,
                            -0.3296339809894562
                        ]
                    ],
                    [
                        -0.08431662619113922,
                        0.02048845775425434,
                        -0.10858522355556488,
                        -0.08183847367763519
                    ]
                ]
            },
            {
                "type": "dense",
                "activation": "",
                "shape": [
                    null,
                    1
                ],
                "weights": [
                    [
                        [
                            0.7976780533790588
                        ],
                        [
                            0.27991414070129395
                        ],
                        [
                            -0.977211058139801
                        ],
                        [
                            0.21926750242710114
                        ]
                    ],
                    [
                        0.03808311000466347
                    ]
                ]
            }
        ]
    },
    "drive_60_0": {
        "in_shape": [
            null,
            6
        ],
        "layers": [
            {
                "type": "dense",
                "activation": "tanh",
                "shape": [
                    null,
                    4
                ],
                "weights": [
                    [
                        [
                            0.12539325654506683,
                            -1.2161451578140259,
                            -0.5079360604286194,
                            -0.0009266545530408621
                        ],
                        [
                            0.06823074072599411,
                            -0.1666637361049652,
                            0.4244474172592163,
                            0.09326143562793732
                        ],
                        [
                            0.5818309783935547,
                            -0.2459084689617157,
                            0.5693623423576355,
                            0.12318558245897293
                        ],
                        [
                            -0.1385304033756256,
                            0.00874226912856102,
                            0.0005574231618084013,
                            -0.07474302500486374
                        ],
                        [
                            -0.3188552260398865,
                            0.17748183012008667,
                            -0.3825710415840149,
                            -0.23873917758464813
                        ],
                        [
                            0.22536437213420868,
                            -0.047145452350378036,
                            0.18915539979934692,
                            -0.5749095678329468
                        ]
                    ],
                    [
                        0.2654614746570587,
                        -0.08104364573955536,
                        0.09402693808078766,
                        0.11641561985015869
                    ]
                ]
            },
            {
                "type": "dense",
                "activation": "tanh",
                "shape": [
                    null,
                    4
                ],
                "weights": [
                    [
                        [
                            -0.0009567358647473156,
                            0.8448445796966553,
                            0.4350173771381378,
                            0.3228285610675812
                        ],
                        [
                            1.4284634590148926,
                            -0.3078971207141876,
                            0.4066941440105438,
                            -0.47992801666259766
                        ],
                        [
                            0.6523644328117371,
                            -0.4348613917827606,
                            0.6149418950080872,
                            0.17456983029842377
                        ],
                        [
                            0.36557823419570923,
                            -0.1306443214416504,
                            -0.913663387298584,
                            1.156334400177002
                        ]
                    ],
                    [
                        0.015441199764609337,
                        -0.15523932874202728,
                        0.08054589480161667,
                        -0.13242241740226746
                    ]
                ]
            },
            {
                "type": "dense",
                "activation": "",
                "shape": [
                    null,
                    1
                ],
                "weights": [
                    [
                        [
                            -0.7833624482154846
                        ],
                        [
                            -0.5995787978172302
                        ],
                        [
                            -0.9272347092628479
                        ],
                        [
                            0.40675467252731323
                        ]
                    ],
                    [
                        0.06984583288431168
                    ]
                ]
            }
        ]
    },
    "drive_65_0": {
        "in_shape": [
            null,
            6
        ],
        "layers": [
            {
                "type": "dense",
                "activation": "tanh",
                "shape": [
                    null,
                    4
                ],
                "weights": [
                    [
                        [
                            0.32590413093566895,
                            -1.262061357498169,
                            -0.3745974004268646,
                            -0.6586785912513733
                        ],
                        [
                            -0.1560194343328476,
                            -0.24743860960006714,
                            0.23750507831573486,
                            0.22168147563934326
                        ],
                        [
                            -0.7933396697044373,
                            -0.4493435025215149,
                            0.4179098308086395,
                            0.5058122277259827
                        ],
                        [
                            0.19206632673740387,
                            -0.12449045479297638,
                            -0.09089528769254684,
                            0.10865723341703415
                        ],
                        [
                            -0.2671351432800293,
                            0.04524657502770424,
                            -0.06550445407629013,
                            -0.15026910603046417
                        ],
                        [
                            -0.020027711987495422,
                            -0.45271915197372437,
                            -0.2597540616989136,
                            0.8522452712059021
                        ]
                    ],
                    [
                        0.28115350008010864,
                        -0.03253541141748428,
                        -0.002763009862974286,
                        0.15465258061885834
                    ]
                ]
            },
            {
                "type": "dense",
                "activation": "tanh",
                "shape": [
                    null,
                    4
                ],
                "weights": [
                    [
                        [
                            0.09537112712860107,
                            -0.4551974833011627,
                            0.07327805459499359,
                            -0.20778802037239075
                        ],
                        [
                            0.5686545968055725,
                            -0.13856850564479828,
                            -0.6688435673713684,
                            -0.5258910059928894
                        ],
                        [
                            -0.6271768808364868,
                            -0.4653749465942383,
                            -0.3136581778526306,
                            -0.035713791847229004
                        ],
                        [
                            0.5909570455551147,
                            0.4512949287891388,
                            -0.40303537249565125,
                            -0.6023048162460327
                        ]
                    ],
                    [
                        0.0006712721660733223,
                        -0.0424305759370327,
                        0.013639414682984352,
                        0.06336336582899094
                    ]
                ]
            },
            {
                "type": "dense",
                "activation": "",
                "shape": [
                    null,
                    1
                ],
                "weights": [
                    [
                        [
                            -0.5533059239387512
                        ],
                        [
                            -1.0365118980407715
                        ],
                        [
                            1.0324944257736206
                        ],
                        [
                            0.15727536380290985
                        ]
                    ],
                    [
                        -0.023269809782505035
                    ]
                ]
            }
        ]
    },
    "drive_70_0": {
        "in_shape": [
            null,
            6
        ],
        "layers": [
            {
                "type": "dense",
                "activation": "tanh",
                "shape": [
                    null,
                    4
                ],
                "weights": [
                    [
                        [
                            0.34126225113868713,
                            -0.5993810296058655,
                            0.8998804688453674,
                            -1.0884573459625244
                        ],
                        [
                            -0.2946387529373169,
                            0.09528205543756485,
                            0.12066525965929031,
                            0.0073526897467672825
                        ],
                        [
                            -0.31468304991722107,
                            -0.44815751910209656,
                            0.08738923817873001,
                            0.172490194439888
                        ],
                        [
                            -0.15960676968097687,
                            0.19145695865154266,
                            0.24328042566776276,
                            0.12998194992542267
                        ],
                        [
                            -0.10610205680131912,
                            -0.029993252828717232,
                            -0.1450938582420349,
                            -0.13498298823833466
                        ],
                        [
                            -0.6832197308540344,
                            -0.2892020642757416,
                            0.033925529569387436,
                            0.511404275894165
                        ]
                    ],
                    [
                        0.09565349668264389,
                        0.0029223256278783083,
                        0.051553864032030106,
                        0.01581081561744213
                    ]
                ]
            },
            {
                "type": "dense",
                "activation": "tanh",
                "shape": [
                    null,
                    4
                ],
                "weights": [
                    [
                        [
                            -0.23970788717269897,
                            -0.16812826693058014,
                            0.4544689357280731,
                            -0.37722471356391907
                        ],
                        [
                            -1.0005093812942505,
                            -0.8434319496154785,
                            0.4642721116542816,
                            -0.29249128699302673
                        ],
                        [
                            0.9201372861862183,
                            -0.2531983554363251,
                            -0.13086500763893127,
                            0.08290251344442368
                        ],
                        [
                            -0.858683168888092,
                            0.2726387083530426,
                            -0.4246537685394287,
                            -0.12547193467617035
                        ]
                    ],
                    [
                        -0.030501168221235275,
                        0.022063465788960457,
                        -0.020310193300247192,
                        -0.035318225622177124
                    ]
                ]
            },
            {
                "type": "dense",
                "activation": "",
                "shape": [
                    null,
                    1
                ],
                "weights": [
                    [
                        [
                            0.8457690477371216
                        ],
                        [
                            -0.6383188962936401
                        ],
                        [
                            0.7860774397850037
                        ],
                        [
                            -0.2944263219833374
                        ]
                    ],
                    [
                        -0.012890325859189034
                    ]
                ]
            }
        ]
    },
    "drive_75_0": {
        "in_shape": [
            null,
            6
        ],
        "layers": [
            {
                "type": "dense",
                "activation": "tanh",
                "shape": [
                    null,
                    4
                ],
                "weights": [
                    [
                        [
                            -1.4262397289276123,
                            0.71726393699646,
                            -0.468229740858078,
                            0.09845418483018875
                        ],
                        [
                            -0.15591181814670563,
                            0.0065475571900606155,
                            0.3106383979320526,
                            -0.07541675865650177
                        ],
                        [
                            -0.1474430114030838,
                            -0.11522020399570465,
                            0.7143030166625977,
                            -0.03073040395975113
                        ],
                        [
                            -0.09702786058187485,
                            0.021234706044197083,
                            0.3029851019382477,
                            -0.12332701683044434
                        ],
                        [
                            -0.21344982087612152,
                            -0.6250540018081665,
                            -0.48548373579978943,
                            0.1370008885860443
                        ],
                        [
                            -0.43952786922454834,
                            -0.20592650771141052,
                            0.4016590416431427,
                            0.6387635469436646
                        ]
                    ],
                    [
                        0.04626143351197243,
                        0.08181977272033691,
                        0.05292293429374695,
                        -0.0952870324254036
                    ]
                ]
            },
            {
                "type": "dense",
                "activation": "tanh",
                "shape": [
                    null,
                    4
                ],
                "weights": [
                    [
                        [
                            -0.7852005362510681,
                            -0.20843908190727234,
                            1.0625238418579102,
                            -0.5378384590148926
                        ],
                        [
                            -0.41800224781036377,
                            -0.48723652958869934,
                            -0.7036040425300598,
                            -0.08830689638853073
                        ],
                        [
                            -0.6791250705718994,
                            0.6581637859344482,
                            -0.03035685047507286,
                            -0.4505009353160858
                        ],
                        [
                            0.1039765253663063,
                            0.8051674962043762,
                            -0.01132374070584774,
                            -0.9862432479858398
                        ]
                    ],
                    [
                        0.16194289922714233,
                        0.05839667096734047,
                        0.007685517892241478,
                        -0.005790610332041979
                    ]
                ]
            },
            {
                "type": "dense",
                "activation": "",
                "shape": [
                    null,
                    1
                ],
                "weights": [
                    [
                        [
                            0.12655094265937805
                        ],
                        [
                            -0.7530874013900757
                        ],
                        [
                            -0.65562903881073
                        ],
                        [
                            0.6387190818786621
                        ]
                    ],
                    [
                        -0.05217614024877548
                    ]
                ]
            }
        ]
    },
    "drive_80_0": {
        "in_shape": [
            null,
            6
        ],
        "layers": [
            {
                "type": "dense",
                "activation": "tanh",
                "shape": [
                    null,
                    4
                ],
                "weights": [
                    [
                        [
                            1.4553234577178955,
                            1.2766921520233154,
                            -0.4846777617931366,
                            -0.6364953517913818
                        ],
                        [
                            0.24601446092128754,
                            -0.30400559306144714,
                            0.35369864106178284,
                            0.18957720696926117
                        ],
                        [
                            0.2663659453392029,
                            0.7090906500816345,
                            -0.8884538412094116,
                            0.5636731386184692
                        ],
                        [
                            0.2283790558576584,
                            -0.5021417737007141,
                            0.4735466539859772,
                            0.136928990483284
                        ],
                        [
                            0.039204880595207214,
                            0.17059916257858276,
                            0.2122899293899536,
                            0.08800392597913742
                        ],
                        [
                            -0.031036376953125,
                            0.18462826311588287,
                            -0.38162556290626526,
                            0.8380530476570129
                        ]
                    ],
                    [
                        -0.04211006313562393,
                        0.13524916768074036,
                        -0.22456179559230804,
                        -0.03574880212545395
                    ]
                ]
            },
            {
                "type": "dense",
                "activation": "tanh",
                "shape": [
                    null,
                    4
                ],
                "weights": [
                    [
                        [
                            -1.5514546632766724,
                            -0.33437392115592957,
                            -0.7653204202651978,
                            -0.1550881564617157
                        ],
                        [
                            -0.32824739813804626,
                            -0.29293426871299744,
                            0.3485763370990753,
                            0.5600202083587646
                        ],
                        [
                            0.6192111372947693,
                            0.5267808437347412,
                            0.461372971534729,
                            0.48128649592399597
                        ],
                        [
                            0.4019899368286133,
                            -0.031920142471790314,
                            0.1548124998807907,
                            -0.9407855272293091
                        ]
                    ],
                    [
                        0.04486284777522087,
                        -0.0035698008723556995,
                        -0.0084158293902874,
                        -0.0026382163632661104
                    ]
                ]
            },
            {
                "type": "dense",
                "activation": "",
                "shape": [
                    null,
                    1
                ],
                "weights": [
                    [
                        [
                            -0.45467686653137207
                        ],
                        [
                            0.5825141668319702
                        ],
                        [
                            -0.5851681232452393
                        ],
                        [
                            0.7526721954345703
                        ]
                    ],
                    [
                        0.01837347447872162
                    ]
                ]
            }
        ]
    },
    "drive_85_0": {
        "in_shape": [
            null,
            6
        ],
        "layers": [
            {
                "type": "dense",
                "activation": "tanh",
                "shape": [
                    null,
                    4
                ],
                "weights": [
                    [
                        [
                            -0.5369265079498291,
                            0.36772605776786804,
                            -1.7288190126419067,
                            0.5804013013839722
                        ],
                        [
                            -0.10332849621772766,
                            0.17329144477844238,
                            0.05210922658443451,
                            0.1572532206773758
                        ],
                        [
                            0.26217517256736755,
                            0.22025585174560547,
                            0.3160935044288635,
                            0.18516679108142853
                        ],
                        [
                            0.04433552175760269,
                            -0.11173248291015625,
                            -0.1028965413570404,
                            -0.14409974217414856
                        ],
                        [
                            -0.05213858559727669,
                            0.18187378346920013,
                            0.14224304258823395,
                            0.24624702334403992
                        ],
                        [
                            0.6763007044792175,
                            0.5466632843017578,
                            -0.3661987781524658,
                            0.12256751954555511
                        ]
                    ],
                    [
                        0.056776631623506546,
                        -0.033664215356111526,
                        -0.08153961598873138,
                        0.01806996949017048
                    ]
                ]
            },
            {
                "type": "dense",
                "activation": "tanh",
                "shape": [
                    null,
                    4
                ],
                "weights": [
                    [
                        [
                            -0.0003263693070039153,
                            -0.381940633058548,
                            0.6580593585968018,
                            0.2299599051475525
                        ],
                        [
                            0.5289828777313232,
                            0.8129007816314697,
                            0.8209259510040283,
                            -0.24500450491905212
                        ],
                        [
                            -0.35790595412254333,
                            0.012033743783831596,
                            -0.0316036194562912,
                            1.0474237203598022
                        ],
                        [
                            0.011349640786647797,
                            -0.4248013198375702,
                            -0.3903960585594177,
                            -0.7611578702926636
                        ]
                    ],
                    [
                        0.05576366186141968,
                        0.06537721306085587,
                        -0.05875648930668831,
                        0.13134664297103882
                    ]
                ]
            },
            {
                "type": "dense",
                "activation": "",
                "shape": [
                    null,
                    1
                ],
                "weights": [
                    [
                        [
                            -0.16650867462158203
                        ],
                        [
                            -0.7759086489677429
                        ],
                        [
                            -1.135593056678772
                        ],
                        [
                            -0.8390116095542908
                        ]
                    ],
                    [
                        0.001332137850113213
                    ]
                ]
            }
        ]
    },
    "drive_90_0": {
        "in_shape": [
            null,
            6
        ],
        "layers": [
            {
                "type": "dense",
                "activation": "tanh",
                "shape": [
                    null,
                    4
                ],
                "weights": [
                    [
                        [
                            -0.6453065872192383,
                            1.8916579484939575,
                            0.0032595128286629915,
                            0.9259697794914246
                        ],
                        [
                            0.23006029427051544,
                            0.15995776653289795,
                            -0.23483628034591675,
                            -0.10627131164073944
                        ],
                        [
                            0.5459529161453247,
                            0.14267684519290924,
                            -0.5910842418670654,
                            0.5578286051750183
                        ],
                        [
                            0.12894563376903534,
                            0.09902811050415039,
                            -0.038137201219797134,
                            -0.18354809284210205
                        ],
                        [
                            0.12089358270168304,
                            0.010798814706504345,
                            -0.39421728253364563,
                            0.035679444670677185
                        ],
                        [
                            0.9022034406661987,
                            0.4178837835788727,
                            -0.10989005118608475,
                            0.554336667060852
                        ]
                    ],
                    [
                        -0.12451619654893875,
                        -0.06343227624893188,
                        0.09384091198444366,
                        0.008418207056820393
                    ]
                ]
            },
            {
                "type": "dense",
                "activation": "tanh",
                "shape": [
                    null,
                    4
                ],
                "weights": [
                    [
                        [
                            0.5694972276687622,
                            -0.018724428489804268,
                            0.31757649779319763,
                            0.8132807016372681
                        ],
                        [
                            -0.5259227752685547,
                            -0.5745118856430054,
                            -0.38812631368637085,
                            -1.0158615112304688
                        ],
                        [
                            0.09055954962968826,
                            0.43729591369628906,
                            0.6246855854988098,
                            0.4166092872619629
                        ],
                        [
                            0.7136549353599548,
                            0.12344491481781006,
                            0.626678466796875,
                            -0.4311545491218567
                        ]
                    ],
                    [
                        -0.0011386307887732983,
                        0.017758691683411598,
                        0.07056846469640732,
                        0.01078618410974741
                    ]
                ]
            },
            {
                "type": "dense",
                "activation": "",
                "shape": [
                    null,
                    1
                ],
                "weights": [
                    [
                        [
                            -0.5819187760353088
                        ],
                        [
                            0.7400798201560974
                        ],
                        [
                            -0.4945913851261139
                        ],
                        [
                            -0.7478920221328735
                        ]
                    ],
                    [
                        -0.020489994436502457
                    ]
                ]
            }
        ]
    },
    "drive_95_0": {
        "in_shape": [
            null,
            6
        ],
        "layers": [
            {
                "type": "dense",
                "activation": "tanh",
                "shape": [
                    null,
                    4
                ],
                "weights": [
                    [
                        [
                            1.486656904220581,
                            -0.011098988354206085,
                            -1.2514617443084717,
                            0.04388192296028137
                        ],
                        [
                            0.09267416596412659,
                            -0.48841017484664917,
                            -0.12068535387516022,
                            -0.260277658700943
                        ],
                        [
                            -0.46722325682640076,
                            1.5793017148971558,
                            -0.12431449443101883,
                            -0.4273828864097595
                        ],
                        [
                            0.19842997193336487,
                            -0.6520922780036926,
                            -0.021364480257034302,
                            -0.20170925557613373
                        ],
                        [
                            -0.38440969586372375,
                            0.12069037556648254,
                            -0.32683515548706055,
                            -0.034349262714385986
                        ],
                        [
                            0.13164234161376953,
                            1.2346614599227905,
                            0.4786489009857178,
                            -1.0064712762832642
                        ]
                    ],
                    [
                        0.14508943259716034,
                        -0.05091658979654312,
                        0.1260128915309906,
                        -0.025367453694343567
                    ]
                ]
            },
            {
                "type": "dense",
                "activation": "tanh",
                "shape": [
                    null,
                    4
                ],
                "weights": [
                    [
                        [
                            -0.07099270075559616,
                            0.1893024742603302,
                            -0.6797317266464233,
                            -1.2669223546981812
                        ],
                        [
                            0.11380726844072342,
                            0.42432722449302673,
                            0.0005567396874539554,
                            -0.6244706511497498
                        ],
                        [
                            0.24924518167972565,
                            0.32636991143226624,
                            -0.7099655270576477,
                            1.2432416677474976
                        ],
                        [
                            -0.4087253510951996,
                            -0.7857666611671448,
                            -0.8849923014640808,
                            0.28812524676322937
                        ]
                    ],
                    [
                        -0.0014080022228881717,
                        0.00781057495623827,
                        -0.25834131240844727,
                        -0.0186831746250391
                    ]
                ]
            },
            {
                "type": "dense",
                "activation": "",
                "shape": [
                    null,
                    1
                ],
                "weights": [
                    [
                        [
                            -0.507739245891571
                        ],
                        [
                            -0.47384339570999146
                        ],
                        [
                            -0.12867328524589539
                        ],
                        [
                            -0.48355093598365784
                        ]
                    ],
                    [
                        -0.01477384939789772
                    ]
                ]
            }
        ]
    },
    "drive_100_0": {
        "in_shape": [
            null,
            6
        ],
        "layers": [
            {
                "type": "dense",
                "activation": "tanh",
                "shape": [
                    null,
                    4
                ],
                "weights": [
                    [
                        [
                            -0.3050292134284973,
                            -1.1222068071365356,
                            0.1424063742160797,
                            -1.318421483039856
                        ],
                        [
                            -0.013646651059389114,
                            -0.15965208411216736,
                            0.46623900532722473,
                            -0.13902531564235687
                        ],
                        [
                            -1.1274901628494263,
                            -0.14146848022937775,
                            0.4101856052875519,
                            0.14106330275535583
                        ],
                        [
                            0.07539588212966919,
                            -0.16590707004070282,
                            0.4098914861679077,
                            -0.08238581568002701
                        ],
                        [
                            0.004464445635676384,
                            -0.4211564362049103,
                            0.08470511436462402,
                            0.47272181510925293
                        ],
                        [
                            -0.7820634841918945,
                            0.2873629629611969,
                            1.0355859994888306,
                            -0.34788060188293457
                        ]
                    ],
                    [
                        -0.0053186966106295586,
                        0.2222939282655716,
                        -0.08848760277032852,
                        -0.2022085189819336
                    ]
                ]
            },
            {
                "type": "dense",
                "activation": "tanh",
                "shape": [
                    null,
                    4
                ],
                "weights": [
                    [
                        [
                            -0.03413403406739235,
                            0.8128880858421326,
                            -0.7315926551818848,
                            0.061996012926101685
                        ],
                        [
                            0.4286426901817322,
                            1.122590184211731,
                            -0.07213054597377777,
                            -0.5902451276779175
                        ],
                        [
                            -0.7426724433898926,
                            -0.03910444304347038,
                            0.26608943939208984,
                            -0.36215248703956604
                        ],
                        [
                            -0.5205399394035339,
                            0.7967216968536377,
                            0.709465742111206,
                            0.5275505781173706
                        ]
                    ],
                    [
                        -0.17973068356513977,
                        -0.022943848744034767,
                        -0.08764728158712387,
                        -0.021395748481154442
                    ]
                ]
            },
            {
                "type": "dense",
                "activation": "",
                "shape": [
                    null,
                    1
                ],
                "weights": [
                    [
                        [
                            0.11509016156196594
                        ],
                        [
                            -0.5664897561073303
                        ],
                        [
                            -0.8727976083755493
                        ],
                        [
                            0.714913547039032
                        ]
                    ],
                    [
                        -0.0418982207775116
                    ]
                ]
            }
        ]
    }
}