{
    "in_shape": [
        null,
        5
    ],
    "layers": [
        {
            "type": "dense",
            "activation": "tanh",
            "shape": [
                null,
                8
            ],
            "weights": [
                [
                    [
                        1.2277911901474,
                        -1.3682773113250732,
                        -1.665402889251709,
                        -0.1159171536564827,
                        0.2828531265258789,
                        -0.31640270352363586,
                        2.1468520164489746,
                        -1.269983172416687
                    ],
                    [
                        -0.26948845386505127,
                        -0.5206009149551392,
                        -0.14372314512729645,
                        1.917386770248413,
                        -0.2269403636455536,
                        0.29754137992858887,
                        0.26635655760765076,
                        -1.2958967685699463
                    ],
                    [
                        1.7106305360794067,
                        -0.692481279373169,
                        -0.9104076027870178,
                        -1.5691365003585815,
                        0.2970941662788391,
                        0.4854373037815094,
                        2.339952230453491,
                        0.22164411842823029
                    ],
                    [
                        -0.34940338134765625,
                        -0.49755364656448364,
                        -0.13464367389678955,
                        1.9707194566726685,
                        -0.240325927734375,
                        0.24969837069511414,
                        0.1672583967447281,
                        -1.3203200101852417
                    ],
                    [
                        -1.3256142139434814,
                        -1.1249597072601318,
                        4.94688081741333,
                        -0.6946240663528442,
                        -2.111027717590332,
                        -1.1410069465637207,
                        0.4882155954837799,
                        -2.0233891010284424
                    ]
                ],
                [
                    0.005632504355162382,
                    -0.002237745327875018,
                    -0.01428297534584999,
                    -0.007732718717306852,
                    0.0048210108652710915,
                    0.00164911022875458,
                    -0.010508877225220203,
                    0.007700066082179546
                ]
            ]
        },
        {
            "type": "dense",
            "activation": "tanh",
            "shape": [
                null,
                8
            ],
            "weights": [
                [
                    [
                        -0.01757126674056053,
                        0.014074803330004215,
                        -0.4389897584915161,
                        -0.7657883167266846,
                        0.11284346878528595,
                        2.7760262489318848,
                        -0.019987404346466064,
                        -0.34491845965385437
                    ],
                    [
                        0.0023678394500166178,
                        -0.01531152706593275,
                        -1.0910792350769043,
                        1.192952036857605,
                        1.0478718280792236,
                        0.2562263309955597,
                        0.011068244464695454,
                        -0.4186042845249176
                    ],
                    [
                        -0.01626954972743988,
                        0.014890652149915695,
                        -0.38840430974960327,
                        0.672366201877594,
                        -0.3085257411003113,
                        1.3695478439331055,
                        -0.01902114227414131,
                        -1.5519063472747803
                    ],
                    [
                        -0.004037503153085709,
                        0.0070193069986999035,
                        -0.061198651790618896,
                        -3.128100872039795,
                        0.06090646982192993,
                        3.0642552375793457,
                        -0.007646398618817329,
                        3.672231674194336
                    ],
                    [
                        0.004809106234461069,
                        0.00023967394372448325,
                        0.4708338975906372,
                        1.832824945449829,
                        -0.6359105110168457,
                        1.082655668258667,
                        0.0048350077122449875,
                        -3.8448288440704346
                    ],
                    [
                        -0.04790767654776573,
                        0.0303676538169384,
                        1.0969786643981934,
                        0.7199816703796387,
                        -1.5406441688537598,
                        0.6350588202476501,
                        -0.04345482215285301,
                        -5.030154228210449
                    ],
                    [
                        -0.0014354956801980734,
                        -0.005255511961877346,
                        -0.4295993447303772,
                        -1.2688230276107788,
                        -0.38789573311805725,
                        1.5449632406234741,
                        0.005353641230612993,
                        -2.169102668762207
                    ],
                    [
                        -0.00874475296586752,
                        0.01205131970345974,
                        0.6553256511688232,
                        -0.5474892854690552,
                        -0.08136662095785141,
                        -0.907131016254425,
                        -0.011585265398025513,
                        -2.56508731842041
                    ]
                ],
                [
                    0.0009059939766302705,
                    -0.0014145848108455539,
                    -0.008515048772096634,
                    -0.007851667702198029,
                    0.008064410649240017,
                    -0.008987960405647755,
                    0.0013043718645349145,
                    0.0264870785176754
                ]
            ]
        },
        {
            "type": "dense",
            "activation": "",
            "shape": [
                null,
                1
            ],
            "weights": [
                [
                    [
                        -0.0002733321744017303
                    ],
                    [
                        0.0005569002241827548
                    ],
                    [
                        0.22437790036201477
                    ],
                    [
                        0.16849961876869202
                    ],
                    [
                        -0.39097654819488525
                    ],
                    [
                        0.0944192185997963
                    ],
                    [
                        -0.0006059185252524912
                    ],
                    [
                        0.05898278206586838
                    ]
                ],
                [
                    0.0006495121633633971
                ]
            ]
        }
    ]
}